<?xml version="1.0"?>
<opencv_storage>
<opencv_ml_svm>
  <format>3</format>
  <svmType>C_SVC</svmType>
  <kernel>
    <type>LINEAR</type></kernel>
  <C>1.</C>
  <term_criteria><iterations>1000</iterations></term_criteria>
  <var_count>400</var_count>
  <class_count>7</class_count>
  <class_labels type_id="opencv-matrix">
    <rows>7</rows>
    <cols>1</cols>
    <dt>i</dt>
    <data>
      0 1 2 3 4 5 6</data></class_labels>
  <sv_total>21</sv_total>
  <support_vectors>
    <_>
      -3.52008396e-06 4.16813737e-06 -7.01901354e-06 1.60107118e-06
      -1.60545528e-06 1.37884945e-06 -1.01801186e-06 -5.98373163e-07
      2.52538916e-06 -5.07046343e-06 -7.28551140e-06 1.01257228e-05
      -4.46951663e-06 -9.72771977e-06 8.61898934e-06 -6.47532670e-06
      -2.46992215e-07 3.46937691e-06 -5.16159253e-06 6.51501068e-07
      -2.43004183e-06 1.12875504e-07 4.81630821e-07 4.61438674e-07
      1.64699122e-06 2.39639166e-06 -2.66569077e-06 -1.64831170e-06
      -1.08683744e-05 2.59249305e-06 6.01457441e-06 -2.27784631e-06
      -2.07269818e-06 1.16133697e-05 1.99070787e-08 8.04323281e-06
      7.45491832e-07 -1.18811090e-06 3.24948269e-06 -9.84723783e-07
      3.37251936e-06 3.36360813e-07 -4.92180698e-06 2.22414928e-06
      -4.40378381e-06 -4.53605662e-06 7.16240629e-06 -1.22154927e-06
      -1.77654056e-05 -5.80206215e-05 -1.43737780e-04 -2.69948301e-04
      -7.05430357e-05 1.16565934e-04 1.98180278e-05 -4.18076070e-07
      4.35317543e-06 1.49041955e-06 -1.99068222e-06 1.19351125e-06
      -2.21009418e-06 -1.18742412e-06 4.89692366e-06 -4.80966776e-07
      1.32692912e-06 -5.74672822e-06 -2.00496961e-05 -4.36361261e-05
      -4.76650348e-05 1.39586467e-04 6.15784433e-04 1.62799624e-04
      -5.13239756e-05 -5.61763736e-05 3.60994022e-06 3.05608955e-05
      -1.25834890e-06 1.11768441e-06 1.86961302e-07 6.65066466e-07
      -9.16769380e-08 3.89750426e-07 -9.68806830e-07 4.69339375e-06
      4.31747731e-06 -4.65435551e-06 -2.75347011e-05 4.49673498e-05
      2.06740166e-04 2.03400865e-04 3.21136817e-04 1.16595918e-04
      2.98560044e-04 -3.66083812e-04 -7.34000423e-05 9.94400762e-06
      -3.63696345e-05 2.70860346e-06 -4.45980817e-07 4.30960654e-06
      -3.19927426e-06 1.97417364e-07 -8.94899870e-07 -3.48840695e-06
      -4.53792854e-05 -1.35735012e-04 1.66898499e-05 2.21112496e-04
      8.98432918e-05 -1.74641900e-05 2.76100109e-05 -1.98934824e-04
      2.21477996e-04 -2.06939483e-04 -2.26203891e-04 -8.05307427e-05
      3.20237450e-05 2.65637527e-06 1.07601352e-06 -2.31210961e-08
      -7.23195797e-07 2.10941880e-06 4.79385062e-06 -1.64967696e-06
      -1.09807508e-04 -2.55011400e-04 5.20703907e-05 2.06350567e-04
      -1.86593665e-04 -2.81716639e-04 2.24589749e-04 -2.45252704e-05
      1.14271927e-04 4.94860942e-05 4.28289422e-05 3.16470512e-04
      2.11603168e-04 6.70500185e-06 3.60955869e-06 -3.19679970e-07
      1.97201211e-06 -6.36160848e-07 -9.61177648e-07 1.19477966e-06
      -1.03012419e-04 -6.89284207e-05 2.08303900e-04 1.25856368e-05
      -2.58332118e-04 2.06722281e-04 2.54276129e-05 -2.52612226e-04
      -8.23708760e-05 2.29200077e-06 4.58510331e-04 4.60954034e-04
      4.26435057e-04 8.53587480e-05 -7.49244718e-05 -6.57293299e-07
      -5.59771138e-07 1.16464480e-05 -7.84262284e-06 4.99324779e-05
      4.85622550e-05 -1.62093769e-04 -1.29629014e-04 -4.68699902e-04
      1.25259088e-04 1.65316611e-04 -2.95748963e-04 -4.91887855e-04
      -6.81752936e-05 2.68637232e-04 6.32731826e-04 2.95458449e-04
      3.53404146e-04 2.49625475e-04 -5.58168722e-05 -4.44693887e-06
      -6.77506841e-06 1.22758356e-05 1.46736775e-05 1.19290293e-04
      1.99441667e-04 -1.99632650e-05 7.37510709e-05 2.96770682e-04
      5.98656829e-04 -3.34894168e-04 -1.06435921e-03 -5.78776759e-04
      -9.24553315e-05 7.64319848e-05 5.77521394e-04 2.88431795e-04
      3.04319052e-04 3.46729503e-04 -3.95366988e-06 -1.63993366e-06
      3.75697641e-06 -4.21817003e-06 4.80886513e-07 1.86760866e-04
      4.15827730e-04 4.18460404e-04 9.13801705e-05 8.82592925e-04
      3.75349133e-04 -5.27785509e-04 -1.34018424e-03 -3.53128184e-04
      2.64029426e-04 1.26806102e-04 4.93302243e-04 1.80278323e-04
      3.48809408e-04 3.26095556e-04 -1.54998197e-05 -5.93557661e-06
      1.77303846e-05 2.63822744e-06 1.60343734e-05 1.91211730e-04
      4.38597053e-04 3.88019747e-04 4.23649966e-04 9.08670016e-04
      1.99224742e-04 -9.07676818e-04 -1.07002829e-03 -3.55399497e-05
      3.31206771e-04 8.44083661e-06 4.52827080e-04 3.35265766e-04
      4.50702122e-04 2.31803555e-04 -9.69231496e-06 7.11220423e-07
      -5.62089326e-06 -4.00219324e-06 -5.74162686e-06 1.57546499e-04
      3.19548242e-04 4.03352460e-04 1.78490489e-04 7.82738614e-04
      2.36764216e-04 -5.62184257e-04 -2.20127971e-04 2.77924206e-04
      6.97493553e-04 3.00634332e-04 3.75223433e-04 5.16711327e-04
      3.83187085e-04 8.52986122e-05 2.16035596e-06 2.69483439e-06
      -1.83131931e-06 2.46806649e-05 -4.39430687e-06 1.14794515e-04
      3.05588008e-04 5.07083430e-04 7.04203921e-05 2.54757004e-04
      2.76865321e-04 -8.51484947e-04 -3.56361881e-04 5.36652165e-04
      4.99372720e-04 1.06012623e-04 -9.27896253e-05 2.13305641e-04
      8.97506106e-05 -4.52234344e-05 -9.98590735e-07 -4.89530794e-06
      -6.29704391e-06 -5.53851578e-06 5.66266954e-06 8.17265245e-05
      7.62469208e-05 3.77688062e-04 -1.28353699e-04 1.41463606e-04
      3.02776200e-04 -4.70819301e-04 -5.19830734e-04 3.65659303e-04
      -1.04755018e-04 -3.20949912e-04 -2.76221428e-04 -1.29990120e-04
      -3.15494399e-04 -3.03415029e-04 -3.53173709e-05 4.76957575e-06
      -3.74073329e-06 -2.39616247e-06 5.47687750e-06 6.57060082e-05
      4.90100538e-05 -4.53695247e-05 -2.17613386e-04 4.03927377e-04
      3.60603910e-04 2.00062641e-04 1.45352838e-04 1.72592205e-04
      -2.39260160e-04 -1.32239598e-04 -5.65273294e-05 -1.40407428e-04
      -2.80445034e-04 -3.09991796e-04 -1.58208131e-04 -5.14584428e-08
      3.99738752e-07 -3.89139223e-06 5.45469175e-06 6.04847774e-05
      1.85459954e-04 -3.72393624e-05 -1.33113981e-05 3.96206422e-04
      3.83412611e-04 6.75897172e-04 5.85959351e-04 1.81650321e-05
      -2.35757587e-04 1.41990909e-04 1.13242771e-04 -3.10538089e-05
      -6.34311800e-05 -6.59684301e-05 -3.80587080e-05 -3.80587085e-06
      -2.03864556e-06 2.75972416e-05 -6.04536922e-07 8.90310548e-05
      1.86773599e-04 1.41626209e-04 1.28316562e-04 2.02328054e-04
      1.47258339e-04 2.22873219e-04 2.92931392e-04 1.11372006e-04
      -1.63877077e-04 5.01150389e-05 3.97141719e-07 2.13223266e-05 0.
      -2.53724716e-06 0. 0. 5.10921973e-06 -1.31344632e-06
      -2.93795324e-06 2.29963962e-06 9.56527128e-06 8.82651875e-06
      1.49147718e-05 -1.74003094e-06 -8.53958591e-06 -2.76386731e-06
      3.55885663e-06 -3.34721420e-07 1.33530584e-05 5.54395137e-06
      -6.50449238e-07 -5.39773464e-06 -2.53724716e-06 -2.53724716e-06 0.
      -1.26862358e-06 -6.59942202e-07 -6.32271303e-06 2.46446525e-05
      -6.37123605e-07 -3.52689290e-06 -2.18675927e-06 3.44286764e-06
      1.79316703e-05 -1.19381104e-06 1.84918906e-06 9.50844606e-06
      -3.85293515e-06 -7.13221334e-06 -6.57084092e-06 9.54194456e-06
      -2.03646255e-06 0. 0. 0. 0.</_>
    <_>
      -9.32083458e-06 2.93239791e-05 -1.56684800e-05 3.79899006e-06
      -2.00014056e-05 1.07219139e-05 -2.16472054e-05 -9.68337463e-06
      -5.70702905e-05 -4.63963406e-05 -2.71985482e-05 3.89648376e-05
      -3.70081989e-06 -9.43152281e-06 2.90640783e-05 -8.41484234e-06
      1.28131260e-05 1.79263152e-05 -4.33975038e-06 -9.56301301e-06
      -1.01695177e-05 -4.46974591e-05 2.00337545e-05 -4.62953758e-05
      1.62930937e-05 5.53282553e-05 -2.06283687e-04 -1.79953757e-04
      -2.16622193e-05 -1.68617160e-04 -5.67048010e-05 -6.50522270e-05
      8.26038286e-06 3.37643869e-05 6.49973435e-06 1.55415855e-05
      -3.85264211e-05 4.18856916e-06 9.95096070e-06 3.00384477e-06
      2.98389205e-05 -2.27168384e-05 -4.76857967e-05 2.85344977e-05
      -3.09970601e-05 -1.27651438e-04 -6.96949020e-04 -8.53214471e-04
      -1.03678426e-03 -2.39884539e-04 2.11671693e-04 -7.53952554e-05
      1.36490259e-03 9.27367946e-04 -9.74701717e-04 -5.50065422e-04
      9.64571300e-05 4.95034510e-05 -1.59649426e-05 1.27116227e-05
      -2.17460001e-05 4.70346731e-06 2.82397996e-05 1.48706222e-05
      -6.03023509e-05 -8.41634974e-05 -7.71255582e-04 1.93967091e-04
      -3.56758130e-04 -9.31227405e-04 -1.05333842e-04 -1.40599115e-03
      -1.76054891e-03 7.86094752e-04 6.29337155e-04 -3.46511690e-04
      4.84063930e-04 4.06919251e-04 1.28977590e-05 8.25739153e-06
      8.63208243e-06 1.34849995e-06 2.53209600e-05 -7.72045969e-05
      -1.35408889e-04 -3.15084530e-04 -4.24063561e-04 7.80779752e-04
      -4.97112051e-04 -9.46614018e-04 7.61068877e-05 3.70261958e-04
      -4.07350861e-04 -2.85828690e-04 1.30301469e-03 -5.04454038e-05
      5.08324534e-04 4.47230763e-04 1.09241100e-05 -6.71330417e-06
      -1.69593222e-05 -6.31478251e-05 -1.67045291e-04 -3.44089785e-04
      -4.23510966e-04 -7.01051787e-04 -8.02453549e-04 -2.94713362e-04
      7.36323767e-04 -6.06786925e-05 1.19077554e-03 -1.27958687e-04
      5.67530573e-04 9.83308186e-04 -1.49818094e-04 -1.02778012e-03
      2.96972983e-04 4.27489373e-04 2.14770421e-06 9.21660285e-06
      2.77106265e-05 5.07027289e-06 -7.24794008e-05 -4.82306612e-04
      -3.14132019e-04 -4.84497490e-04 -6.09193870e-04 -2.76128208e-04
      -3.64319887e-04 6.95933995e-04 8.14731116e-04 -1.17579347e-03
      -1.66147528e-03 6.86705403e-04 -7.69256789e-04 5.89557283e-04
      4.89789643e-04 1.97880669e-04 5.84659620e-06 1.01433516e-05
      1.93839624e-05 -3.74454867e-05 -7.70152474e-05 -3.04712274e-04
      1.02453938e-04 3.69910966e-04 2.34894469e-04 -1.70825879e-04
      2.53703387e-04 1.56957970e-03 -4.75648674e-04 -2.80173379e-04
      9.11320618e-04 3.44727770e-04 -2.59635097e-04 8.79603089e-04
      1.55324861e-03 1.39577969e-04 -4.17574920e-05 1.20375289e-05
      3.97578042e-05 -5.93405412e-06 -4.76165442e-05 3.03151057e-04
      1.59835047e-03 1.89797394e-03 7.35354144e-04 2.23087787e-04
      8.99752195e-04 -4.40024392e-04 -2.21629001e-04 1.53948623e-03
      2.21284945e-03 1.65135029e-03 6.54269068e-04 6.01058302e-04
      1.47671835e-03 1.99891365e-04 -3.61119019e-04 -3.24277535e-05
      -7.40177056e-05 4.55179397e-05 1.91033469e-05 5.28090342e-04
      1.70720869e-03 1.62396359e-03 1.27700972e-03 1.86030741e-03
      1.10697164e-03 -1.44767959e-03 -8.50974873e-04 1.13877875e-04
      -3.36955360e-04 1.97992325e-04 1.76401794e-04 1.15958229e-03
      6.92900445e-04 4.35944792e-04 -4.39262949e-04 -8.14505620e-05
      4.11851215e-05 2.18521272e-05 4.74237422e-05 5.27880329e-04
      7.71431951e-04 -1.57683025e-04 3.95272276e-04 1.86942657e-03
      -4.58149370e-05 -7.90788559e-04 -3.81652266e-03 -7.33300520e-04
      7.14157533e-04 2.01425952e-04 5.62723028e-04 1.42030511e-03
      9.20257706e-04 6.70730544e-04 -2.02427851e-04 -6.31445509e-05
      -2.32933526e-05 2.69735101e-05 -3.58637975e-04 -2.71046796e-04
      7.70940023e-05 1.80525967e-04 1.28212414e-04 2.84011825e-04
      4.24420810e-04 -2.74948869e-03 -3.42022581e-03 8.90046183e-04
      -1.75101552e-04 -1.29382324e-03 8.69215350e-04 7.13193091e-04
      8.56735511e-04 -2.50349665e-04 -9.53496608e-04 -6.05443201e-05
      3.74106116e-06 -1.41676883e-05 -7.27418403e-04 -7.61963674e-05
      -8.04447336e-04 5.85432805e-04 -2.42432550e-04 -7.73664739e-04
      9.75678966e-04 -1.88264251e-03 -7.21903692e-04 -3.28578666e-04
      -1.54603375e-04 -8.55653547e-04 -5.60318658e-05 1.64717610e-04
      -4.16797120e-05 -6.86537300e-04 -7.22364581e-04 -9.82705533e-05
      -1.28350890e-04 1.05157727e-04 -7.21031509e-04 -7.70878221e-04
      -1.79129202e-04 1.42170745e-03 -7.74691102e-07 -5.06286044e-04
      1.77319546e-03 -1.78590685e-03 -1.60808454e-03 -8.31864425e-04
      -1.05086085e-03 -2.12580984e-04 1.22441608e-03 2.48060969e-04
      -3.77853547e-04 -1.91972926e-04 -1.35646056e-04 -1.90021274e-05
      8.73407225e-06 -1.97531899e-05 -1.87156489e-04 -3.95594834e-04
      -5.71309705e-04 8.73030454e-04 -1.39476417e-03 6.26795925e-04
      2.91314675e-04 -3.20379797e-04 -1.06613757e-03 1.75902591e-04
      -6.97920259e-05 -1.45841285e-03 -1.26704795e-03 -1.14069134e-03
      1.87969854e-04 7.58610840e-05 6.84734550e-06 -8.70477670e-05
      8.47182037e-06 -5.69073272e-05 -4.22577323e-05 2.15047359e-04
      -3.99154786e-04 -9.76660231e-05 -1.28430052e-04 2.69517099e-04
      -3.13279743e-04 -2.07049350e-04 1.61844911e-03 3.16372345e-04
      -2.51220190e-03 -8.39339569e-04 8.03226663e-04 8.55842372e-04
      -1.18948861e-04 -4.35145048e-05 -2.26766660e-05 -1.44502781e-06
      -2.22832477e-05 1.61130156e-05 -1.53782152e-04 -1.82979958e-04
      1.76474990e-04 -1.55892281e-03 -1.02450093e-03 5.61270455e-04
      1.80253212e-03 2.78631644e-03 2.02118536e-03 -7.45377562e-04
      -2.46311235e-03 -1.34457383e-04 7.39441486e-04 4.95351997e-05
      -5.36247644e-05 -2.60268985e-06 -8.27807598e-05 -4.47074490e-05
      -2.11241349e-05 1.13511880e-04 -4.96724642e-05 2.42749920e-05
      2.20925227e-04 -2.38346809e-04 -3.94729956e-04 -2.48473138e-04
      7.83157593e-04 9.89490189e-04 4.57728602e-04 3.43576612e-05
      -1.34271896e-03 -1.63494539e-03 -8.42789130e-04 5.95515885e-05
      -3.20275904e-05 -2.06442883e-06 -2.85989008e-05 -1.23201335e-05
      4.85609144e-06 -2.03459986e-05 -2.20381753e-05 -5.44636423e-05
      1.59775055e-07 9.71024347e-05 -4.26223414e-05 3.13095188e-05
      -2.06903424e-05 -1.28166921e-05 -4.60669571e-06 -3.46403940e-05
      -8.67004055e-05 -8.95316480e-04 -5.65105525e-04 3.72582363e-05
      -4.69471524e-06 -4.30608765e-07 -9.72242105e-07 -2.34735762e-06
      2.53691014e-05 2.18287096e-06 6.29416172e-05 5.89593674e-06
      -4.29363681e-05 -1.46379425e-05 2.05681572e-05 6.12167933e-05
      1.24505714e-05 4.17407246e-05 7.32848712e-05 6.50128495e-05
      5.14600970e-06 1.10110768e-05 5.49452488e-05 -3.81575301e-05
      -3.88896837e-07 -2.54180623e-06 0. -2.54180623e-06</_>
    <_>
      2.15869591e-07 -3.05638096e-05 -5.68144105e-06 -4.90707225e-06
      -4.42784511e-07 -4.63352853e-06 -7.76104571e-06 -8.92327819e-07
      2.12507985e-05 -5.08077437e-06 -6.98291387e-06 1.28059210e-05
      1.91361705e-05 7.43376745e-07 -1.51022214e-05 1.01892438e-05
      3.67048483e-06 1.17917239e-06 -1.85356339e-06 1.73918056e-06
      -1.21144849e-05 1.57611867e-05 -7.91572802e-06 -3.48260141e-06
      9.17601574e-06 -5.54249027e-06 2.77730919e-07 -6.66617461e-06
      -1.98610142e-05 -1.58439195e-06 2.16114731e-05 -1.78241464e-06
      8.99002771e-06 3.43597785e-05 -2.38066459e-05 9.41184135e-06
      5.40887459e-06 -4.96126631e-07 1.36395056e-06 9.23128951e-08
      7.34912510e-06 -1.00727093e-05 5.93668865e-08 -2.27495293e-05
      -1.62942561e-05 2.64948976e-05 -2.94451524e-06 2.55161776e-05
      -2.77634797e-04 -7.28586339e-04 -5.83698973e-04 -6.40001090e-04
      -5.12859668e-04 -3.22871201e-04 -4.84554130e-06 -1.20608702e-05
      1.41218079e-05 -7.96855875e-06 1.78449466e-06 1.78971220e-06
      -1.25351698e-05 5.91747494e-06 -6.86652939e-08 -3.09645802e-05
      -7.72796848e-05 -3.03353823e-04 -3.51639115e-04 -4.13720118e-04
      -1.16558652e-03 -1.38664118e-03 4.70535248e-04 1.69347622e-04
      -2.68164498e-04 -1.08102881e-06 6.75976567e-04 4.53601300e-04
      1.31716179e-05 2.16857352e-05 2.55520149e-07 5.44292050e-07
      -1.65410347e-05 -5.11906865e-06 -1.06874777e-05 -6.16463512e-05
      -5.33029612e-04 -9.65986925e-04 -8.61868029e-04 -1.01913745e-03
      -8.09925667e-04 -4.98677546e-04 9.17170255e-05 -4.18909040e-04
      -6.06298381e-05 -8.12596350e-04 4.98010486e-04 3.91783600e-04
      -4.25272883e-04 -3.42015232e-06 1.24630606e-06 -3.85223484e-06
      -7.32337912e-06 -1.88383528e-05 -4.63943215e-05 -8.78290448e-05
      -4.73866996e-04 -8.31160636e-04 -7.66592450e-04 -2.08539364e-04
      3.64897016e-04 -1.13165843e-04 1.09564062e-04 -1.32298783e-05
      1.98519760e-04 -2.70718388e-04 2.50193814e-04 2.14040818e-04
      -4.86135919e-04 -5.11677099e-05 -1.80567906e-06 9.41640337e-06
      6.23758842e-06 -1.95063308e-06 -3.31838019e-05 -1.27153442e-04
      -3.92693997e-04 -5.38016146e-04 -2.36979904e-04 1.40276461e-04
      -4.32594621e-04 -4.86208388e-04 6.73954259e-04 5.77829451e-05
      -2.07335630e-04 4.70006227e-04 -1.34159549e-04 3.05704772e-04
      2.93944089e-04 2.02499559e-05 1.98205203e-06 3.43704232e-06
      -1.53553101e-05 3.87083901e-06 -1.07939441e-05 2.10620856e-05
      1.98755151e-04 2.72428151e-04 1.37931813e-04 3.67233879e-04
      2.08292331e-05 4.96870896e-04 -5.19956448e-05 -4.33086447e-04
      2.11520266e-04 -4.05678475e-05 4.66054007e-05 6.73392904e-04
      8.87551229e-04 6.93305992e-05 2.52936570e-06 -3.97668828e-06
      -1.95994708e-05 1.85403369e-05 -2.60483739e-05 1.39934709e-04
      7.54305860e-04 6.89957000e-04 4.31684544e-04 -2.83317699e-04
      -5.09107158e-05 -3.74081079e-04 -3.73135612e-04 -5.26930380e-04
      -1.05335773e-03 -8.09695939e-06 4.89935977e-04 7.04784179e-04
      8.32540100e-04 2.27316836e-04 1.14982655e-07 -1.28942020e-06
      -6.37589437e-06 -7.97748180e-06 3.07620976e-05 1.76920526e-04
      6.54834497e-04 4.51672968e-04 3.46427230e-04 -6.20832434e-04
      -3.94386952e-05 -6.10377232e-04 -2.14951485e-03 -1.08483131e-03
      -1.21855573e-03 -8.42733367e-04 7.21436343e-04 4.93947708e-04
      5.41991205e-04 3.28182417e-04 6.09905055e-06 -1.01106401e-07
      4.25442749e-06 1.21460880e-05 -3.17913964e-06 3.13953991e-04
      8.53817153e-04 8.23611976e-04 5.87581490e-05 1.20565388e-03
      1.05824636e-03 -1.27043939e-04 -2.79597798e-03 -6.99391006e-04
      2.12249986e-04 -2.00946924e-05 4.85396478e-04 8.48946074e-05
      2.77981162e-04 1.99333022e-04 1.96763108e-06 -1.96079213e-06
      4.06989529e-05 -4.76319292e-05 -9.97783281e-05 3.03911016e-04
      1.42561481e-03 1.73958030e-03 1.46545400e-03 1.62626093e-03
      8.69186595e-04 -1.70785480e-03 -2.37130676e-03 2.92327226e-04
      -6.11595033e-06 -3.34693206e-04 2.18205576e-04 4.10513254e-04
      1.72696251e-04 -1.69010891e-04 -1.02772137e-05 5.12531415e-06
      3.65323808e-06 -1.36072573e-04 -3.78551456e-04 -1.13342881e-04
      6.48944115e-04 6.02459593e-04 -5.87573486e-05 1.23764295e-03
      1.02979818e-03 -8.49665492e-04 -7.26889193e-05 2.15397100e-04
      -3.19737825e-04 -2.74703256e-04 -2.94785335e-04 7.42358563e-04
      2.42817638e-04 -2.12980813e-04 7.24545134e-06 -1.81336623e-06
      -1.42069694e-05 7.70434272e-05 -4.62390803e-04 -3.30327370e-04
      -2.26353775e-04 3.91711365e-04 7.64990691e-04 7.35739595e-04
      1.75349810e-03 -2.85060698e-04 -2.12660671e-04 -2.65020964e-04
      -3.15604295e-04 -6.16488978e-04 -8.80669337e-04 1.55088012e-04
      -1.41810830e-04 -2.99978099e-04 1.44387911e-07 -9.18270530e-07
      -2.45766369e-05 -1.97256177e-05 -3.81202786e-04 -2.42571565e-04
      -1.13375497e-03 3.09728086e-04 2.06689438e-04 5.12759376e-04
      1.12924236e-03 -1.49911837e-04 -6.37471676e-04 -1.15952265e-04
      -7.47544545e-05 -2.15530570e-04 -4.59019589e-04 -3.50938586e-04
      -6.12133939e-04 -2.63233233e-04 2.80656627e-06 5.91564344e-07
      -9.24404412e-06 3.57394083e-06 -1.05673826e-06 1.71275620e-04
      -1.39110809e-04 1.18272401e-04 -4.59625851e-04 6.65648316e-04
      6.96669449e-04 -3.31096862e-06 -2.34904161e-04 2.97359598e-04
      -4.32128552e-04 -5.28265315e-04 -9.09993541e-05 -4.80747345e-04
      -3.87869193e-04 4.66174388e-05 1.02336833e-06 4.91820992e-06
      -8.08619552e-06 -1.40631209e-05 -5.49020624e-05 -1.24996834e-04
      2.63507216e-04 -5.11407852e-04 1.42175995e-04 6.43409032e-04
      1.02052756e-03 1.41774793e-03 8.35070095e-04 1.84219491e-04
      -1.81332449e-04 1.33138848e-04 -9.92296191e-05 -2.38335284e-04
      2.64833052e-05 6.48953460e-07 0. -5.24136567e-06 -5.47424497e-06
      6.08275222e-05 -1.36350965e-04 -2.09409423e-04 9.13918193e-05
      -4.61025687e-04 -5.55833511e-04 -6.86535670e-04 -2.67721538e-04
      4.85380675e-04 3.21438594e-04 4.12185800e-05 6.64449763e-05
      1.04391955e-04 -1.55089674e-05 1.26246785e-04 2.35115385e-06 0.
      -2.62068284e-06 -7.86204873e-06 -4.91122728e-06 -3.33595926e-05
      2.23886309e-06 -8.02313007e-05 -7.48415041e-05 -1.91336978e-04
      -2.55362247e-04 -4.10188281e-04 -5.72077988e-04 -4.60294192e-04
      -3.02235218e-04 -2.33306942e-04 2.11135775e-05 6.59664420e-06
      -2.33526862e-05 -3.43962552e-06 0. 2.83700069e-06 -5.24136567e-06
      5.67400150e-07 8.52259836e-06 -2.68324820e-05 4.25182916e-05
      -7.54012945e-06 -3.28684018e-06 -4.18303762e-06 1.02212543e-05
      -3.14168719e-05 -1.40058532e-04 -1.27805441e-04 -1.12191970e-04
      -2.44665898e-05 1.51423019e-05 -1.48208210e-05 2.05803244e-05
      -1.21730745e-05 -6.15984845e-06 -2.62068284e-06 0. 0.</_>
    <_>
      4.58281420e-06 -4.86220915e-06 2.66305437e-06 -1.83484178e-06
      2.64965433e-06 3.17967783e-06 1.27129006e-05 4.14136912e-06
      2.86576119e-06 1.12963671e-05 -5.60855142e-07 -6.28322778e-06
      9.22863819e-06 5.53703967e-06 1.50788273e-05 1.92823359e-06
      -3.50511914e-06 3.90793139e-06 -4.62278831e-06 -4.76420655e-06
      -5.66649305e-06 1.66276295e-05 6.75178313e-08 -7.43075725e-06
      1.26170671e-05 2.05217179e-06 -3.53857240e-06 4.63292372e-06
      -1.73015417e-06 -2.23413354e-05 1.87663118e-05 5.44486056e-06
      -1.24607250e-05 1.43780608e-05 -2.13997646e-05 1.41259370e-05
      2.44564177e-07 -9.11129518e-06 1.46805360e-06 6.47750369e-07
      1.62483298e-06 7.77004971e-06 2.72863559e-07 -5.70087332e-06
      -4.60815926e-07 8.61207263e-06 -2.08871734e-06 -2.88679985e-05
      -2.14037736e-05 2.68702443e-05 5.86008209e-05 8.22104776e-05
      3.74963944e-04 6.31129078e-05 3.17277663e-05 -3.44269865e-05
      -1.49148946e-05 -1.56419276e-06 -1.03572402e-05 1.08939707e-06
      -2.83008148e-06 1.08756476e-05 -7.40591850e-06 -1.24061007e-05
      -4.70599787e-07 -1.06699395e-06 -7.42635602e-05 -3.50412971e-04
      -2.66691757e-04 3.04042420e-04 8.46049516e-04 5.14470506e-04
      1.27039690e-04 2.21243201e-04 6.20775027e-05 -1.79053226e-04
      -9.10662566e-05 -2.49434706e-05 -1.65389770e-06 -5.57587146e-06
      -3.17726176e-06 -1.54750569e-06 9.43838677e-06 -1.96804867e-05
      -2.64573118e-05 -5.35345862e-05 -1.99784045e-04 -2.83073285e-04
      -5.57662497e-06 5.61445544e-04 6.78615819e-04 4.37146315e-04
      2.81781366e-04 1.52233639e-04 -6.43187886e-05 -6.00504391e-05
      -8.82186650e-05 -1.07168264e-04 -7.73996908e-06 -4.56209546e-06
      4.87780562e-06 -1.28563661e-05 7.99641566e-06 -3.70061607e-05
      -4.44537145e-05 -2.06371507e-04 -2.81347020e-04 -8.39760542e-05
      1.33683527e-04 7.56920344e-05 1.72691958e-04 -4.02468743e-07
      3.93112598e-04 -1.89962739e-04 -3.72390467e-04 -1.40153643e-04
      -1.67857415e-05 -1.16137024e-04 -5.18652314e-06 -1.62058461e-06
      2.90811840e-06 1.92739367e-06 -9.71542067e-06 -7.02452453e-05
      -1.42201665e-04 -2.68584176e-04 -9.05390043e-05 1.27564475e-04
      5.18160450e-05 9.91183697e-05 9.51918599e-04 2.55295861e-04
      4.29318345e-04 4.92648047e-04 -3.69353627e-04 -1.21112498e-04
      -3.56295699e-04 -1.69169463e-04 -8.98277540e-06 -2.75792081e-06
      1.36138997e-05 -1.60484478e-06 2.07630728e-05 -2.85767401e-05
      -4.06065337e-05 1.57394607e-04 1.08243577e-04 -1.03684099e-04
      3.70818132e-04 5.45428600e-04 1.21407991e-03 6.07683964e-04
      8.61736480e-04 9.13299329e-04 2.51025369e-04 3.68354347e-04
      2.61551089e-04 2.21018476e-04 6.33437276e-06 -7.35439880e-06
      -6.09075869e-06 8.04623687e-06 -2.55824107e-05 -6.06730682e-05
      2.59869819e-04 1.16793388e-04 -3.97425873e-04 -4.40261829e-05
      4.21504694e-04 4.46751597e-04 2.67641240e-04 -4.27084131e-04
      -3.19834973e-04 1.50940294e-04 2.83288246e-04 4.37472976e-04
      3.81010264e-04 -9.61716505e-05 -1.36228773e-05 -5.85856833e-06
      -1.14981276e-06 7.06969377e-06 -1.42988310e-05 5.66967501e-05
      1.46013175e-04 -2.57684558e-04 -3.12893360e-04 -3.02847347e-05
      -1.49736152e-04 -5.00748050e-04 -7.43684883e-04 -8.60117201e-04
      -8.19649664e-04 -8.25075491e-04 4.69673141e-05 5.72192308e-04
      4.97747445e-04 -2.21135124e-04 -6.28747875e-05 1.19153647e-05
      -4.59613648e-06 -1.05178942e-05 -1.92835068e-05 6.28596390e-05
      1.63645134e-04 3.17727885e-04 -4.37652576e-04 1.60459138e-04
      -2.25607568e-04 -5.44840936e-04 -1.21874327e-03 -1.05358404e-03
      -7.09788001e-04 -4.74530621e-04 1.55084505e-04 4.87776560e-04
      3.71352944e-04 9.94265356e-05 -3.72923273e-06 -5.58981992e-06
      1.12306734e-05 9.67803589e-06 2.99926069e-06 -6.21121726e-05
      2.50590470e-04 5.66555304e-04 -4.48114646e-04 -3.71021088e-05
      -3.60766389e-05 -7.77806330e-04 -1.23737147e-03 -4.35193040e-04
      -2.49220000e-04 -1.18205782e-04 3.85775522e-04 3.40196420e-04
      1.49401007e-04 2.73353187e-04 -3.79179505e-06 -1.81485325e-06
      -1.21114572e-05 -3.09803318e-06 -2.50309313e-05 -1.07135260e-04
      -1.68046725e-04 -1.70316453e-05 -3.98811622e-04 9.73879360e-05
      -2.73906800e-04 -1.01370981e-03 -9.82133090e-04 -6.89446053e-04
      -4.20487893e-04 -5.23545721e-04 -5.32748643e-04 2.54692277e-05
      1.21199075e-04 1.71372565e-04 3.79460016e-06 -1.74098147e-06
      -1.30431192e-06 1.22912263e-06 4.35875372e-05 1.31645167e-04
      -3.25715635e-04 2.46598793e-04 -2.72734702e-04 -4.09063396e-05
      3.02387180e-05 -3.70150723e-04 -5.27516473e-04 -4.50472813e-04
      1.53745423e-04 -4.83157841e-04 -1.64437603e-04 5.00371738e-04
      1.90698585e-04 4.43895515e-05 -5.67637244e-06 -9.28507779e-06
      -8.75806199e-06 -1.54214860e-07 6.19223792e-05 4.42861172e-04
      3.85726307e-04 6.90196233e-04 6.74834650e-04 1.14285748e-03
      1.16553786e-03 5.32276521e-04 -4.15984920e-04 -3.00251850e-04
      1.30016808e-04 -5.27806405e-04 -2.66236049e-04 3.56681121e-04
      2.07926732e-05 -7.05976345e-06 7.18120475e-07 -2.99223257e-06
      2.29260104e-06 -7.81512881e-06 7.05623315e-05 2.81221757e-04
      5.06615965e-04 8.04643729e-04 6.49502268e-04 8.47456395e-04
      1.20119366e-03 8.07904173e-04 6.47498120e-04 4.48498642e-04
      -2.76588427e-04 -5.08115219e-04 -3.42864980e-04 1.21902187e-04
      -5.70903103e-05 -5.69715621e-06 -2.86721024e-06 -1.85310364e-06
      3.62837994e-07 5.76655850e-07 2.94263646e-05 1.42224497e-04
      2.58049229e-04 5.76521743e-05 2.12337487e-04 4.98324807e-04
      6.08136470e-04 6.88961823e-04 4.24509228e-04 1.00714606e-04
      -1.77868336e-04 -2.80938748e-05 -4.29464359e-04 -2.00606810e-04
      -3.71812384e-05 -9.67554297e-06 0. -4.74353101e-07 5.34385526e-06
      1.10370947e-05 -6.51692858e-07 8.97346035e-06 -1.45045196e-04
      -2.58743472e-04 -2.76810053e-04 -2.58947694e-04 6.10422721e-05
      7.78486792e-05 1.12838366e-04 4.48010178e-06 1.40321963e-05
      8.74658072e-05 -9.06196146e-05 -4.83599724e-05 -2.04766238e-05
      -8.07458218e-06 -1.41738235e-06 -1.78306365e-07 4.48323090e-06
      -5.06655670e-06 -2.27938972e-06 3.74671026e-06 3.13916780e-06
      -2.93644243e-05 -7.65921286e-05 5.69822032e-06 3.21934640e-05
      1.23852660e-05 -1.72692344e-05 -2.55740542e-05 -1.09705661e-05
      -1.05333966e-05 -4.86900944e-06 -4.63589789e-09 -4.14068818e-05
      -2.18819496e-05 -2.76623632e-06 0. 7.51261666e-07 -2.90869571e-06
      1.62955384e-05 3.42748740e-06 2.68013264e-06 -7.01870067e-06
      -5.71570899e-06 1.03014518e-05 -6.05805053e-06 3.46274282e-06
      -5.51256107e-06 -6.76773834e-06 -4.27105942e-06 2.74110653e-06
      -9.76305000e-06 7.80703340e-06 -8.88140164e-07 -4.13787092e-07 0.
      -2.96046721e-07</_>
    <_>
      1.71680986e-05 -2.28296176e-05 2.85235838e-05 1.54618431e-06
      1.81337862e-06 8.98483086e-06 -2.84522466e-05 -5.82220218e-06
      3.95393072e-05 -3.95624593e-05 -2.56803087e-05 3.02519838e-05
      9.66153129e-06 -1.63590812e-05 -9.28047120e-06 -3.05737994e-05
      -9.23004245e-06 -1.30260014e-05 -4.32350207e-05 -2.24418072e-05
      -2.00919530e-05 4.38595707e-05 -5.83196561e-06 -4.12348745e-05
      -3.11061558e-06 1.50269279e-05 -1.32723399e-05 2.50757457e-05
      -7.34323912e-05 5.23666604e-05 -4.36503024e-06 -2.18296063e-05
      2.28035219e-06 4.05220198e-05 -6.21164281e-06 1.78717564e-05
      -2.78959251e-05 -2.16827884e-05 -4.04601305e-05 -3.60223396e-07
      3.07995979e-05 -5.38910581e-06 -2.10837552e-05 4.65440507e-06
      -8.16937427e-06 -2.61904243e-05 -3.85956628e-05 -7.69789040e-06
      4.56305897e-05 -1.41547207e-04 -5.31599624e-04 -7.47669081e-04
      -2.85453803e-04 -3.70423295e-05 -5.86665592e-05 -1.14265298e-04
      8.92844218e-06 -5.54902945e-05 -3.28910173e-05 -1.68859806e-05
      -2.12503728e-05 -2.75843049e-05 -2.82903761e-06 -1.63466084e-05
      -2.24251507e-05 -4.88150341e-04 -6.22316555e-04 -2.75880651e-04
      -4.17229050e-04 -2.22244635e-05 2.16778787e-03 1.17288798e-03
      -4.47539001e-04 -5.55643404e-04 -8.47667281e-04 -8.20224406e-04
      1.19303346e-04 -1.56624756e-05 -2.40801863e-04 -3.04974328e-05
      -9.94395759e-06 3.20640138e-05 -3.03634192e-06 -3.41220184e-05
      3.78345680e-06 -3.34837765e-04 -1.00162230e-03 -9.94614442e-04
      -5.77685714e-04 -3.58195975e-04 7.99800735e-04 6.64479681e-04
      8.27818236e-04 5.71515702e-04 -1.09267443e-04 -8.43371789e-04
      1.66929443e-04 -3.78234341e-04 -3.98160890e-04 -3.06696864e-04
      -5.77433893e-05 -2.11136303e-05 1.25713168e-05 3.72544741e-06
      1.09639201e-04 -1.47452840e-04 -8.67929484e-04 4.44951474e-05
      2.19671158e-04 -1.72982473e-05 -3.59114027e-04 2.62405461e-04
      1.70210854e-03 6.62436127e-04 -7.63803546e-04 -1.27928786e-03
      -5.70310163e-04 -1.16909924e-03 -8.52004334e-04 -1.45336278e-04
      3.54089643e-05 -4.33113419e-05 9.45176907e-06 8.83580742e-06
      -4.63127108e-05 -4.75881025e-05 -9.72233713e-04 3.06812668e-04
      -5.70583215e-04 -1.13860553e-03 5.45153278e-04 1.03052834e-03
      9.98136005e-04 6.28229347e-04 -4.39404423e-04 -1.12734153e-04
      -9.24400374e-05 -1.88809179e-03 -1.24466314e-03 -3.48516565e-04
      5.81685754e-06 2.95801783e-05 4.00968611e-06 3.09612515e-05
      -9.00482846e-05 -3.07739538e-05 6.74053153e-04 -1.63540208e-05
      -1.28719851e-03 -6.28061243e-05 -1.33745035e-03 7.80856317e-06
      2.29186888e-04 3.91511334e-04 1.60982308e-03 1.94244145e-03
      1.41394325e-03 -5.34750325e-05 -3.22763808e-04 -6.95205017e-05
      -6.78957440e-06 7.70243132e-05 -3.20044928e-05 5.62324021e-05
      8.26897885e-05 -2.25213706e-04 6.65250991e-04 -8.02280047e-05
      1.30627144e-04 8.22471702e-05 -1.04751275e-03 -1.43847021e-03
      7.22401865e-06 8.47491785e-04 1.18633441e-03 1.98788615e-03
      1.64576387e-03 7.67950318e-04 3.74660449e-05 -1.42752369e-05
      -1.40573757e-05 3.04109635e-05 6.31294242e-05 3.04093905e-04
      7.66342157e-04 -2.81087327e-04 -3.22164648e-04 -2.98993749e-04
      4.63673096e-05 -7.28030107e-04 -2.01537577e-03 -1.07047870e-03
      -2.69384822e-04 4.20203491e-04 -1.08826913e-04 2.77429674e-04
      1.37566996e-03 6.33778167e-04 1.75012741e-04 4.38974457e-05
      4.67975551e-05 -2.10611179e-05 -2.35277894e-05 7.58512819e-04
      1.73644663e-03 1.53149734e-03 -8.92944518e-04 7.60609983e-04
      5.87246614e-04 -7.57035043e-04 -2.83541763e-03 -7.79095280e-04
      7.39896132e-05 1.98575086e-04 4.94560983e-04 -5.66934643e-04
      1.23993109e-03 5.77269602e-05 2.16001223e-04 -1.60508971e-05
      2.34975651e-05 5.42371672e-05 3.64855987e-05 8.42059730e-04
      1.56582147e-03 2.35941424e-03 4.89841565e-04 3.11906479e-04
      1.06391357e-03 -1.28299056e-03 -2.97092088e-03 5.69931639e-04
      -2.62050802e-04 -7.14649796e-04 1.04364321e-04 -3.94090312e-04
      1.12383114e-03 -4.44333622e-04 -2.49907287e-04 1.39059539e-05
      5.70820794e-06 -2.62650537e-05 5.67989518e-05 7.62560929e-04
      7.29330233e-04 9.68909299e-04 1.35284371e-03 1.77490129e-03
      1.06691138e-03 -1.28614716e-03 -4.37584386e-04 3.75801726e-04
      -1.19584511e-04 8.00748589e-04 6.69223256e-04 7.11592555e-04
      1.24139362e-03 -9.89722554e-04 -6.04605768e-04 6.64963727e-06
      -1.11841682e-05 4.30005457e-05 -3.71288625e-05 1.87306636e-04
      -1.13130736e-04 8.11689475e-04 1.20314385e-03 1.69532408e-03
      1.44169433e-03 -1.90201751e-03 -8.12398794e-04 2.54596584e-04
      2.53530598e-04 -1.39248601e-04 3.17564438e-04 7.68952654e-04
      -7.57957096e-05 -1.24474277e-03 -2.39166795e-04 -1.14434524e-05
      1.66541467e-05 -3.60691301e-05 -4.17355768e-04 2.40524139e-04
      -6.18719612e-04 -3.56896518e-04 -1.26140891e-03 4.48154897e-04
      5.15833264e-04 1.37002731e-04 8.00772104e-05 1.65681908e-04
      -9.61791840e-04 -2.62856396e-04 -7.15301605e-04 -1.56377908e-04
      -1.01793150e-03 -7.31508073e-04 -3.61106004e-06 -1.01939522e-05
      9.80686400e-06 -3.49218826e-05 -3.66004184e-04 5.07074292e-04
      2.07128716e-04 -9.23264597e-05 -2.37282860e-04 1.48569711e-03
      -4.91775107e-04 8.71525772e-05 8.55103601e-04 -4.33342822e-04
      -1.05984462e-03 -1.49459671e-03 -8.90227500e-04 -2.68342730e-04
      -5.99676510e-04 -1.44185233e-05 -7.45238685e-06 9.92506830e-06
      3.12193015e-06 -2.15629825e-05 2.35839725e-05 7.35835521e-04
      1.70982839e-03 5.41031914e-05 -3.73410934e-04 1.11157307e-03
      1.15566491e-03 1.52448507e-03 -7.17476141e-05 -1.62463763e-03
      -1.05476333e-03 -4.03886661e-04 4.23835038e-04 -8.39970962e-05
      -2.08028268e-05 0. 0. 0. 2.19347094e-05 6.68138164e-05
      -4.11104920e-05 3.84900108e-04 7.66936748e-04 3.69741727e-04
      -7.45305268e-04 -9.22257605e-04 1.31567460e-04 5.32406440e-04
      6.24689201e-05 6.32504700e-04 5.07872086e-04 4.01588535e-04
      4.89600316e-05 6.77270218e-05 -2.33739627e-07 0. -1.16869819e-06
      0. -2.38941921e-05 4.46587228e-06 -8.72251348e-06 3.96485893e-06
      4.84852717e-05 -1.64739595e-05 -3.69971211e-04 -2.39559522e-04
      2.05998731e-04 -2.30893711e-04 -3.55609489e-04 -1.37286042e-04
      -9.42632832e-05 4.64308215e-07 6.66306960e-06 -6.24392669e-06 0.
      -7.01218880e-07 0. 0. 1.33933636e-05 1.61645639e-05 8.92405005e-05
      1.24973421e-05 4.92061508e-06 -4.32450870e-05 1.88670838e-05
      7.56867303e-05 -2.43680715e-05 -3.65857122e-05 1.17667732e-05
      -3.20908002e-05 -4.50807966e-05 -1.03196599e-05 3.25242327e-05
      1.28879728e-05 -1.16869819e-06 -2.33739627e-07 0. -2.33739627e-07</_>
    <_>
      1.74380857e-05 -2.93929247e-06 1.91626514e-05 1.63900695e-05
      -1.06861226e-05 7.50805157e-06 5.40684005e-06 3.04159062e-06
      3.00298398e-05 -3.89985835e-05 1.07995393e-05 4.25423350e-05
      -3.02524568e-05 5.70137991e-06 8.69347843e-07 5.12552015e-06
      -1.24139087e-05 7.75930494e-06 -9.12154519e-06 -5.71857345e-06
      1.36901581e-05 -2.21540595e-05 -1.86977431e-05 -8.81230608e-06
      2.17541601e-05 1.56270580e-05 -2.25936907e-04 -1.45337995e-04
      -4.60563933e-05 1.57005215e-05 -1.95186603e-05 -7.71926716e-05
      -1.44388454e-04 -1.11435853e-04 -4.78092370e-05 6.56400371e-05
      7.80395112e-06 5.25491350e-06 9.41763756e-06 -2.53219278e-05
      -1.18687549e-05 3.68827205e-05 1.57031918e-05 2.59089643e-06
      3.72189334e-06 -1.54481211e-04 -6.90871500e-04 -6.38957601e-04
      -9.44939617e-04 -8.57967883e-04 3.76204960e-04 -1.10746408e-03
      6.68665860e-04 -6.02461630e-04 -5.76756313e-04 -2.09261256e-04
      -1.45974249e-04 -1.58863477e-05 -2.87451894e-06 -9.22147410e-06
      -8.49171010e-06 1.04137712e-06 -3.44225446e-05 2.77395084e-05
      3.27578960e-06 -3.69323068e-04 -2.71946716e-04 -7.63830962e-04
      -2.37482876e-04 8.01448710e-04 1.93948997e-03 1.23131555e-03
      1.19963801e-03 -6.27085974e-04 -9.53647599e-04 -7.48688006e-04
      -7.99260626e-04 -8.06654716e-05 -4.63280739e-05 -2.01497846e-06
      8.86097405e-06 -5.26517670e-06 2.73725091e-05 1.79093695e-05
      -2.00388036e-04 -6.80554018e-04 -1.78246366e-04 -2.04183816e-04
      1.30026427e-04 6.60402759e-04 1.53002283e-03 1.26183499e-03
      3.60662671e-04 3.50741248e-05 9.83882346e-04 8.66547751e-04
      -1.26820349e-04 -3.75715579e-04 -4.07218351e-04 -2.74936639e-04
      -4.77219510e-06 -1.62143660e-05 2.44265466e-05 -1.20683326e-05
      -3.46598477e-04 -5.34336956e-04 -1.20602199e-04 -5.86326001e-04
      -3.86829961e-05 3.00891843e-04 6.65709435e-04 2.93692021e-04
      1.50534825e-03 2.59157759e-03 2.05855281e-03 5.32266102e-04
      1.67900274e-04 -1.13893395e-04 -2.75713042e-04 -2.09002785e-04
      1.66056034e-05 -1.34963911e-05 -1.21099788e-06 -2.66983698e-05
      -5.17279783e-04 -6.79836376e-05 4.00915887e-05 -7.87242316e-05
      -3.50021000e-04 -5.95955993e-04 6.26301917e-04 3.65055050e-04
      2.13536667e-03 2.66107358e-03 2.61468722e-05 5.63702546e-04
      -7.28318701e-05 4.22255136e-04 -4.64810682e-06 -4.13184462e-05
      2.50955145e-05 -1.37505676e-05 1.89597740e-05 5.46788178e-05
      -4.23515856e-04 9.77231190e-04 2.28996345e-04 -1.13007309e-05
      1.43144731e-04 4.66256461e-04 9.33077768e-04 1.50989171e-03
      2.71693734e-03 6.83692750e-04 2.54565035e-04 1.88425195e-03
      9.47836728e-04 8.47291725e-04 -1.25902670e-05 9.73018587e-07
      -9.98421638e-06 -3.33506478e-06 -8.75789101e-06 -1.09504967e-04
      5.58041065e-05 1.19180733e-03 -1.20889652e-03 -7.58458264e-05
      4.93829430e-04 -1.21577439e-04 -4.53376852e-04 -1.90351770e-04
      -7.34263958e-05 -7.62894051e-05 1.48799759e-03 1.06672558e-03
      5.48251788e-04 2.98860890e-04 -1.33245021e-05 1.50008702e-06
      -1.18678736e-06 1.68963265e-06 6.95261479e-05 -1.21619581e-04
      7.60405906e-04 8.46561335e-04 -1.22763065e-03 3.16474616e-04
      3.51383023e-05 -5.15747059e-04 -1.46637054e-03 -1.66434416e-04
      -1.49356434e-03 -8.33976548e-04 7.35934882e-04 7.26471131e-04
      2.33655854e-04 2.56621599e-04 -3.19844185e-06 3.00414831e-05
      2.04009921e-05 2.85713941e-05 -3.95230745e-06 5.55949664e-05
      5.94942481e-04 1.64924859e-04 -8.95457284e-04 5.93688805e-04
      -5.39460802e-04 -4.00882418e-04 -1.83575565e-03 -6.41650753e-04
      -1.37737184e-03 2.24336211e-04 4.13784088e-04 1.41610639e-04
      4.09080472e-04 3.81016493e-04 -4.16097428e-05 -4.70186933e-06
      -1.58531275e-05 2.46321379e-05 1.69982632e-05 4.89472513e-05
      7.71556399e-04 6.93358306e-04 -4.24092868e-04 2.37163680e-04
      -9.68553184e-04 -1.42767269e-03 -2.17297254e-03 -2.10606639e-04
      -6.69502770e-04 1.03814888e-03 2.71971046e-04 -3.62640276e-05
      -5.06425160e-04 3.63272615e-04 9.13810800e-06 -6.81447682e-06
      4.21900950e-06 2.36081396e-05 -1.51253889e-05 9.27726705e-06
      8.81725340e-04 5.05444710e-04 -1.08877686e-03 1.59711868e-04
      3.94531584e-04 -4.71600273e-04 -1.53426931e-03 -6.83378021e-04
      3.55449083e-05 -4.75921697e-04 -1.24805677e-03 3.18021892e-04
      -3.81714402e-04 3.06333968e-04 3.24310713e-06 -4.19830030e-05
      -7.81325707e-06 1.77082584e-05 -1.71070133e-05 -2.73604437e-05
      2.23656316e-04 3.93837196e-04 -8.56557046e-04 -3.99236626e-04
      4.45831916e-04 -3.52465373e-04 -6.01106964e-04 -8.96407466e-04
      -1.92338382e-04 1.10515022e-04 -2.58862856e-04 1.19680444e-04
      -5.36707521e-04 -2.86633131e-05 -5.36499874e-06 -3.15235707e-06
      -1.87178994e-05 1.60973159e-05 -1.24622939e-05 1.03229941e-04
      4.89070604e-04 2.48802622e-04 -7.56330439e-04 1.81866140e-04
      1.49820742e-04 1.80008112e-06 -7.08796142e-04 -5.56391955e-04
      -1.03992922e-03 -9.06433503e-04 -5.32436883e-04 -3.82469734e-04
      4.34852382e-06 5.70883858e-05 2.24704945e-05 -2.33862738e-06
      -9.16365752e-06 -8.53887377e-06 -9.60293983e-06 1.66875805e-04
      7.18678813e-04 3.91054753e-04 -5.64606104e-04 1.27022096e-04
      6.15905155e-04 -3.03592853e-04 -7.39204479e-05 -3.81191581e-04
      -1.77190430e-03 -1.73760683e-03 -5.33431361e-04 6.81310135e-04
      3.33059288e-04 3.79801691e-06 -9.29071803e-07 1.28865759e-05
      -1.24966218e-05 -3.87779482e-06 -9.19368176e-06 7.43397395e-05
      1.91659885e-04 2.99778301e-04 -9.76591764e-05 7.30780012e-04
      1.11958862e-03 1.35623896e-03 1.23913249e-03 6.13504497e-04
      2.33870422e-04 -1.25956532e-04 1.50572436e-04 2.56230705e-04 0. 0.
      0. 0. 1.02362092e-05 4.39226387e-05 1.54737245e-05 1.53437468e-05
      8.81944743e-06 -8.56499810e-06 -4.10415350e-06 -1.42269346e-05
      1.80043193e-04 2.76319333e-04 1.92405816e-04 1.32100831e-04
      2.92261302e-05 -1.21950601e-04 -7.79645561e-05 3.20309700e-05 0.
      0. 0. 0. -1.93511096e-05 7.12029441e-06 -5.13879149e-06
      -1.39835911e-05 1.36295866e-05 1.81678915e-05 4.42669261e-06
      1.63718923e-05 -2.62001304e-05 1.09236794e-06 -2.78105726e-05
      -1.65102356e-05 1.58010735e-05 1.60951458e-05 -1.25738507e-05
      -8.52378071e-06 0. 0. 0. 0. 1.47555993e-05 -1.51856339e-05
      4.11869041e-05 -3.23208587e-06 -2.70880755e-05 -1.60330019e-05
      -4.95607856e-06 1.34524398e-05 8.57706618e-06 -2.08887341e-05
      1.47790297e-06 -2.60315010e-05 -7.51537082e-05 -1.45342410e-05
      2.20770235e-05 -8.44714521e-08 0. 0. 0. 0.</_>
    <_>
      6.03562548e-05 -2.40045028e-05 -2.91879496e-05 6.18775302e-05
      -5.97842845e-05 -6.10635379e-06 -5.93973273e-05 -1.63532004e-05
      -7.45863945e-05 -2.62024641e-05 -8.09764024e-05 2.55242794e-05
      -8.84381916e-06 5.52237088e-06 6.59646548e-06 -1.68644274e-05
      5.23480185e-06 -2.68097392e-06 7.39887264e-06 3.82556482e-06
      -3.67975408e-05 3.12744887e-05 -2.87433922e-05 -4.48072351e-05
      4.91305900e-06 -4.92715390e-06 6.32366209e-05 -2.01759667e-05
      -1.35990369e-04 -3.50293296e-04 -3.33455682e-05 -2.16966218e-05
      1.14977069e-04 1.15540417e-04 -1.76813002e-04 3.29419818e-05
      5.47490481e-06 1.53168003e-06 8.12785402e-06 1.02027043e-05
      9.28722983e-08 4.75943989e-06 -1.42533372e-05 7.95325759e-05
      3.71668807e-06 -6.69059518e-05 -2.67437717e-04 -1.11598682e-04
      5.49890276e-04 2.83116882e-04 1.34764216e-03 2.14709202e-03
      -1.09528867e-03 2.31678772e-04 -2.94950732e-04 -9.73107235e-05
      -2.28562021e-06 4.10920711e-06 3.06336005e-06 -1.39285441e-06
      -3.24043976e-05 -8.34078310e-06 -3.35529257e-05 -2.12376690e-05
      -2.59035703e-04 -1.26011175e-04 -4.62629869e-05 -7.09169370e-04
      -6.56773569e-04 -1.72421965e-03 6.66782260e-04 1.36552099e-03
      -2.77331518e-03 2.21710608e-04 9.71605768e-04 -1.63118370e-04
      4.22260055e-04 1.19281707e-04 -5.99167834e-07 8.65896709e-06
      -1.09148289e-06 -3.05749882e-06 -2.87616094e-05 -1.41871889e-04
      -1.16624159e-03 -1.19972997e-03 7.38228555e-04 -9.53183160e-04
      -2.56510195e-03 -1.03587366e-03 -1.28490385e-03 -4.52654815e-04
      -1.66877260e-04 1.61704666e-03 6.44706597e-04 5.02614479e-04
      1.08309940e-03 2.35830215e-04 1.44245985e-06 -1.26009479e-06
      -6.27026893e-05 -4.27373088e-05 -8.86964699e-06 -7.78902671e-04
      -2.62344931e-03 -2.38328706e-03 -6.36210490e-04 1.96435431e-04
      -5.87685499e-04 3.71864153e-04 -1.16271165e-03 1.25797596e-04
      -2.06892029e-04 1.13582762e-03 8.94261539e-05 6.13312412e-04
      6.05501002e-04 6.50228321e-05 -3.60805444e-07 8.41149722e-06
      4.07449807e-06 -4.50617881e-05 4.17891206e-05 -1.05733855e-03
      -2.67755520e-03 -1.97658339e-03 -5.21770678e-04 1.15993572e-03
      1.35618873e-04 -1.27561693e-03 5.27514960e-04 -4.49561077e-04
      -2.26254648e-04 1.65092395e-04 -7.42573640e-04 1.10550747e-04
      -1.80092375e-05 -6.70519694e-06 -4.32989918e-06 1.44245985e-06
      1.27199455e-05 -2.86416671e-05 4.00151694e-05 -7.54631910e-05
      3.75960313e-04 9.19396625e-05 -7.51283485e-04 6.75245537e-04
      2.98946561e-05 5.98459214e-04 2.40542367e-03 -1.26295519e-04
      -6.78267854e-04 7.12155161e-05 -8.05626507e-04 -2.21741080e-04
      -1.20037412e-05 -9.04659657e-07 6.69905348e-05 -4.19713933e-06
      -2.15132659e-05 5.82263165e-05 8.86530834e-05 -2.84605994e-05
      8.47568968e-04 1.96228619e-03 1.12482300e-03 2.12724973e-03
      1.87365644e-04 2.64436007e-03 1.76437257e-03 -1.13692236e-04
      6.83497929e-05 -8.21416616e-04 -8.18053726e-04 -3.00680811e-04
      -3.95437703e-04 -4.87233512e-04 -2.67597090e-04 -5.68015348e-05
      1.45588070e-04 -9.53139242e-05 4.33309282e-07 -8.54925747e-05
      -1.80536081e-04 1.08934031e-03 8.55737948e-04 -7.19179152e-05
      9.05809284e-04 3.01402062e-03 3.11006769e-03 1.28153618e-03
      -5.44101291e-04 -1.12290587e-03 -8.96017125e-04 -8.14935309e-04
      -7.91394094e-04 -6.06869697e-04 -3.52810457e-04 1.41411156e-05
      2.82616702e-06 -6.34347452e-05 2.90718544e-05 -3.87665816e-04
      -6.25931367e-04 -1.08743727e-03 -3.67709319e-04 -9.96584189e-04
      5.37352054e-04 2.03349465e-03 2.15926534e-03 7.60249910e-04
      1.01049629e-03 -9.45666397e-04 -9.47851746e-04 -5.38633205e-04
      -3.50379181e-04 -2.05542790e-04 -8.56632760e-05 -3.58252946e-05
      -4.32283123e-05 2.07973471e-06 -1.95056273e-05 -5.53179358e-04
      -8.55873688e-04 -1.37215690e-03 -1.02342176e-03 -2.87672342e-03
      -1.45000243e-03 6.67506712e-04 1.90180587e-03 9.10801697e-04
      5.19188354e-04 -9.96751711e-04 -1.29347050e-03 -3.66884778e-04
      -1.80696734e-04 -1.00222242e-04 -1.50118314e-04 6.46000117e-05
      9.56977783e-06 -2.87939674e-05 -8.84159599e-05 -6.91103400e-04
      -1.20074383e-03 -1.32593012e-03 -1.38916459e-03 -6.46054919e-04
      -2.78063025e-03 1.11162465e-03 3.29433562e-04 -4.73777065e-04
      -3.70648369e-04 -1.57974870e-03 -4.58412978e-04 -1.74461782e-03
      -4.69280058e-04 -3.36896512e-04 -1.29408960e-04 -1.05275940e-04
      1.11596746e-05 1.21292353e-04 -7.28349696e-05 -5.90700074e-04
      -8.55126244e-04 -1.55636366e-03 -8.20491929e-04 2.64408241e-04
      -1.29547971e-03 2.20249509e-04 -1.34488102e-03 -2.25198572e-03
      -1.84950302e-03 -2.77410349e-04 1.81457412e-03 -1.21400028e-03
      3.58448568e-04 2.60741072e-04 -2.57631211e-04 -5.32138583e-05
      2.59782482e-05 -7.87709178e-06 -1.20056757e-04 -4.72432061e-04
      -9.38139128e-05 -3.19377665e-04 -2.56180018e-03 -1.89199264e-03
      -7.73743668e-04 -1.23818882e-03 -1.11755253e-04 5.38139138e-04
      -4.72781539e-05 1.42410703e-04 -1.18829415e-03 1.00676366e-03
      1.04632648e-03 2.70405319e-03 -3.45006963e-04 -1.92741936e-04
      7.98491819e-05 -4.14577371e-05 6.07221364e-06 -1.92178428e-04
      5.29042387e-04 2.12956872e-03 -3.85737570e-04 1.48202409e-04
      9.93157271e-04 -2.08336045e-03 9.07878624e-04 7.71991850e-04
      -2.65712664e-03 -2.80546048e-03 -8.31622048e-04 8.31056532e-05
      -4.33901703e-04 1.17282022e-03 4.46841761e-04 -4.28252206e-05
      8.46030071e-06 9.40231403e-05 -4.05912542e-05 -3.46227862e-05
      -4.89243073e-04 6.88532833e-04 1.38046884e-03 -6.43629173e-04
      -1.55500881e-03 -7.47413549e-04 -1.74633737e-04 2.31665224e-04
      6.17803307e-04 -6.80323341e-04 -8.39234795e-04 -1.34535239e-03
      -1.01170398e-03 9.12412288e-05 1.33480047e-04 1.33480044e-05
      1.67662347e-05 -3.23404061e-06 -4.16798321e-05 1.03687271e-04
      1.94481356e-04 -2.60403904e-04 2.81712360e-04 3.12414748e-04
      6.56018325e-04 5.52037207e-04 -1.04652531e-03 -1.34727068e-03
      8.14734027e-04 9.42777551e-05 -9.85573279e-04 -8.78168968e-04
      -1.45513579e-04 8.89866988e-06 0. -5.38939184e-06 -1.36278504e-05
      4.46817321e-05 8.63850946e-05 -9.78798344e-05 3.10262294e-05
      6.32533265e-05 -1.15600225e-04 -1.59265346e-05 2.42380193e-05
      3.12812008e-05 -2.28754107e-05 9.02624961e-05 2.62973426e-05
      4.17801357e-06 8.96794154e-05 -9.93883950e-05 3.50927803e-06
      -1.88011381e-06 0. -1.71082320e-05 -2.44074690e-05 3.24776920e-05
      8.06738115e-07 -1.21939280e-04 -2.15799664e-05 1.46666789e-05
      -2.14137708e-05 -2.27832370e-05 7.27313309e-05 -9.63957791e-05
      -4.48474020e-05 1.66038517e-05 1.50335163e-05 -3.79497578e-05
      -4.18751506e-06 3.50457449e-05 0. 0. -1.61681746e-05 0.</_>
    <_>
      1.36292829e-05 -1.26824634e-05 1.85583413e-05 -2.59887584e-05
      -5.54679036e-06 -2.52229165e-05 2.95083464e-06 6.99621432e-06
      -1.09148923e-05 -2.64882947e-05 1.72764176e-05 2.09717182e-05
      1.78634364e-05 -1.31263087e-05 1.69866744e-05 6.87335432e-06
      5.78314439e-06 -8.10541587e-06 2.52840073e-05 -2.21771779e-06
      -1.29273769e-06 2.60600700e-05 -1.83997181e-05 1.63836594e-05
      6.98996837e-06 -7.66587527e-06 2.15649798e-05 -2.89515192e-05
      2.48581205e-06 4.75159213e-05 2.34411655e-05 -5.56904433e-06
      1.80241605e-05 3.37046222e-05 -9.59617973e-05 2.69164211e-05
      9.67058440e-06 1.85462636e-06 -6.21352501e-06 1.13305759e-05
      -2.38948651e-05 -6.64504978e-06 5.71448545e-05 -2.72634516e-05
      -6.34490716e-05 -2.63777974e-06 -1.13350761e-04 -2.12509607e-04
      -1.43729878e-04 1.22370129e-05 1.93972097e-04 -2.69875338e-04
      -9.83008649e-04 -3.82484104e-05 5.18818752e-06 -1.69751438e-05
      7.02324587e-06 -1.55461366e-05 1.53946621e-05 0. -8.07878041e-06
      -5.83798396e-08 -1.56798906e-05 -2.05492711e-06 9.51905386e-05
      9.02523971e-05 -2.04547068e-05 -4.21508856e-04 -8.60871573e-04
      -2.12825090e-03 -8.96253681e-04 4.90057399e-04 -1.85386569e-03
      2.44144583e-04 3.52367846e-04 -2.89985728e-05 1.18329677e-04
      1.67868857e-05 5.11273947e-06 1.11226900e-05 2.47898661e-05
      -2.35231200e-05 -3.78551704e-05 -3.66061940e-05 -2.61140440e-06
      3.43193038e-04 4.42784687e-04 -1.28590770e-03 -1.31808128e-03
      -1.71436940e-03 -9.07737471e-04 4.88156744e-04 -1.54068970e-04
      1.10299792e-03 1.09067280e-03 3.99483746e-04 3.81312529e-05
      4.28527492e-05 7.24430720e-06 5.17191779e-07 2.85513270e-05
      -1.10147184e-05 -6.31301664e-05 -4.17598872e-04 -4.00294986e-04
      2.39322268e-04 -8.07992648e-04 -1.16312213e-03 1.94285385e-04
      -1.12469052e-03 -4.64716839e-04 -3.80822748e-04 -1.82300678e-03
      -1.34269168e-04 5.57512220e-04 8.46663956e-04 -4.00856807e-04
      -8.43506859e-05 -9.18522346e-06 1.34998108e-05 -1.73661556e-05
      1.56323931e-05 -4.06395557e-04 -9.95166949e-04 -8.22447764e-04
      -2.82236986e-04 -7.59454211e-04 -5.54310856e-04 -8.45311224e-05
      5.43374801e-04 1.41686958e-03 -8.13371036e-04 -2.04374059e-03
      -3.74546333e-04 2.74923164e-04 -4.27606865e-04 -3.86767875e-04
      3.63706226e-06 -5.29814315e-07 1.46325910e-05 2.90563330e-05
      -4.17478259e-05 -4.99598391e-04 -5.83323475e-04 1.34833725e-04
      4.03853701e-05 2.62353162e-04 8.75570477e-05 9.00328858e-04
      2.35131430e-03 2.82345526e-03 1.55127927e-04 -1.20097224e-03
      -5.14028769e-04 -5.86645678e-04 -3.98352044e-04 -7.71320920e-05
      9.46756263e-05 3.15891986e-04 -4.80178278e-06 1.93878059e-05
      -2.98853611e-05 -9.56494187e-05 -8.29945784e-05 6.43138716e-04
      8.78004474e-04 4.14436363e-04 -1.27907930e-04 -5.06997167e-04
      5.76050836e-04 8.42901587e-04 1.25877885e-03 -5.23119059e-04
      -1.22313143e-03 -8.00502195e-04 -3.03777306e-05 -3.43338638e-06
      8.23148512e-05 2.61030160e-04 1.11513555e-05 -2.54392817e-05
      1.23721202e-05 -2.79307606e-05 3.68194778e-05 6.30166032e-04
      6.57185388e-04 -1.15357565e-04 -9.70674679e-04 -1.27385044e-03
      -2.92171171e-04 9.13820521e-04 2.19232868e-03 -8.79026076e-04
      -1.47951103e-03 -8.52600089e-04 -4.41502016e-05 -2.38937992e-05
      -8.34111142e-06 1.02226695e-05 1.60955915e-05 -2.09350183e-05
      -7.41036365e-06 -1.50318474e-05 1.62426193e-04 1.02927181e-04
      -3.90890113e-04 -6.04012341e-04 -1.17364654e-03 1.56618349e-04
      -9.86920320e-04 6.94999937e-04 -8.67655690e-05 1.21145182e-04
      -1.74629863e-03 -1.21714501e-03 -9.67396700e-05 -3.04591376e-05
      -3.27010775e-06 -7.75404828e-07 -5.59512773e-06 2.11267507e-05
      8.77759931e-07 -4.31886801e-05 -6.80522717e-05 1.45969083e-04
      1.09549866e-04 -3.08056420e-04 2.81449960e-04 -1.75344885e-05
      7.46007892e-04 2.09097681e-03 -9.28023539e-04 6.74975861e-04
      -1.72504422e-03 -1.79720344e-03 -2.98651983e-04 -4.96511675e-05
      -3.02696099e-05 2.34004456e-05 9.64196806e-06 1.57337206e-06
      -2.05217621e-05 6.04740599e-05 -1.82073214e-04 -1.27971085e-04
      1.68057231e-04 9.07623151e-04 1.38906529e-03 1.53024693e-03
      2.06461898e-03 2.92295218e-03 -2.27353303e-03 -8.72033823e-04
      -1.59699598e-03 -1.05252699e-03 -5.82218927e-04 -1.50594613e-04
      -2.29877605e-05 -6.42254190e-06 -3.97720123e-06 1.75386540e-05
      -3.96089927e-05 -3.59606056e-05 -5.29955956e-04 -8.83729372e-04
      -8.33385973e-04 -7.72271014e-04 7.42284989e-04 -1.51102722e-04
      1.05007982e-03 9.43375984e-04 -6.41239691e-04 3.58125777e-04
      -7.41617638e-04 3.14872799e-04 1.13018759e-04 5.07385936e-04
      4.11568995e-04 1.64817193e-05 1.29184673e-05 -8.04167576e-05
      2.72721772e-05 1.15543262e-05 -5.87794872e-04 -9.62301856e-04
      -5.90399024e-04 -1.91956735e-03 5.82901353e-04 1.00701302e-03
      2.44458817e-04 -6.76897005e-04 3.08409566e-04 6.63093640e-04
      3.54594813e-04 -1.23522132e-05 4.09821252e-04 1.18780648e-03
      1.28692039e-03 1.49749758e-04 1.06033269e-06 -5.11690405e-06
      -1.98612051e-05 -2.13930343e-05 -2.93799909e-04 -6.49786904e-04
      4.20253753e-04 -4.03991551e-04 -1.35255090e-04 -1.44381437e-03
      4.85139579e-04 -7.40730087e-04 7.98086228e-04 6.82262995e-04
      -2.69747776e-04 3.00239917e-04 2.50471086e-04 5.18117798e-04
      9.57849028e-04 4.59495321e-04 7.43492228e-06 -6.56135489e-06
      -4.74166291e-06 -2.95711070e-05 -1.49130734e-04 -2.12584928e-04
      7.95557717e-05 9.35724645e-04 3.53216601e-04 -2.91519566e-04
      2.44327442e-04 -1.90243998e-03 -5.52077290e-05 8.00253532e-04
      -1.47488783e-04 4.76181158e-04 -2.17760549e-04 -2.32867649e-04
      1.74002547e-04 9.83203354e-05 1.09062257e-05 1.65227993e-05
      -1.37142306e-05 -1.09366716e-04 -7.49116472e-04 -5.32603764e-04
      -1.45080034e-03 -1.17822620e-03 -1.00524875e-03 -4.62735858e-04
      -1.24074484e-03 -1.26912771e-03 1.05530242e-04 3.63125175e-04
      4.46128615e-05 -1.03307510e-04 -5.24549221e-04 -2.98625353e-04
      -1.32271828e-06 0. 0. -2.33011015e-05 1.76842404e-05
      -1.38965779e-05 -2.96583225e-04 -2.66026560e-04 -2.06427518e-04
      -8.36825711e-05 -6.70515146e-05 -5.23440016e-04 -4.31453169e-04
      3.50483824e-05 -7.54879181e-07 -1.67000078e-04 -4.55644884e-04
      -6.18989754e-04 -3.84851330e-04 -7.22193799e-05 7.27081715e-06
      -2.14838383e-06 -4.95812674e-06 3.26468908e-05 -3.36962221e-05
      -1.10319370e-05 -7.44708927e-07 -9.23565312e-06 1.45604390e-05
      6.27519603e-06 -1.60483751e-06 1.34997163e-05 -4.25152793e-05
      -1.92138432e-05 -2.05274209e-05 -1.05788487e-04 -1.36721865e-04
      -1.46977996e-04 1.09204011e-05 0. -2.14838383e-06 -2.14838383e-06
      -2.14838383e-06</_>
    <_>
      -1.76329031e-05 -2.00213908e-05 7.70192491e-06 -2.98398027e-05
      -2.71484532e-05 -8.16996817e-06 -2.67883697e-05 -8.95794983e-06
      -9.51318634e-06 1.16483770e-05 -2.32822495e-05 4.37336894e-05
      -2.69702286e-06 6.41749284e-06 3.67925531e-05 -1.12431899e-05
      1.88916374e-06 -1.43611633e-05 -3.36516564e-06 2.10659846e-06
      1.41641813e-05 -1.21252733e-05 -5.21520051e-05 -1.67590133e-05
      -3.12129232e-05 -1.18364705e-05 -6.83400322e-06 -2.18376099e-05
      2.62865378e-05 -4.35016700e-05 6.26471228e-05 7.36411630e-06
      -1.26007344e-05 2.19698650e-05 -5.77007668e-05 6.96687493e-06
      -7.35008007e-06 -2.11365182e-06 3.09464031e-06 -8.43914859e-06
      -2.39538840e-05 -4.69602173e-06 2.58581713e-05 -2.48098854e-06
      -3.17865524e-05 4.93636180e-05 1.04655490e-04 -5.86501956e-05
      -3.38712853e-05 6.64200779e-05 3.66164350e-05 7.31272303e-05
      -1.38449841e-05 -7.98366364e-06 3.99533492e-05 2.65858616e-05
      -7.18058163e-06 2.22300628e-06 -6.96314692e-06 0. 5.98861834e-06
      -7.60792591e-06 -3.92723668e-05 -1.56694387e-05 1.42404999e-04
      7.98871682e-04 7.78379850e-04 -3.63113770e-07 -7.62229611e-05
      1.30280823e-04 5.69740194e-04 1.45626697e-03 -2.30063379e-04
      3.04491317e-04 -1.95788351e-04 -5.71340279e-05 1.72948523e-04
      4.90196944e-05 -8.45705017e-06 2.10659846e-06 -1.92204825e-05
      -2.91616743e-06 -3.51680937e-05 2.29052574e-07 6.19365543e-04
      6.17122394e-04 1.09938825e-04 3.12701362e-04 -2.05405056e-04
      4.97489760e-04 5.18350338e-04 1.52686727e-03 -2.63640286e-05
      1.48274726e-03 -2.16672706e-04 -1.13243987e-04 2.70517223e-04
      7.49194587e-05 -7.18058163e-06 -1.42996453e-06 1.75240382e-06
      -6.33523086e-05 -8.39286258e-06 1.10668207e-05 4.73365799e-05
      5.39948582e-04 3.35490011e-04 -5.11869730e-04 2.65259659e-05
      5.21954091e-04 3.04600893e-04 -8.02306808e-04 -7.95420783e-05
      1.06353220e-03 3.78506928e-04 2.17547189e-04 2.69012326e-05
      -7.30580405e-06 0. 4.13161786e-07 -1.83962802e-05 3.88694252e-06
      -3.42167696e-05 -3.35052791e-05 -1.97652262e-04 -4.29024338e-04
      3.41765495e-04 -1.00852270e-03 3.93830822e-04 8.02073373e-06
      -1.75921115e-04 -5.79259009e-04 1.62794942e-03 7.32845743e-04
      2.67733238e-04 8.75801561e-05 -3.04296438e-04 -1.23744743e-04
      -6.96314692e-06 -9.95095320e-07 -1.53822057e-05 -1.84759479e-08
      -3.78541845e-05 -7.42297852e-05 -3.21068859e-04 -7.27019098e-04
      -7.27513980e-04 -1.00112776e-03 -3.93580704e-04 1.79531824e-04
      2.70571618e-04 1.10828108e-03 1.04488467e-03 2.85194721e-04
      1.70149855e-04 -2.33429077e-04 -2.29935598e-04 -7.78364338e-05
      -4.34869293e-07 -1.29932414e-05 1.09491793e-05 -1.81152427e-05
      -1.30802882e-05 -2.10483413e-04 -1.92574691e-04 -4.19518095e-04
      -1.12906808e-03 -1.25326461e-03 1.66437705e-04 1.67082617e-04
      1.16289081e-03 7.08245381e-04 -1.31297274e-03 -1.56855585e-05
      -2.30548874e-04 -2.50942365e-04 -1.61926422e-04 -7.70643419e-06
      -3.48157346e-06 0. -3.85291860e-05 2.37229960e-05 -6.82010723e-05
      -2.77562416e-04 -6.70617374e-05 -3.18608043e-04 -1.65786711e-03
      -1.90603454e-03 -1.25196821e-03 -1.08812164e-04 1.81774504e-03
      2.38757770e-04 -2.09057587e-03 -3.22445499e-04 -4.08511405e-04
      -3.51622788e-04 -1.39555297e-04 -3.48157346e-06 -2.98528585e-06
      -8.06704065e-06 1.27610119e-05 -1.96948222e-05 -7.28928671e-06
      -2.75113242e-04 -1.27493055e-04 -3.46297224e-04 -1.45863264e-03
      -1.55912549e-03 -2.22581043e-03 1.49193045e-04 5.84748923e-04
      -1.18141284e-03 -1.41131319e-03 -6.54055737e-04 -4.51946136e-04
      -4.89713624e-04 -4.29891457e-04 -1.58341310e-04 -3.48157346e-06 0.
      1.57974027e-05 -4.70925443e-05 3.06444849e-06 -1.46290855e-04
      -1.22909230e-04 1.20588986e-04 -5.96334226e-04 -1.63665193e-03
      -8.51537625e-05 4.14192240e-04 2.49433157e-04 -9.27876274e-04
      -4.77691501e-04 -9.31847375e-04 -5.38110617e-04 -3.01578315e-04
      -5.18160523e-04 -2.12497078e-04 -5.26331814e-06 -3.48157346e-06
      -2.97582064e-05 1.88455124e-05 3.15255165e-05 3.41977720e-05
      3.45026550e-04 1.63373013e-04 3.10378498e-04 -5.93487115e-04
      -7.05044717e-04 -1.37887464e-03 -8.54035432e-04 -7.08586827e-04
      -1.44394871e-03 -1.91296590e-03 -1.31236669e-03 -3.46044573e-04
      -4.00887715e-04 -1.85486730e-04 -3.48157346e-06 -9.95095320e-07
      3.03278357e-05 -6.70248119e-05 -3.26041045e-05 -3.48457688e-05
      5.63581525e-05 -1.09112341e-04 8.88944254e-04 7.15990842e-04
      -5.94315585e-04 7.79436727e-04 6.59436337e-04 6.65489497e-05
      5.31955331e-04 1.87877973e-04 -9.68400218e-06 -1.03642669e-04
      4.07433035e-05 1.11683612e-05 5.81272445e-07 -1.63449695e-05
      -2.30859168e-05 1.78572191e-05 1.85890840e-05 -1.64343382e-05
      -1.63715904e-05 2.83753674e-04 4.51036874e-04 -5.05337703e-05
      -2.66888499e-04 1.55472418e-03 9.08960705e-04 -1.90641134e-04
      6.45253283e-04 1.18656259e-03 1.09035638e-03 4.04054619e-04
      1.42495264e-04 1.13031565e-04 1.37367551e-05 -1.99019064e-06
      -6.40192366e-06 -4.15641080e-05 1.64500107e-05 -4.19382559e-06
      1.43773956e-04 5.53824299e-04 3.67478875e-04 5.88236959e-04
      7.71277410e-04 6.27866422e-04 9.97522846e-04 6.51322654e-04
      6.18580030e-04 1.03936554e-03 1.16187346e-03 6.24333101e-04
      1.24572209e-04 1.36552917e-04 6.50928559e-05 0. -1.81741198e-05
      3.69344457e-06 1.14191689e-05 1.32353543e-05 3.80442332e-04
      6.21454848e-04 7.70063547e-04 -2.54203042e-04 2.59390275e-04
      1.43510872e-04 7.00934790e-04 1.08267646e-03 2.81067594e-04
      6.14733377e-04 1.18786306e-03 6.12226140e-04 2.83304817e-05
      2.94637011e-05 1.69982886e-05 1.69982889e-06 -5.79202492e-07
      -1.47892670e-05 -2.66749230e-05 8.58884687e-06 3.81430291e-04
      7.79548282e-06 4.60503041e-04 5.84018533e-04 -1.85931567e-04
      -7.25837948e-04 -5.36186039e-04 -2.23500509e-04 -1.85105833e-04
      4.49844738e-05 1.43482088e-04 1.19912380e-04 -7.31130422e-05
      -3.36825142e-05 -3.48157346e-06 0. -2.12035848e-05 -1.62907563e-05
      2.71804151e-06 -6.89761100e-06 -8.12522285e-06 -1.22460842e-04
      1.08735789e-04 4.24264668e-04 5.38841778e-05 -9.01770371e-04
      -1.30702509e-03 -3.87816166e-04 -1.58212279e-05 -2.77264621e-06
      -2.87333878e-05 -2.83532131e-06 -2.21687485e-04 -1.13758710e-04
      -1.39262938e-05 5.66609629e-07 -5.82992789e-06 5.48521484e-06
      1.39519398e-05 4.91745777e-06 -2.51706133e-05 -1.22086976e-05
      -2.13810781e-05 -9.07128924e-06 -3.53891155e-05 5.42540874e-05
      1.89308794e-05 -4.07381231e-05 1.61518619e-05 2.40255326e-06
      -3.42461826e-05 -3.96782752e-06 0. 0. 0. 0.</_>
    <_>
      5.43225087e-06 -9.13013992e-06 1.72335713e-05 -2.32302637e-06
      -2.21396431e-06 4.41393240e-06 -2.41140970e-06 -2.21646087e-06
      5.19457808e-06 1.41965620e-05 1.33166686e-05 -1.89480375e-06
      -1.41670253e-05 3.79908852e-05 -1.53544479e-05 1.41633082e-05
      -3.35989944e-06 -9.37207642e-06 3.75043714e-06 -1.17815498e-05
      7.74432283e-06 9.64194533e-06 -1.37553825e-05 -6.14363626e-06
      2.69638076e-06 -9.30937222e-06 1.28534266e-05 1.61890841e-06
      -2.82452356e-06 2.02371502e-05 -8.33920149e-06 -3.36091102e-06
      2.36343585e-05 -4.55588961e-05 -1.55317484e-05 6.19564389e-06
      1.01278761e-06 -1.42762101e-05 -1.55276339e-05 1.02874574e-05
      -3.86166994e-06 -1.11571844e-05 2.12366194e-05 -1.34261882e-06
      2.17171163e-07 2.39347755e-05 -8.77657271e-08 3.65743585e-06
      9.15503551e-05 3.46701534e-04 3.53886746e-04 4.83519252e-04
      1.53129702e-04 1.02713799e-04 -8.80569423e-05 -1.03452636e-04
      -3.28357928e-05 -5.02017028e-05 -2.54766146e-05 -1.01713731e-05
      9.88373813e-06 5.82971506e-06 -7.06189985e-06 8.97956579e-06
      9.49238602e-05 3.16843885e-04 2.14227024e-04 4.42837591e-05
      3.10952513e-04 -1.49333966e-04 -5.85358590e-04 2.68208823e-05
      -2.56183284e-06 3.51700466e-04 -4.11486864e-04 -1.10566814e-03
      -4.99699556e-04 -3.26070556e-04 -1.07178967e-04 -1.84069322e-05
      -9.81366838e-07 1.50848819e-05 2.75010194e-07 -8.39326458e-06
      2.29820624e-04 5.23704512e-04 4.07435902e-04 -1.88028309e-04
      -7.52640539e-04 -4.68455692e-04 -1.82118456e-04 2.69811135e-04
      -2.61564128e-04 1.24603648e-05 -6.26586552e-04 -3.95443116e-04
      -4.00743214e-04 -4.03046026e-04 -1.62617507e-04 -1.41818873e-05
      1.17376812e-05 4.81380266e-06 5.12916313e-06 -1.19172864e-06
      8.10122147e-05 3.61852086e-04 -1.39984622e-04 2.67611613e-04
      4.67517675e-05 -3.64969193e-04 -2.53889128e-04 2.13285981e-04
      -4.79064503e-04 1.58297480e-04 8.41241635e-05 -7.45526631e-05
      -1.00473291e-03 -8.80859152e-04 -2.07523597e-04 -1.27254852e-05
      8.65371294e-06 -4.03835475e-06 -3.36787002e-06 -5.23472045e-05
      -9.77198506e-05 -2.02719675e-04 -2.40896930e-04 5.31010854e-04
      5.69287513e-04 1.02958773e-04 -4.13198461e-04 1.60170806e-04
      3.54040276e-05 -1.29907145e-04 -6.94177521e-04 -1.54410570e-03
      -1.42177206e-03 -1.07954349e-03 -4.15322051e-04 1.54165155e-05
      -5.57586782e-06 8.84774181e-06 -1.37313623e-06 -1.97062127e-05
      -1.73418710e-04 -1.22420446e-04 9.12266041e-05 -1.47646831e-04
      2.11433828e-04 -3.60617996e-04 -2.87432194e-04 1.18889310e-03
      1.18185091e-03 4.10990382e-04 -5.93286881e-04 -7.10003602e-04
      -5.48777345e-04 -3.09746072e-04 2.64145583e-05 -4.62032658e-05
      1.36801452e-06 6.68083567e-06 6.83778808e-07 -7.21182732e-05
      -3.19445093e-08 8.53292819e-04 7.26836384e-04 -3.01031483e-04
      6.51243090e-06 -2.14018481e-04 8.47435091e-04 1.48612645e-03
      1.36782764e-03 -5.01564273e-06 -4.92982392e-04 -2.98055733e-04
      -2.25850366e-04 -1.08078559e-04 2.12230589e-05 -3.40385523e-05
      1.24164490e-05 -3.37532547e-05 -3.22559936e-05 -8.80052539e-06
      1.72471904e-04 1.41868313e-05 -7.30228901e-04 -1.51522597e-03
      -1.16593565e-03 -1.17918047e-04 1.56663731e-03 1.66498648e-03
      5.33416576e-04 -7.66563404e-04 -7.92989274e-04 -5.50004537e-04
      -2.42240290e-04 -4.85744858e-05 3.77005517e-06 1.42277429e-06
      -2.13538642e-05 -6.94905202e-06 -1.40358588e-05 -2.28819044e-05
      -6.19642204e-04 -1.14519813e-03 -1.12825492e-03 -1.94572937e-03
      -1.06484781e-03 5.05530159e-04 1.77661201e-03 3.17735452e-04
      -6.69154630e-04 -5.11502847e-04 -4.95174609e-04 -3.13829427e-04
      -3.26749287e-04 -1.57533548e-04 -1.51705251e-06 4.15060458e-06
      -2.26922020e-05 8.17859745e-06 -1.67252765e-05 -3.51434515e-04
      -6.97270734e-04 -3.38635873e-04 -2.08271944e-04 -1.30270096e-03
      2.95965001e-04 1.31887384e-03 1.07039220e-03 -7.34300702e-05
      -6.95704657e-04 -5.69067837e-04 -5.19005582e-04 -2.93010729e-04
      -2.46747019e-04 -3.08011658e-04 5.95783104e-06 4.16735702e-06
      1.81500691e-05 -4.14683709e-05 1.56872047e-05 -8.90811280e-05
      -6.91718596e-04 -3.56100616e-04 -8.10352431e-05 -8.03261064e-04
      7.80579168e-04 6.15148456e-04 1.73896697e-04 -1.29318133e-03
      -1.04630436e-03 -7.44181219e-04 -5.33364655e-04 -4.30421846e-04
      -2.91938195e-04 -2.90961820e-04 0. -9.48756679e-06 -2.21837745e-05
      -4.38142852e-05 -7.94833031e-05 -2.93547258e-04 -7.62740267e-04
      -1.01402565e-03 -5.47340489e-04 5.73281650e-05 6.21671556e-04
      9.64827370e-04 5.85058297e-04 -9.24901455e-04 -9.36492404e-04
      -4.32589994e-04 9.31575050e-05 -3.95115421e-06 -1.60126838e-05
      9.01544772e-05 1.75139087e-06 4.38686357e-06 -3.40451061e-06
      -7.16099021e-05 -1.91675281e-04 -2.89384188e-04 -3.79653648e-04
      -1.66163780e-03 -8.18473811e-04 9.46278669e-05 3.07075214e-04
      5.61013934e-04 1.25534646e-03 -2.71224737e-04 -1.44772232e-04
      8.39064945e-04 2.08070560e-04 3.23262822e-04 4.89676313e-04
      5.90343436e-04 7.42226766e-05 -1.88690171e-06 8.30346471e-06
      -2.56031071e-05 -3.32479940e-05 -2.11240200e-04 4.53073910e-04
      6.98082906e-04 -6.40556507e-04 -1.40790280e-03 -1.18420238e-03
      -7.63292250e-04 1.53576941e-04 9.46981309e-04 4.60305018e-05
      1.35349328e-04 1.42216202e-04 2.14040323e-04 2.90309370e-04
      4.62341239e-04 2.94052385e-04 -3.01613613e-06 -1.26339091e-05
      1.32005543e-05 -9.64868150e-07 -1.12039661e-05 2.52410944e-04
      3.40286817e-04 -3.79337958e-04 -1.48079696e-03 -1.08110544e-03
      -9.30404640e-04 -2.44730094e-04 7.67741411e-04 5.78439976e-05
      -2.28558769e-04 2.46105454e-04 -2.92069544e-05 2.38832108e-05
      1.15966555e-04 7.06977662e-05 5.19084870e-06 2.03290638e-05
      -7.88671878e-06 -8.35546052e-06 -2.45151496e-05 -1.05179633e-05
      -7.38202652e-05 -2.65657553e-04 -6.00158586e-04 -4.19041229e-04
      -3.93450056e-04 -2.37043743e-04 -4.25650273e-04 -2.48810738e-05
      1.92356645e-04 2.41441725e-04 -3.34411379e-06 0. 4.71318481e-06
      -9.39464030e-07 0. -6.31928651e-06 3.18097091e-06 1.66974860e-05
      -1.16134624e-05 -1.34929469e-05 -8.72490364e-06 -3.87934051e-05
      -1.18009804e-04 -1.68413550e-04 -3.61714308e-04 -4.38310439e-04
      -4.43326629e-04 -2.50421290e-04 -4.25839062e-05 -8.05548609e-07
      4.15896466e-06 4.71318481e-06 -9.23599657e-07 0. 4.77664230e-07
      5.91829667e-06 -3.96141968e-06 -9.28706231e-06 -5.99886698e-06
      -2.07589819e-05 6.16104808e-06 -1.01205860e-05 1.69282648e-05
      -2.48019369e-05 -4.85361379e-05 1.09628554e-05 7.29015301e-06
      9.79994365e-06 -1.77082238e-05 -3.23239983e-05 2.04286584e-06
      -9.39464030e-07 0. 0. -1.87892806e-06</_>
    <_>
      4.43410954e-06 -6.77871230e-06 3.44339969e-06 1.97290206e-06
      -6.08737673e-06 -3.74992680e-07 5.41052532e-06 3.29395152e-06
      6.32910030e-07 4.88453770e-06 4.19860015e-07 8.37811604e-06
      1.56104659e-06 -4.06686877e-06 4.95085760e-06 8.37590051e-06
      2.29338252e-06 0. 4.08399188e-07 -1.84672774e-06 -4.70897021e-06
      1.66467510e-06 -1.45298145e-06 6.52973677e-06 6.06349772e-07
      9.63888942e-06 1.70487726e-06 4.17723918e-08 -5.33105849e-05
      -1.33802241e-04 -2.76902050e-04 -1.46809944e-05 -9.87332623e-06
      2.88070332e-05 2.52192558e-06 -2.80732802e-05 -2.64757273e-06
      -2.94161350e-06 2.29154693e-06 3.87240834e-06 -5.57313251e-06
      -1.08366237e-06 8.43299676e-06 -1.97794839e-06 -5.08984022e-06
      8.36117215e-06 5.33391631e-06 -1.61797012e-04 -2.33639759e-04
      -6.17291880e-05 -4.28545318e-04 -3.06725007e-04 -2.83888687e-04
      -5.82151290e-04 -2.41116024e-04 1.46484999e-05 -5.86150145e-06
      3.99026931e-06 -2.88764500e-06 -7.11774692e-06 -3.54993318e-07
      5.67654752e-06 -4.93303969e-06 -6.48610524e-07 6.70667068e-05
      2.46050331e-04 1.24021113e-04 -3.27614427e-04 -3.26286936e-05
      6.62328559e-04 1.33077177e-04 3.13946512e-04 -4.80970310e-04
      -6.46956090e-04 -1.39616954e-04 -1.07427513e-04 1.26888524e-04
      -4.93932603e-05 -7.89505430e-05 5.17458420e-06 2.89399009e-06
      4.43370482e-06 -7.91989896e-06 4.58898057e-06 2.01233386e-04
      4.99528367e-04 2.66810879e-04 -3.95669522e-05 4.89120779e-04
      7.15957722e-04 2.94205442e-04 9.40849772e-04 7.32626868e-05
      5.56754007e-04 4.25756734e-04 1.81265044e-04 6.71394009e-05
      -4.43459401e-04 -5.30519057e-04 -3.39280261e-04 -1.15410774e-06
      -2.94048004e-06 -2.60314209e-06 1.35345053e-05 7.84266886e-05
      4.51406609e-04 3.69161367e-04 7.66463461e-04 4.50065330e-04
      6.59288897e-04 1.74784509e-04 1.16484833e-03 8.31206125e-05
      8.58165266e-04 1.71004416e-04 4.16104776e-05 -1.81729571e-04
      -4.18521609e-04 -3.91394104e-04 -2.73906306e-04 -3.13390024e-06
      -2.33660649e-06 8.47972444e-07 5.01704744e-06 5.99948071e-05
      1.12622452e-04 2.63661845e-04 8.84786306e-04 4.27666935e-04
      5.08244382e-04 -1.15722460e-05 7.53760221e-04 6.28146168e-04
      5.62802365e-04 -1.31327150e-04 -8.06574244e-05 -8.15662643e-05
      3.21647377e-07 -1.32255982e-05 -3.28746694e-07 3.49164884e-06
      -7.61952492e-07 2.40111399e-06 8.19540401e-06 1.47111223e-05
      -1.65935649e-04 -4.02743171e-04 -1.56671449e-05 2.40464564e-04
      5.47936885e-04 4.84500750e-04 1.54760911e-03 1.86716323e-03
      6.49146852e-04 -1.78100498e-04 -4.76847345e-04 -1.37416209e-04
      -2.22898307e-05 5.85846574e-05 -2.45173305e-06 -7.29737712e-06
      1.32056894e-05 -4.22344192e-06 -6.45853845e-07 -8.64240646e-05
      -4.48044702e-05 -4.32083791e-04 -3.60992039e-04 5.13273932e-04
      -2.40441950e-04 1.15013483e-03 1.11653749e-03 8.41364264e-04
      2.52332276e-04 -3.03398643e-04 -4.06386273e-04 -1.44684091e-04
      -1.27738531e-04 5.05265634e-05 3.11940789e-06 9.45336581e-07
      -2.55527884e-05 3.64516745e-06 -8.84396941e-05 -1.84533521e-04
      -8.74382749e-05 -5.44681330e-04 -8.32003483e-04 -6.35813572e-04
      -2.00415860e-04 6.62609411e-04 3.78706056e-04 4.95915374e-05
      -7.89751764e-04 -4.63757606e-04 -3.81446298e-04 -2.14673826e-04
      -1.70847765e-04 2.96241960e-05 -3.47929858e-06 1.73436583e-05
      2.39505221e-06 -1.88252707e-05 -1.36747185e-04 -2.08530051e-04
      -1.87477825e-04 -5.19876718e-04 -1.09191088e-03 -8.13762774e-04
      1.82066957e-04 3.38312908e-04 8.59184947e-04 3.97586191e-05
      -5.62512956e-04 -7.15530361e-04 -1.68465995e-04 -3.65373533e-04
      -8.32378137e-05 1.01132748e-04 2.95412356e-05 -1.50007227e-05
      -9.37461209e-06 5.58754346e-06 -1.42101359e-04 -2.51025835e-04
      -7.86348610e-05 -6.64140796e-04 -6.57902157e-04 -9.83363367e-04
      6.93093287e-04 2.23112176e-04 1.44673410e-04 -9.96329822e-04
      -1.41319784e-03 -1.04263891e-03 -4.71965410e-04 -3.97238822e-04
      -6.65509724e-05 3.89997767e-05 1.53465635e-07 8.74871148e-06
      -1.46150824e-05 3.43369938e-05 -7.78358299e-05 -2.64326489e-04
      -1.19254233e-04 -3.98481381e-04 -1.23402232e-03 -1.57630036e-03
      -1.23197897e-05 -2.17368113e-04 -1.27686351e-03 -1.28776510e-03
      -8.21192458e-04 -9.03271779e-04 -4.50905820e-04 -2.10582293e-04
      -2.25848089e-05 -3.26534155e-06 -5.98831684e-06 4.23948131e-06
      5.61423212e-06 -1.36359276e-05 -3.11898402e-05 -3.13544224e-05
      -9.27516066e-06 -8.32365942e-04 -1.78454898e-03 -1.08823471e-03
      1.05080973e-04 6.15048557e-05 -8.25780153e-04 -7.21942459e-04
      -6.67157175e-04 -2.57580905e-05 -1.57347080e-04 -1.96922556e-05
      3.24611574e-05 -5.14264548e-06 1.93199121e-05 -1.61305034e-05
      1.11468989e-05 -1.28120528e-05 -3.25630863e-05 8.86218986e-05
      2.67009833e-04 -3.97722994e-04 -7.41916767e-04 -1.40923539e-05
      -1.01215136e-03 -3.24526423e-04 -4.89287369e-04 -7.49512459e-04
      -3.92197573e-04 -3.08096355e-06 6.69476722e-05 1.30033528e-04
      1.32302128e-04 1.56477581e-05 -1.13296289e-06 -3.88729268e-06
      -1.27015755e-06 -7.10865424e-06 3.66528161e-06 2.88391777e-04
      4.03743412e-04 -7.68341051e-05 3.06353671e-04 1.08127540e-04
      -1.46956521e-03 -3.80520622e-04 -3.38225713e-04 -4.56930662e-04
      -3.12784308e-04 4.26451807e-05 1.53836270e-04 1.25157778e-04
      1.32575835e-04 7.53351196e-05 -1.12300192e-07 -9.45403917e-06
      4.55961390e-06 -1.53398141e-05 -4.10425810e-06 4.34122776e-04
      3.43759515e-04 -1.70886997e-04 4.19308890e-05 6.43068270e-05
      -3.19919374e-04 -2.84486479e-04 4.90209961e-04 6.31162489e-04
      3.43074411e-04 4.32475761e-04 8.66371556e-05 2.69222091e-05
      2.79990982e-05 1.61533262e-05 1.61533262e-06 3.40507739e-07
      2.71576823e-06 -2.80407858e-06 2.05840151e-05 4.14392154e-04
      1.83400887e-04 -2.36124788e-06 -1.80370898e-05 4.77735739e-05
      -6.94726405e-05 1.36011717e-04 5.17652079e-04 7.87413737e-04
      4.39919939e-04 2.34053005e-04 1.27359408e-06 0. 1.07688834e-06 0.
      0. 4.46915692e-06 -8.33072500e-06 1.19947863e-05 5.71423072e-07
      -5.22072514e-06 8.09530866e-06 9.39204074e-06 1.25917950e-05
      1.01672140e-05 -2.15733562e-05 5.49348806e-06 2.18736132e-05
      9.91084653e-06 -5.36117341e-07 2.79913911e-06 3.59058703e-07
      1.07688834e-06 1.07688834e-06 0. 5.38444169e-07 5.12262659e-06
      -3.35577215e-06 1.44105188e-05 7.01048248e-06 7.86318651e-06
      2.87265470e-06 -2.19922313e-05 -2.43209888e-06 3.33950175e-06
      1.26930499e-05 8.24652398e-06 7.59527325e-07 9.12429459e-06
      3.26879018e-07 -1.11637132e-06 2.60414168e-07 0. 0. 0. 0.</_>
    <_>
      -3.86218344e-05 -3.89429988e-05 -3.60240883e-05 -1.36036964e-04
      1.24279381e-04 -7.04597041e-05 -6.05486639e-05 6.06331050e-05
      7.25399514e-05 -2.83903792e-05 -3.82639410e-05 -8.11997015e-05
      7.93474828e-05 -7.57425150e-05 -6.64255422e-05 9.90241460e-05
      -1.17964146e-05 -1.03335424e-05 -4.64995137e-05 5.42614362e-06
      3.23341992e-05 9.39346137e-05 -8.99814549e-05 3.79141384e-05
      -6.17667320e-05 -4.42560522e-05 -1.17725795e-05 -4.54378896e-05
      -1.10250920e-04 1.05504179e-04 1.08024178e-04 5.90064265e-05
      1.19249446e-04 5.22222872e-05 -1.07284111e-04 -5.31927617e-05
      5.39511566e-05 -5.53095924e-05 -4.62847129e-05 1.39455951e-05
      -5.48764037e-05 1.16432020e-04 1.96981018e-05 9.16589561e-05
      -2.21482314e-05 1.89362108e-04 3.06546368e-04 4.82101983e-04
      1.20256154e-03 9.25071945e-04 -1.21481414e-03 -1.41365500e-03
      -2.72665988e-03 -1.24832732e-03 -7.76759465e-04 -4.56109323e-04
      1.92225289e-05 -3.98812299e-05 -2.39154124e-05 -3.18577986e-05
      2.22537765e-05 1.11803201e-04 -9.54480201e-05 2.97047111e-04
      1.92988300e-04 -5.30923367e-04 -1.81683019e-04 -1.65051233e-03
      -4.47055296e-04 7.26906525e-04 5.80790918e-04 -3.50985123e-04
      -1.43594661e-04 9.13701719e-04 3.11012671e-04 -1.64017442e-03
      -2.63301539e-04 -4.04979255e-05 9.31933027e-06 -1.13888836e-05
      -4.89813901e-05 -1.09466673e-04 -3.39522143e-04 -5.52488607e-04
      -2.09310930e-03 -1.05752901e-03 1.83955708e-05 -2.22884657e-04
      1.38214976e-03 -1.44164171e-03 9.10900999e-04 8.44310853e-04
      -1.16669934e-03 -1.45273458e-03 3.48511152e-04 -9.54153656e-04
      -9.56662232e-04 -1.62231532e-04 -2.41589387e-05 4.35431102e-05
      7.56556692e-05 2.00156865e-04 -1.17504364e-03 -7.41475145e-04
      -9.06082452e-04 -5.82866662e-04 -1.96820125e-03 -7.55510382e-06
      1.74829853e-03 -1.15737967e-05 -3.72717809e-03 6.32425828e-04
      -2.93501420e-03 -1.14496204e-03 1.34466169e-03 7.33453897e-04
      -4.83776093e-04 -2.87271068e-05 -5.28839446e-05 2.42402111e-05
      -1.61251199e-04 -1.02485748e-04 -1.80858409e-03 6.87184001e-05
      1.54550187e-04 -1.96570973e-03 -1.68308645e-04 1.39711937e-03
      -2.46404583e-04 -1.95550290e-03 6.12644013e-04 -1.05071161e-03
      1.90227956e-03 1.55691500e-03 8.08212673e-04 -1.31770282e-03
      1.43456462e-04 7.87237004e-05 3.21013831e-05 -5.08192024e-05
      4.44226462e-05 2.83027166e-05 -1.40310556e-03 7.69097678e-05
      5.18804882e-04 -8.76239756e-06 5.22253453e-04 -3.13252734e-04
      -6.02610351e-04 -6.17176818e-04 1.96889305e-04 -2.77370540e-03
      3.74293420e-04 -1.17878453e-03 1.42417429e-03 7.92243984e-04
      -1.89026934e-04 -6.27570480e-05 2.89128802e-05 -4.85394339e-05
      -1.21015517e-04 -2.59247986e-06 -4.39390016e-04 1.93994405e-04
      7.12971028e-04 -5.41489979e-04 -4.75947199e-05 -1.15729554e-03
      -1.83386833e-03 -1.98807335e-03 -2.32966174e-03 -1.65310712e-03
      -2.67332071e-03 -3.41530144e-03 1.37398695e-03 1.13458559e-03
      3.98732518e-04 4.85280267e-04 2.87335512e-04 -4.03733466e-05
      1.09662171e-04 -6.95730414e-05 -1.46681050e-04 1.99161514e-04
      -9.28995942e-05 -1.93462285e-04 9.47408378e-04 1.57766422e-04
      -2.19185930e-03 -1.25601864e-03 -1.77169859e-03 -1.51926233e-03
      -1.72075350e-03 -7.84551085e-04 1.17139134e-03 -1.01158640e-03
      1.14228041e-03 1.79186114e-03 7.14655180e-05 6.14356395e-05
      -4.25295220e-05 1.56439307e-06 -2.80934401e-05 8.68215808e-04
      1.52813434e-03 3.30110802e-03 -5.67759096e-04 -8.94867408e-04
      -6.21982908e-04 -3.04519222e-03 6.40621700e-04 -1.35862047e-03
      -1.00118166e-03 4.94567328e-04 -2.48233875e-04 -9.34875046e-04
      -1.01782824e-03 5.50746685e-04 1.07161199e-04 2.32669190e-05
      6.23422893e-05 2.17432844e-05 8.60562955e-04 2.19159760e-03
      3.25420615e-03 3.84000014e-03 2.16192426e-03 3.38487705e-04
      1.60303188e-03 5.51121891e-04 2.26344750e-03 -1.11959549e-03
      1.01390248e-03 1.39997073e-03 1.69270192e-04 1.54046307e-03
      -1.59899483e-03 -1.43673061e-03 1.17368916e-04 3.46786910e-05
      8.87511269e-05 -2.55908642e-04 1.41602199e-04 -2.31064879e-03
      -2.77769315e-04 6.78452372e-04 4.80803719e-04 2.06667907e-03
      2.60755885e-03 1.80294493e-03 3.00490740e-03 -1.18485943e-03
      -1.83755718e-03 -1.64196198e-03 4.58468101e-04 6.85089442e-04
      2.84079905e-03 5.79371874e-04 3.09632713e-04 6.68635621e-05
      -8.94097320e-05 -7.74723449e-05 -2.90393434e-03 -3.20115127e-03
      -1.51483691e-03 1.26463233e-03 7.96385866e-05 1.31409313e-03
      1.60878326e-03 1.38216920e-03 -2.28619057e-04 -6.83633552e-04
      1.78921226e-04 6.23788277e-04 -1.09378737e-03 4.19103104e-04
      3.30718630e-03 9.22569830e-04 1.05248728e-05 -2.47374282e-05
      -1.37641997e-04 3.31577379e-04 -1.99199445e-03 -1.92504551e-03
      -1.38361007e-03 1.54527032e-03 5.74203325e-04 3.84131516e-03
      3.33882123e-03 1.29661604e-03 1.14943320e-03 1.16702309e-03
      -2.06075329e-03 5.77474770e-04 2.04679882e-03 9.12830001e-06
      1.92911248e-03 7.02669262e-04 1.15877330e-04 4.21919103e-05
      1.53819783e-05 1.16426891e-04 1.79932255e-03 1.84567631e-04
      1.39910800e-04 9.03374690e-04 -2.27651792e-03 5.19277237e-04
      2.33965996e-03 9.01007967e-04 -2.54090549e-03 -1.50836329e-03
      -3.14201927e-04 -1.74844172e-04 1.23039202e-03 -1.18820556e-03
      1.38497190e-03 2.17384240e-03 7.93955987e-04 5.55315819e-05
      5.42512098e-05 -1.23268721e-04 -5.33955172e-04 -1.08400674e-03
      9.45134787e-04 1.95315108e-03 1.41536511e-04 -3.86960455e-05
      3.19356797e-03 8.59267486e-04 -3.49166337e-03 9.24158492e-04
      2.40925979e-03 -2.63336751e-05 6.31247531e-04 1.65975664e-03
      1.11637893e-03 5.76787046e-04 3.70101974e-04 1.90027254e-06
      6.22886728e-05 -5.58111315e-05 -1.11558288e-03 -2.37340224e-03
      -2.09281617e-03 -1.38384174e-03 -1.29498099e-03 -1.61627063e-03
      -2.13068491e-03 -3.42811621e-03 -2.36723525e-03 -5.92830533e-04
      -8.82367778e-04 -8.14932573e-04 3.67576815e-03 2.59085768e-03
      4.74287197e-04 1.35493940e-06 6.08456730e-06 -9.61120531e-06
      -1.41314304e-05 -6.85186969e-05 -3.68038527e-05 7.46145961e-05
      1.59740332e-04 -3.51188683e-05 3.45584231e-05 -4.75696754e-04
      -1.60978828e-03 -2.07965146e-03 -2.21509696e-03 -1.30835176e-03
      -1.74708897e-04 -1.51082303e-03 -5.08423778e-04 -1.25430815e-04
      -2.96579765e-05 1.16568299e-06 1.22509928e-05 3.27135308e-06
      4.40964795e-05 -7.88929465e-05 1.01204023e-05 4.50642510e-05
      4.19819771e-05 -4.91605670e-06 -9.39648307e-05 -2.70651130e-04
      -6.53863943e-04 -5.75724524e-04 -6.30675757e-04 -1.52408145e-04
      7.19884213e-07 -1.00250472e-04 -3.02619792e-05 -7.43477358e-06
      -1.52848515e-05 5.51102175e-06 5.93808272e-06 4.14593296e-06</_>
    <_>
      -4.72785141e-05 -6.74458397e-06 7.31321124e-05 -9.72650014e-05
      -3.15017896e-05 1.51274826e-05 1.49389007e-05 3.38707141e-05
      -2.59730805e-05 -4.94643973e-06 -9.13013282e-05 1.97301939e-04
      4.91568135e-05 -5.90128766e-05 -5.36063308e-05 7.44056742e-05
      -2.05227079e-05 1.42087511e-05 -3.32606432e-05 -3.77093500e-07
      1.52609573e-05 5.66317867e-05 -3.40287588e-05 -7.27335646e-05
      5.67760944e-05 -7.26132057e-05 -2.52704899e-06 -5.50161494e-05
      4.61619871e-04 1.44774339e-03 2.60227825e-04 -1.97380767e-04
      -1.94096676e-04 1.09287859e-04 -3.06562742e-06 -5.27917764e-05
      1.90688152e-05 -1.29113887e-05 1.25825609e-05 -3.12778539e-05
      -3.58499601e-05 3.01639975e-05 3.70660782e-05 5.14978019e-05
      -4.93967709e-05 6.91390824e-06 2.06439523e-04 3.75528500e-04
      6.71608315e-04 2.70063942e-03 2.28738994e-03 3.02277913e-04
      9.39381251e-04 8.86235037e-04 6.59448502e-04 -1.32418645e-04
      -1.06287553e-04 -2.41823454e-05 -1.29592627e-06 -1.93706273e-06
      3.86419197e-05 -4.32512934e-05 -2.34947420e-05 -1.02461505e-04
      2.73764308e-04 4.48737352e-04 2.52246566e-04 7.43369514e-04
      -4.86574281e-04 2.14464893e-03 2.01907940e-03 1.75032753e-03
      9.61808080e-04 1.54338148e-03 -1.76317338e-03 -1.34637253e-03
      -3.49122682e-04 -1.29432985e-04 -2.71872523e-05 2.45668180e-05
      2.77211420e-05 -5.93547302e-05 -1.25627324e-04 -8.48569252e-05
      7.51558924e-04 -3.10161413e-04 -7.73526961e-04 5.15309279e-04
      7.32620654e-04 2.28014440e-04 -9.30151218e-05 4.16218739e-07
      1.59180287e-04 1.20316586e-03 -1.76060467e-03 -3.42954620e-04
      -4.76283982e-04 -1.69405350e-04 -1.31883397e-04 -1.63798177e-05
      -6.02138716e-05 4.86569115e-05 3.45939989e-05 -3.44864995e-04
      1.13491231e-04 4.23434860e-04 -3.03404086e-04 3.67663488e-05
      3.65784997e-03 2.53029517e-04 1.87498739e-03 1.57657568e-03
      -2.22687013e-04 9.75880073e-04 1.00556426e-04 -2.70343968e-04
      6.84103507e-05 -3.01494088e-04 -1.38600808e-04 -7.38688050e-06
      7.82737334e-06 2.89790605e-05 -4.28784624e-05 -5.57712629e-04
      8.24891438e-04 1.61791177e-04 7.30983797e-04 1.23241637e-03
      5.79095322e-05 -1.70186522e-05 2.00927234e-03 -1.47235231e-03
      1.26436423e-03 8.88374634e-04 2.72256766e-05 7.46426522e-05
      7.71207124e-06 -1.09720313e-05 1.26205059e-05 -1.21864714e-05
      4.69808583e-07 8.45799241e-06 -1.50649270e-04 -8.79903673e-04
      -5.57216525e-04 -1.25352293e-03 3.05476860e-04 -3.81951628e-04
      1.74838642e-03 4.91269930e-05 2.95233942e-04 -3.92406160e-04
      -2.21307797e-04 -1.29431521e-03 4.85196389e-04 3.50947288e-04
      -4.31159307e-04 3.11400334e-04 1.93803717e-04 -1.21933435e-05
      6.28996349e-06 3.95353272e-05 -9.90294153e-04 -2.35896820e-04
      -8.45506089e-04 -2.62627308e-03 -2.80634221e-03 -5.10609848e-03
      -1.88323506e-03 -1.89622992e-03 -8.57917999e-04 1.17460586e-04
      -1.47545908e-03 -3.82623024e-04 8.49752745e-04 4.28210478e-04
      1.24304742e-03 1.60582736e-03 2.03943462e-03 3.81093560e-04
      -2.93222911e-05 -2.07132689e-05 1.29683744e-04 -3.77051212e-04
      -9.70711524e-04 -1.97228347e-03 -1.59671344e-03 -1.61838683e-03
      -2.03888188e-03 2.73602665e-04 -3.72095295e-04 7.05360726e-04
      -9.80089826e-05 -1.00046425e-04 -1.22664985e-03 3.48494534e-04
      9.85044637e-04 1.08819490e-03 2.71374988e-03 4.59132018e-04
      5.02434777e-05 -9.10575254e-05 1.00783561e-03 -5.92439144e-04
      -1.37148227e-03 2.07151868e-03 -4.05255647e-04 -9.75649164e-04
      -6.57544006e-04 3.14677280e-04 7.63399526e-04 -1.20782189e-03
      -9.29693517e-04 -4.04854683e-04 -8.95548088e-04 -1.44890207e-03
      6.16980367e-04 2.26821029e-03 1.12023787e-03 2.38677792e-04
      -2.26965076e-05 1.19856544e-04 1.03375129e-03 4.38090094e-04
      -4.79362498e-04 7.70267448e-04 4.43823228e-04 -1.20434538e-03
      5.43525908e-04 2.00668024e-03 1.71046879e-03 -1.20667531e-03
      -4.23408172e-04 -5.85229020e-04 4.22246987e-04 -1.55814970e-03
      -4.35925613e-04 3.96427978e-03 3.21890367e-03 5.89490635e-04
      -4.85068849e-05 -2.98902123e-05 5.58876200e-04 5.60508575e-04
      1.61163742e-03 -1.18732371e-03 -1.08531979e-03 1.14088645e-03
      2.28894525e-03 -1.69545657e-03 -1.29029620e-03 -2.95527192e-04
      3.37189471e-04 -1.07804779e-03 -4.34191577e-04 9.30680195e-04
      -3.97332798e-04 1.17656786e-03 1.95372780e-03 5.88446099e-04
      -1.40913489e-05 9.17016077e-05 3.81644815e-04 1.30406683e-04
      -9.11927666e-04 2.64718966e-03 1.96173717e-03 4.87954065e-04
      -4.15088172e-04 -7.89198326e-04 5.74096804e-04 -1.19124737e-03
      4.62994503e-04 4.52341155e-05 1.97987916e-04 1.88122760e-03
      2.26591807e-03 6.28500013e-04 5.91811149e-05 1.74542089e-04
      -9.65757863e-05 1.00227808e-04 1.18783762e-04 5.16799802e-04
      3.04265941e-05 1.33654231e-03 1.26560195e-03 8.19358393e-04
      1.78856705e-03 1.58108422e-03 1.02778338e-03 -8.49588105e-06
      -1.26197177e-03 5.75354905e-04 4.93954518e-04 2.16318207e-04
      7.01837067e-04 -3.41249339e-04 1.66898666e-04 3.92374495e-05
      1.22152414e-04 -1.17682415e-04 1.24139784e-04 6.10137417e-04
      2.11392739e-03 1.83294702e-03 9.43560735e-04 4.31410794e-04
      2.24857824e-03 1.55947707e-03 -1.24625338e-03 -1.36658282e-03
      -1.66490237e-04 1.75088950e-04 -3.84323357e-04 -4.83045296e-04
      7.01318320e-04 -1.14676986e-04 -9.74816576e-05 1.05689294e-04
      -4.36424598e-05 1.56224287e-05 -1.72465316e-05 5.50621335e-05
      2.09274527e-04 -4.04151069e-04 -2.86469120e-04 -2.27151811e-03
      -7.59709073e-05 -6.15386234e-04 -7.34123052e-04 2.94090569e-04
      1.13278057e-03 -6.49642025e-04 -6.42569386e-04 1.01311591e-04
      6.74998388e-04 -8.77578568e-05 3.40838869e-06 -8.64572394e-06
      4.16689909e-06 -1.66167520e-05 -9.26722059e-05 -3.74881165e-05
      -9.16287710e-04 -1.51535042e-03 -9.53851668e-06 -5.50110766e-04
      -1.43914018e-03 -3.92737740e-04 1.72263317e-04 -1.25684906e-04
      1.31066167e-03 2.25780392e-03 1.47518516e-03 1.69317369e-04
      -2.52958780e-05 -2.30866208e-05 -3.59131633e-07 -2.40256941e-06
      -5.47379204e-05 -2.43606337e-05 1.43365251e-05 3.20392314e-06
      1.85442859e-05 1.46595412e-05 -5.73855395e-05 -3.69124573e-05
      -4.02427722e-05 -5.75254599e-05 -2.70136574e-04 -2.24156436e-04
      4.93847474e-05 1.64482207e-03 9.94503731e-04 -2.03631371e-05
      1.65711526e-06 2.76229621e-05 -4.41336233e-05 7.48614366e-06
      9.62734885e-06 -2.19674021e-05 -2.39585388e-05 -1.83934771e-05
      -5.78344407e-05 -6.54276846e-06 1.19600154e-05 -3.78866789e-05
      -9.53247072e-05 -3.22945671e-05 -4.87146899e-05 -4.07132648e-05
      -2.62908216e-05 -1.29553286e-04 -5.04084310e-05 -5.85786802e-05
      -2.89788040e-05 -1.19483948e-05 1.37033312e-05 1.68000479e-05</_>
    <_>
      5.28492819e-05 1.38195646e-05 -3.31330266e-05 6.23133164e-05
      1.65699730e-05 1.39400627e-05 -4.15459763e-05 6.33548407e-05
      7.64245488e-05 -2.75148213e-05 2.18047298e-05 -6.75210831e-05
      -9.76461433e-06 8.60317014e-05 -1.10020163e-04 4.47419989e-05
      -1.62601555e-05 -8.75011247e-05 -2.39534675e-05 -4.25751605e-05
      9.55666928e-06 9.38699377e-05 -1.36072340e-05 6.86188650e-06
      -7.56091367e-06 -4.31389890e-05 2.32097635e-04 2.85896269e-04
      1.11917336e-06 4.64769051e-04 3.55761324e-04 4.57250026e-05
      3.34377801e-05 2.79118522e-05 3.09545067e-05 -2.20312049e-05
      3.86061629e-07 -2.74554768e-05 -4.25037215e-05 -2.86433860e-05
      -8.39043241e-06 -1.40612542e-07 -2.05691285e-05 4.52173445e-05
      6.72278884e-06 1.17903044e-04 8.79577012e-04 1.00455969e-03
      3.34536307e-04 -3.07471026e-04 6.42469211e-04 6.77543052e-04
      -4.15833609e-04 -5.57257736e-04 -2.63328635e-04 -3.06333095e-04
      -1.76987392e-04 -1.78243441e-04 -1.49810672e-04 -3.69278450e-06
      4.55665540e-05 1.80110897e-06 1.65742131e-05 -5.84503312e-07
      1.48505991e-04 1.71113701e-04 5.42750582e-04 7.00909877e-04
      -4.76969260e-04 7.28367886e-04 7.05075450e-04 1.34094025e-03
      2.06603087e-03 -2.61505949e-04 3.87888664e-04 -5.67220341e-05
      -1.85565068e-03 -1.11119740e-03 -4.09968168e-04 -7.68974351e-05
      3.30933690e-05 1.77965048e-05 -2.84795005e-05 8.08328405e-05
      3.42689746e-04 1.14080838e-04 3.92787042e-04 3.82875442e-05
      6.76060037e-04 -1.55944191e-03 -3.96845426e-04 -6.97481912e-04
      3.92227230e-04 6.26812762e-05 -1.45156798e-03 -1.31555460e-03
      -3.04667884e-03 -2.79338635e-03 -1.19052784e-04 -6.92485846e-05
      -1.09488574e-05 1.55714952e-05 6.37360354e-05 -9.61331825e-05
      -1.35984665e-04 3.77919001e-04 -3.60863836e-04 8.83712841e-04
      1.33450562e-03 -6.23272324e-04 -1.99747831e-03 1.50815889e-04
      1.53580494e-03 1.86074397e-03 -2.15144968e-03 -1.52227050e-03
      -1.35473115e-03 -2.19396781e-03 -2.62697198e-04 -7.40020914e-05
      1.05314705e-07 -2.05336437e-05 -2.50709982e-05 2.37285713e-04
      7.93155195e-05 9.70176654e-04 7.89485872e-04 9.77576128e-04
      -1.33202830e-03 5.97906474e-04 -5.43636910e-04 1.59723699e-04
      1.13923708e-03 1.24419213e-03 9.56610602e-05 -7.15590897e-04
      -2.07381067e-03 -3.62758804e-03 -1.45207660e-03 -2.64263625e-04
      2.80618806e-05 4.96375615e-05 1.57278890e-04 9.89790191e-04
      -3.60438629e-04 -6.31262141e-04 2.83769536e-04 -2.27820524e-03
      -1.93780346e-03 6.18430087e-04 -1.10021804e-03 2.94278027e-04
      1.58340481e-04 6.84432162e-05 2.62940233e-03 2.17404077e-03
      -1.07916794e-03 -2.12621409e-03 -1.48601597e-03 -3.77444230e-04
      -6.60462392e-05 -1.85824028e-05 1.49145475e-04 1.03874353e-03
      -1.06867531e-03 -1.80741830e-03 -4.11484565e-04 -1.19290268e-03
      -9.31971124e-04 -5.96687314e-04 -6.50748028e-04 -7.10009830e-04
      -3.69447458e-04 -4.60012343e-05 3.37940478e-03 2.53779395e-03
      5.97948034e-04 8.44173017e-04 1.20663608e-04 4.56016605e-05
      1.24219423e-05 4.80720519e-06 3.22991604e-04 2.78322521e-04
      -1.36875920e-03 -1.11685169e-03 -1.13909191e-03 -1.43796066e-03
      -1.54661876e-03 -8.91209522e-04 -1.06648309e-03 -1.21225137e-04
      4.28203784e-05 1.47266925e-04 8.66289018e-04 -8.94538243e-04
      5.05740638e-04 1.39055296e-03 7.83832395e-04 1.37651485e-04
      2.34530107e-05 -1.42696197e-04 3.76230775e-04 2.16910863e-04
      -6.55858676e-05 1.87756948e-03 -8.60025000e-04 -2.46633380e-03
      -1.19228824e-03 1.76872287e-04 2.08454067e-03 1.02222094e-03
      -7.83474592e-04 -1.47405930e-03 -5.64913265e-04 -1.49473618e-03
      -6.84697297e-05 5.29367011e-04 5.35829808e-04 8.10391793e-05
      2.67345877e-05 -1.78697030e-06 4.37271432e-04 4.27819527e-04
      5.41032176e-04 2.21423968e-03 1.30306301e-03 1.04940345e-03
      1.82382262e-03 -2.01080620e-04 8.04058567e-04 1.84905672e-04
      4.86034725e-04 -1.33634824e-03 -5.25414944e-04 8.36299387e-06
      5.76183433e-04 1.26582675e-03 1.37544132e-03 2.80195789e-04
      1.27725425e-05 1.52617176e-05 2.01878313e-04 8.19261535e-04
      8.53206788e-04 -3.98899836e-04 1.03005196e-03 2.12746649e-03
      1.35435129e-03 1.96340075e-03 1.32460985e-03 -4.30893240e-04
      -1.06900174e-03 4.60624986e-04 4.46459744e-04 7.73809588e-05
      1.60537008e-03 1.78331090e-03 1.66216935e-03 3.30869225e-04
      2.71453082e-05 -2.51338555e-04 -1.92559528e-04 7.58800714e-04
      -9.78372758e-04 -1.04727247e-03 1.02373655e-03 6.82850776e-04
      1.62895501e-03 1.67109212e-03 -7.52940308e-04 1.72607048e-04
      5.57850115e-04 -1.16080546e-03 -2.27644388e-03 8.91351548e-04
      1.37660292e-03 8.40103254e-04 6.38158002e-04 7.19205491e-05
      -3.14463650e-05 -3.64179286e-04 -5.86324779e-04 1.08014117e-03
      -1.66386028e-03 -1.87052926e-03 1.34500742e-05 6.49558089e-04
      1.88688491e-03 2.95555976e-04 1.49275549e-03 1.12354185e-03
      -6.31460280e-04 1.47403835e-03 1.79768400e-03 1.91115320e-03
      -7.77406734e-04 -1.16345054e-03 1.22325204e-04 1.15666233e-04
      1.20428444e-06 3.99835408e-05 4.82194846e-05 2.58762360e-04
      1.27302413e-03 9.47256864e-04 -4.65895544e-04 2.13461681e-04
      1.07688364e-03 3.47696361e-04 -1.46916998e-03 2.23578827e-04
      5.64874324e-04 -8.05347925e-04 -9.62632475e-04 1.66608186e-06
      -5.34399762e-04 -8.70026473e-04 6.62792945e-06 3.32960444e-05
      1.03479369e-05 -5.88825387e-05 5.94152734e-05 -6.72296912e-04
      1.97287928e-03 2.54659262e-03 -6.40727376e-05 -4.55796951e-04
      4.84661199e-04 1.09239016e-03 -1.57723774e-03 -1.04534603e-03
      1.88416708e-03 -1.19273516e-03 -1.16559048e-03 -1.31822148e-04
      -5.83255533e-05 8.21604190e-05 5.66596873e-06 -1.14701788e-05
      4.45381302e-05 -2.67992073e-06 -1.19742554e-05 -8.46081588e-04
      3.50581220e-04 9.69666813e-04 -9.29612666e-04 -7.68262311e-04
      -1.14104047e-03 -1.35918299e-03 -1.44880626e-03 -5.69909404e-04
      5.11771708e-04 1.19339919e-03 1.74120313e-03 7.69797422e-04
      6.72992537e-05 5.66596873e-06 -1.82116728e-05 4.26538099e-06
      -4.92322906e-05 4.08370979e-05 -1.67477720e-05 -3.19652027e-05
      2.20008842e-05 -1.45036756e-05 3.89058296e-05 -3.77338984e-05
      4.40646036e-05 -7.41191398e-05 8.28319316e-05 -2.74276426e-05
      4.07286716e-05 4.63307370e-04 2.47393415e-04 1.43248590e-05
      2.14306738e-06 -2.95455593e-05 0. -2.89790933e-06 2.04439893e-05
      2.15294240e-05 -2.93918074e-05 1.88736631e-05 2.42924252e-05
      -9.80068216e-06 -1.00686530e-05 6.63695100e-05 -8.19507623e-05
      -6.68457142e-05 -1.52332686e-05 -4.82391770e-05 -1.10850688e-05
      -2.13828334e-05 -1.91150921e-05 3.53157270e-06 -2.24563009e-05
      -3.34424226e-06 6.42920213e-06 -4.20285187e-06</_>
    <_>
      3.15599973e-05 1.72269647e-05 5.92241595e-05 3.18790626e-05
      -5.39864923e-05 7.44923018e-05 -3.58171528e-05 -8.89073090e-06
      8.06985627e-05 -2.61488021e-04 9.22253676e-05 -2.96032249e-05
      -6.75758929e-05 -5.79105335e-06 -1.91096420e-04 -9.60472244e-06
      -2.77115851e-05 1.80128500e-05 -4.57496608e-05 -4.13681664e-06
      3.67927100e-06 3.09504867e-06 3.47890928e-05 5.59770342e-05
      3.88714579e-05 -7.01041063e-05 -6.85780484e-04 -3.76289448e-04
      2.49177276e-04 2.87653420e-05 -2.47212010e-04 -5.90281445e-04
      -1.15165347e-03 -6.18421007e-04 -1.03790348e-03 -2.32609949e-04
      2.21833238e-06 -2.48631568e-05 9.24196138e-06 -6.34478738e-06
      1.96922315e-06 2.64377686e-05 4.94488959e-05 4.46885861e-05
      1.63823061e-05 -3.67003027e-04 -6.52448158e-04 2.33310362e-04
      7.31547698e-05 9.84406564e-04 -1.03181775e-03 -2.09147620e-04
      -4.82473348e-04 -1.96374534e-03 -2.00937921e-03 -1.31253665e-03
      -2.61948851e-04 -9.70902511e-06 -2.65582803e-05 -2.75977200e-05
      6.05841706e-05 4.02682672e-05 -1.89517559e-05 2.55502848e-04
      5.68017189e-04 3.65161977e-04 1.38714525e-03 8.66145911e-06
      6.47080247e-04 2.44625076e-03 1.11005269e-03 1.14725926e-03
      9.37989156e-04 -5.22195071e-04 -2.32885033e-03 -1.25630456e-03
      -8.94185447e-04 -4.54452063e-04 -2.35285959e-04 -4.29808915e-06
      2.74163485e-05 2.35468251e-05 7.43983037e-05 8.99118080e-04
      9.88838263e-04 5.86768962e-04 8.00766458e-04 -4.42512566e-04
      2.14963191e-04 1.42435508e-03 -4.41998680e-04 1.31947733e-03
      -8.76333972e-04 7.85871292e-04 9.42022831e-04 5.14855084e-04
      -1.72557298e-03 -1.92851003e-03 -1.75435026e-03 -1.15198293e-03
      6.12890071e-05 1.50027263e-04 4.43501020e-04 5.40166220e-04
      4.28169187e-05 4.48684266e-04 7.32737652e-04 -3.74693191e-04
      1.15317432e-03 1.90416351e-03 -9.24164196e-04 1.46281696e-03
      1.77743810e-03 2.41078972e-03 1.88271201e-03 7.71066771e-05
      -1.55919907e-03 -1.54343271e-03 -1.28432154e-03 -9.27373301e-04
      4.42066048e-05 6.76496129e-05 3.18360719e-04 5.21212118e-04
      -8.39182176e-04 1.00804307e-03 1.76564092e-03 7.19504897e-04
      -5.25969299e-05 -2.35840955e-04 1.61875232e-05 1.33415195e-03
      1.68956502e-03 2.02443637e-03 1.64061505e-03 5.20196569e-04
      -6.50467293e-04 9.89329637e-05 -4.67029568e-05 -6.70391019e-05
      4.33788446e-05 3.69705631e-05 9.84490107e-05 -1.49374937e-05
      -2.01678136e-03 -5.05353906e-04 -1.17887277e-03 -7.12186040e-04
      1.32424640e-03 1.56546957e-04 1.29119051e-03 2.98778084e-03
      1.13643892e-03 1.26991398e-03 3.56843870e-04 6.03217748e-04
      -2.22301751e-04 -2.32332954e-04 3.09287803e-04 -4.40782833e-06
      5.89569681e-05 -2.12613468e-05 5.16152468e-05 5.89205243e-04
      -1.71730330e-03 -1.42752833e-03 -2.79555586e-03 -2.67159985e-03
      8.87754359e-05 -1.22295762e-03 -6.26036926e-05 2.02774769e-03
      -8.06173484e-04 5.70744160e-04 4.22860758e-04 -9.02485452e-04
      -7.97602872e-04 1.19137019e-03 1.99579028e-03 2.52710830e-04
      -6.03999297e-06 -1.06766211e-05 8.58119165e-04 2.47150834e-04
      -1.39714987e-03 -1.67236780e-03 -2.25525163e-03 -2.46638246e-03
      -1.64683349e-03 6.16671823e-05 -1.87961920e-03 2.09606995e-04
      -7.99135247e-04 6.01084503e-05 1.24706409e-03 2.08783560e-04
      -9.13816795e-04 -7.89380923e-04 1.43979175e-03 3.17288650e-04
      -2.73421756e-05 -6.17210535e-05 1.08189532e-03 -2.16634653e-04
      -1.71676325e-03 -2.72672652e-04 -4.04351682e-04 -5.26989868e-04
      -9.30065115e-04 3.00298911e-04 -2.06160243e-03 1.15365349e-03
      8.36846302e-04 -3.98145610e-04 -9.35989781e-04 -2.42390879e-03
      -2.78512761e-03 -1.57721003e-03 -1.11045112e-04 1.87953847e-04
      6.38013953e-05 -4.38422717e-07 8.65584938e-04 4.93899337e-04
      -1.74769294e-03 1.98006397e-03 2.40765768e-03 1.92065223e-03
      -2.93641584e-04 1.59783487e-03 -5.80807915e-04 7.94818116e-05
      4.30837157e-04 -1.32516888e-03 2.51864229e-04 6.01537526e-04
      -1.09649834e-03 8.53850157e-04 1.73889974e-03 5.58969623e-04
      -4.30945147e-05 4.59572329e-05 1.39881682e-04 1.57261884e-03
      2.33221170e-03 -4.27183491e-04 -2.02248082e-03 -4.85377735e-04
      -1.35863002e-03 -6.13007287e-04 6.59378537e-04 1.15058804e-03
      -3.59237194e-04 3.77438439e-04 -2.78789696e-04 2.45679519e-03
      1.44810288e-03 1.09908963e-03 5.73393248e-04 3.75816802e-04
      5.20426474e-05 4.01041325e-05 1.45367274e-04 1.96240307e-03
      2.78860400e-03 6.83919119e-04 -7.85969023e-04 -1.44409772e-03
      -1.41328224e-03 8.53528327e-05 -9.59103520e-04 -5.07454446e-04
      -5.59042499e-04 2.96152757e-05 -6.63303537e-04 1.30757969e-03
      1.06598006e-03 9.42130864e-04 -2.80473269e-05 1.38385891e-04
      -8.74210818e-05 2.46612672e-05 -4.27169507e-05 8.34717241e-04
      2.32247054e-03 1.43672130e-03 -7.58903334e-05 -1.68497383e-03
      7.49508545e-05 -6.12525211e-04 -1.29301252e-03 -5.46593859e-04
      -1.17681106e-03 -3.03999026e-04 5.03896794e-04 4.09650442e-04
