<?xml version="1.0"?>
<opencv_storage>
<opencv_ml_svm>
  <format>3</format>
  <svmType>C_SVC</svmType>
  <kernel>
    <type>LINEAR</type></kernel>
  <C>1.</C>
  <term_criteria><iterations>1000</iterations></term_criteria>
  <var_count>400</var_count>
  <class_count>2</class_count>
  <class_labels type_id="opencv-matrix">
    <rows>2</rows>
    <cols>1</cols>
    <dt>i</dt>
    <data>
      0 1</data></class_labels>
  <sv_total>1</sv_total>
  <support_vectors>
    <_>
      -3.52008396e-06 4.16813737e-06 -7.01901354e-06 1.60107118e-06
      -1.60545528e-06 1.37884945e-06 -1.01801186e-06 -5.98373163e-07
      2.52538916e-06 -5.07046343e-06 -7.28551140e-06 1.01257228e-05
      -4.46951663e-06 -9.72771977e-06 8.61898934e-06 -6.47532670e-06
      -2.46992215e-07 3.46937668e-06 -5.16159253e-06 6.51501068e-07
      -2.43004183e-06 1.12875497e-07 4.81630821e-07 4.61438674e-07
      1.64699122e-06 2.39639166e-06 -2.66569077e-06 -1.64831170e-06
      -1.08683744e-05 2.59249305e-06 6.01457441e-06 -2.27784631e-06
      -2.07269818e-06 1.16133697e-05 1.99070875e-08 8.04323281e-06
      7.45491832e-07 -1.18811090e-06 3.24948269e-06 -9.84723783e-07
      3.37251936e-06 3.36360813e-07 -4.92180698e-06 2.22414928e-06
      -4.40378381e-06 -4.53605662e-06 7.16240629e-06 -1.22154927e-06
      -1.77654056e-05 -5.80206215e-05 -1.43737780e-04 -2.69948301e-04
      -7.05430357e-05 1.16565934e-04 1.98180278e-05 -4.18076070e-07
      4.35317543e-06 1.49041955e-06 -1.99068222e-06 1.19351125e-06
      -2.21009418e-06 -1.18742412e-06 4.89692366e-06 -4.80966776e-07
      1.32692912e-06 -5.74672822e-06 -2.00496961e-05 -4.36361261e-05
      -4.76650348e-05 1.39586467e-04 6.15784433e-04 1.62799624e-04
      -5.13239756e-05 -5.61763736e-05 3.60994022e-06 3.05608955e-05
      -1.25834890e-06 1.11768441e-06 1.86961302e-07 6.65066466e-07
      -9.16769380e-08 3.89750426e-07 -9.68806830e-07 4.69339375e-06
      4.31747731e-06 -4.65435551e-06 -2.75347011e-05 4.49673498e-05
      2.06740166e-04 2.03400865e-04 3.21136817e-04 1.16595918e-04
      2.98560044e-04 -3.66083812e-04 -7.34000423e-05 9.94400762e-06
      -3.63696345e-05 2.70860346e-06 -4.45980817e-07 4.30960654e-06
      -3.19927426e-06 1.97417350e-07 -8.94899870e-07 -3.48840695e-06
      -4.53792854e-05 -1.35735012e-04 1.66898499e-05 2.21112496e-04
      8.98432918e-05 -1.74641900e-05 2.76100109e-05 -1.98934824e-04
      2.21477996e-04 -2.06939483e-04 -2.26203891e-04 -8.05307427e-05
      3.20237450e-05 2.65637527e-06 1.07601352e-06 -2.31210979e-08
      -7.23195797e-07 2.10941880e-06 4.79385062e-06 -1.64967696e-06
      -1.09807508e-04 -2.55011400e-04 5.20703907e-05 2.06350567e-04
      -1.86593665e-04 -2.81716639e-04 2.24589749e-04 -2.45252704e-05
      1.14271927e-04 4.94860942e-05 4.28289422e-05 3.16470512e-04
      2.11603168e-04 6.70500185e-06 3.60955869e-06 -3.19679970e-07
      1.97201211e-06 -6.36160848e-07 -9.61177648e-07 1.19477966e-06
      -1.03012419e-04 -6.89284207e-05 2.08303900e-04 1.25856368e-05
      -2.58332118e-04 2.06722281e-04 2.54276129e-05 -2.52612226e-04
      -8.23708760e-05 2.29200054e-06 4.58510331e-04 4.60954034e-04
      4.26435057e-04 8.53587480e-05 -7.49244718e-05 -6.57293299e-07
      -5.59771138e-07 1.16464480e-05 -7.84262284e-06 4.99324779e-05
      4.85622550e-05 -1.62093769e-04 -1.29629014e-04 -4.68699902e-04
      1.25259088e-04 1.65316611e-04 -2.95748963e-04 -4.91887855e-04
      -6.81752936e-05 2.68637232e-04 6.32731826e-04 2.95458449e-04
      3.53404146e-04 2.49625475e-04 -5.58168722e-05 -4.44693887e-06
      -6.77506841e-06 1.22758356e-05 1.46736775e-05 1.19290293e-04
      1.99441667e-04 -1.99632650e-05 7.37510709e-05 2.96770682e-04
      5.98656829e-04 -3.34894168e-04 -1.06435921e-03 -5.78776759e-04
      -9.24553315e-05 7.64319848e-05 5.77521394e-04 2.88431795e-04
      3.04319052e-04 3.46729503e-04 -3.95366988e-06 -1.63993366e-06
      3.75697641e-06 -4.21817003e-06 4.80886513e-07 1.86760866e-04
      4.15827730e-04 4.18460404e-04 9.13801705e-05 8.82592925e-04
      3.75349133e-04 -5.27785509e-04 -1.34018424e-03 -3.53128184e-04
      2.64029426e-04 1.26806102e-04 4.93302243e-04 1.80278323e-04
      3.48809408e-04 3.26095556e-04 -1.54998197e-05 -5.93557661e-06
      1.77303846e-05 2.63822744e-06 1.60343734e-05 1.91211730e-04
      4.38597053e-04 3.88019747e-04 4.23649966e-04 9.08670016e-04
      1.99224742e-04 -9.07676818e-04 -1.07002829e-03 -3.55399497e-05
      3.31206771e-04 8.44083661e-06 4.52827080e-04 3.35265766e-04
      4.50702122e-04 2.31803555e-04 -9.69231496e-06 7.11220423e-07
      -5.62089326e-06 -4.00219324e-06 -5.74162686e-06 1.57546499e-04
      3.19548242e-04 4.03352460e-04 1.78490489e-04 7.82738614e-04
      2.36764216e-04 -5.62184257e-04 -2.20127971e-04 2.77924206e-04
      6.97493553e-04 3.00634332e-04 3.75223433e-04 5.16711327e-04
      3.83187085e-04 8.52986122e-05 2.16035596e-06 2.69483439e-06
      -1.83131931e-06 2.46806649e-05 -4.39430687e-06 1.14794515e-04
      3.05588008e-04 5.07083430e-04 7.04203849e-05 2.54757004e-04
      2.76865321e-04 -8.51484947e-04 -3.56361881e-04 5.36652165e-04
      4.99372720e-04 1.06012623e-04 -9.27896253e-05 2.13305641e-04
      8.97506106e-05 -4.52234344e-05 -9.98590735e-07 -4.89530794e-06
      -6.29704391e-06 -5.53851578e-06 5.66266954e-06 8.17265245e-05
      7.62469208e-05 3.77688062e-04 -1.28353699e-04 1.41463606e-04
      3.02776200e-04 -4.70819301e-04 -5.19830734e-04 3.65659303e-04
      -1.04755018e-04 -3.20949912e-04 -2.76221428e-04 -1.29990120e-04
      -3.15494399e-04 -3.03415029e-04 -3.53173709e-05 4.76957575e-06
      -3.74073329e-06 -2.39616247e-06 5.47687750e-06 6.57060082e-05
      4.90100538e-05 -4.53695247e-05 -2.17613386e-04 4.03927377e-04
      3.60603910e-04 2.00062641e-04 1.45352838e-04 1.72592205e-04
      -2.39260160e-04 -1.32239598e-04 -5.65273294e-05 -1.40407428e-04
      -2.80445034e-04 -3.09991796e-04 -1.58208131e-04 -5.14584428e-08
      3.99738752e-07 -3.89139223e-06 5.45469175e-06 6.04847774e-05
      1.85459954e-04 -3.72393624e-05 -1.33113981e-05 3.96206422e-04
      3.83412611e-04 6.75897172e-04 5.85959351e-04 1.81650321e-05
      -2.35757587e-04 1.41990909e-04 1.13242771e-04 -3.10538089e-05
      -6.34311800e-05 -6.59684301e-05 -3.80587080e-05 -3.80587085e-06
      -2.03864556e-06 2.75972416e-05 -6.04536922e-07 8.90310548e-05
      1.86773599e-04 1.41626209e-04 1.28316562e-04 2.02328054e-04
      1.47258339e-04 2.22873219e-04 2.92931392e-04 1.11372006e-04
      -1.63877077e-04 5.01150389e-05 3.97141719e-07 2.13223266e-05 0.
      -2.53724716e-06 0. 0. 5.10921973e-06 -1.31344632e-06
      -2.93795324e-06 2.29963962e-06 9.56527128e-06 8.82651875e-06
      1.49147718e-05 -1.74003094e-06 -8.53958591e-06 -2.76386731e-06
      3.55885663e-06 -3.34721420e-07 1.33530584e-05 5.54395137e-06
      -6.50449238e-07 -5.39773464e-06 -2.53724716e-06 -2.53724716e-06 0.
      -1.26862358e-06 -6.59942202e-07 -6.32271303e-06 2.46446525e-05
      -6.37123605e-07 -3.52689290e-06 -2.18675927e-06 3.44286764e-06
      1.79316703e-05 -1.19381104e-06 1.84918906e-06 9.50844606e-06
      -3.85293515e-06 -7.13221334e-06 -6.57084092e-06 9.54194456e-06
      -2.03646255e-06 0. 0. 0. 0.</_></support_vectors>
  <uncompressed_sv_total>30</uncompressed_sv_total>
  <uncompressed_support_vectors>
    <_>
      3. 0. 0. 3. 0. 0. 0. 0. 0. 0. 0. 1. 1. 0. 1. 0. 0. 0. 0. 0. 0. 2.
      0. 0. 2. 0. 2. 0. 0. 2. 0. 0. 0. 2. 0. 0. 0. 0. 0. 0. 2. 2. 0. 4.
      0. 0. 0. 9. 87. 145. 197. 120. 0. 0. 1. 1. 0. 0. 0. 0. 0. 1. 0. 0.
      0. 29. 102. 178. 214. 217. 255. 158. 2. 0. 0. 0. 0. 0. 0. 0. 0. 2.
      0. 3. 0. 74. 255. 250. 118. 31. 163. 180. 6. 1. 1. 1. 0. 0. 0. 0.
      1. 0. 1. 0. 2. 12. 60. 30. 2. 2. 136. 204. 17. 0. 0. 0. 0. 0. 0.
      0. 0. 0. 3. 2. 0. 0. 0. 0. 0. 3. 136. 204. 15. 0. 0. 3. 0. 0. 0.
      0. 1. 2. 0. 0. 1. 1. 2. 0. 1. 0. 147. 155. 0. 0. 1. 0. 0. 0. 0. 0.
      0. 1. 1. 0. 3. 0. 0. 1. 0. 3. 146. 141. 0. 2. 0. 1. 0. 0. 0. 0. 2.
      0. 2. 0. 0. 4. 0. 1. 0. 0. 142. 130. 1. 0. 2. 0. 0. 1. 2. 4. 1. 0.
      1. 2. 0. 0. 0. 0. 3. 0. 172. 90. 0. 0. 0. 1. 1. 0. 0. 0. 1. 0. 0.
      1. 2. 0. 3. 1. 0. 5. 160. 86. 0. 3. 0. 0. 0. 1. 0. 5. 1. 1. 0. 0.
      0. 2. 0. 0. 0. 6. 184. 82. 1. 0. 13. 26. 19. 0. 0. 0. 0. 2. 0. 2.
      0. 0. 3. 0. 2. 0. 163. 172. 141. 98. 173. 216. 209. 118. 2. 0. 0.
      2. 0. 1. 15. 87. 100. 91. 153. 167. 235. 254. 223. 237. 227. 255.
      197. 204. 23. 1. 1. 0. 0. 0. 37. 244. 255. 255. 237. 205. 205.
      153. 40. 64. 70. 48. 5. 32. 1. 1. 0. 5. 0. 0. 5. 79. 110. 110. 59.
      16. 14. 0. 1. 0. 0. 2. 0. 0. 0. 0. 1. 0. 0. 2. 0. 4. 0. 0. 5. 0.
      3. 0. 0. 0. 0. 0. 0. 0. 0. 0. 0. 2. 4. 0. 1. 1. 0. 0. 0. 0. 0. 1.
      0. 0. 2. 0. 0. 0. 0. 0. 0. 1. 0. 0. 0. 0. 0. 1. 2. 4. 0. 3. 0. 1.
      0. 0. 0. 0. 0. 0.</_>
    <_>
      1. 0. 0. 0. 1. 1. 0. 0. 0. 2. 2. 0. 0. 3. 0. 2. 0. 0. 0. 0. 0. 0.
      0. 0. 0. 0. 0. 1. 3. 0. 0. 2. 1. 0. 2. 0. 0. 0. 0. 0. 0. 0. 0. 1.
      2. 1. 0. 1. 0. 1. 36. 183. 77. 3. 3. 0. 0. 0. 0. 0. 1. 0. 0. 0. 0.
      0. 0. 0. 0. 0. 68. 255. 212. 0. 1. 3. 0. 0. 0. 0. 0. 1. 1. 0. 0.
      0. 1. 2. 0. 0. 99. 255. 176. 1. 0. 0. 0. 0. 0. 0. 0. 0. 0. 0. 2.
      2. 0. 0. 3. 31. 199. 255. 99. 0. 0. 2. 0. 0. 0. 0. 2. 0. 0. 0. 0.
      0. 0. 1. 11. 172. 254. 254. 95. 0. 3. 0. 0. 0. 0. 0. 0. 0. 0. 1.
      0. 0. 15. 34. 169. 245. 209. 253. 100. 0. 0. 1. 0. 0. 0. 0. 0. 0.
      3. 0. 23. 142. 195. 246. 202. 78. 89. 253. 96. 3. 0. 0. 0. 0. 0.
      0. 3. 0. 0. 0. 11. 79. 113. 82. 20. 3. 91. 255. 108. 0. 4. 0. 0.
      0. 0. 0. 0. 0. 0. 0. 2. 0. 0. 1. 0. 0. 70. 254. 147. 6. 0. 1. 0.
      0. 0. 0. 0. 0. 2. 1. 0. 3. 5. 0. 0. 0. 52. 246. 102. 0. 0. 0. 0.
      0. 0. 0. 2. 1. 0. 0. 0. 1. 0. 3. 3. 0. 35. 230. 79. 1. 11. 8. 0.
      0. 0. 0. 0. 0. 3. 0. 0. 3. 32. 120. 142. 137. 129. 209. 168. 114.
      190. 83. 0. 0. 0. 0. 5. 0. 0. 0. 18. 138. 228. 253. 248. 237. 196.
      167. 174. 170. 167. 56. 0. 0. 0. 0. 0. 1. 0. 1. 71. 254. 235. 135.
      34. 6. 0. 3. 0. 1. 3. 0. 0. 0. 0. 0. 0. 1. 1. 0. 12. 82. 52. 0. 0.
      0. 0. 0. 0. 0. 0. 0. 0. 0. 0. 0. 3. 0. 0. 1. 0. 3. 0. 0. 0. 0. 0.
      0. 0. 0. 0. 0. 0. 0. 0. 0. 0. 1. 1. 0. 2. 0. 0. 2. 0. 0. 0. 0. 0.
      0. 0. 0. 0. 0. 0. 0. 0. 4. 0. 0. 1. 1. 0. 0. 0. 0. 0. 0. 0. 0. 0.
      0. 0. 0. 0. 0.</_>
    <_>
      0. 0. 0. 0. 0. 0. 0. 0. 0. 1. 2. 0. 1. 3. 0. 1. 0. 0. 0. 0. 0. 0.
      0. 0. 0. 0. 0. 0. 1. 1. 0. 1. 0. 0. 1. 1. 0. 0. 0. 0. 0. 0. 0. 0.
      0. 0. 0. 0. 0. 0. 0. 1. 1. 0. 4. 0. 0. 0. 0. 0. 0. 0. 0. 0. 0. 0.
      0. 0. 0. 3. 80. 44. 1. 0. 0. 1. 0. 0. 0. 0. 0. 0. 0. 0. 0. 0. 0.
      0. 0. 20. 235. 124. 0. 1. 0. 3. 0. 0. 0. 0. 0. 0. 0. 0. 0. 0. 0.
      0. 2. 41. 255. 121. 3. 0. 4. 0. 0. 0. 0. 0. 0. 0. 0. 0. 0. 0. 0.
      0. 0. 57. 252. 120. 0. 0. 0. 2. 0. 0. 0. 0. 0. 0. 0. 0. 0. 0. 0.
      0. 0. 157. 254. 105. 0. 2. 0. 0. 0. 0. 0. 0. 1. 0. 0. 1. 0. 0. 1.
      0. 81. 209. 226. 99. 1. 0. 0. 0. 0. 0. 0. 0. 0. 0. 0. 0. 1. 1. 0.
      90. 215. 89. 162. 130. 0. 4. 0. 3. 0. 0. 0. 0. 1. 0. 0. 0. 0. 4.
      0. 45. 26. 0. 202. 123. 0. 1. 2. 0. 0. 0. 0. 0. 0. 2. 0. 0. 1. 1.
      0. 0. 0. 6. 224. 122. 2. 2. 0. 4. 0. 0. 0. 0. 0. 0. 2. 0. 3. 0. 0.
      5. 0. 6. 228. 123. 1. 0. 0. 0. 0. 0. 0. 0. 1. 0. 1. 0. 0. 0. 1. 0.
      3. 6. 203. 123. 0. 2. 3. 1. 0. 0. 0. 0. 0. 4. 0. 0. 1. 0. 1. 2. 0.
      0. 152. 136. 2. 0. 0. 0. 0. 0. 0. 0. 0. 0. 1. 1. 0. 0. 0. 0. 1. 0.
      89. 232. 21. 0. 2. 0. 0. 0. 0. 0. 0. 0. 0. 0. 0. 0. 0. 0. 0. 0.
      54. 230. 55. 1. 1. 0. 0. 0. 0. 0. 0. 0. 0. 0. 0. 0. 0. 0. 1. 0. 4.
      151. 70. 2. 0. 0. 0. 0. 0. 0. 0. 0. 0. 0. 0. 0. 0. 0. 4. 0. 0. 2.
      0. 1. 2. 0. 0. 0. 0. 0. 0. 0. 0. 0. 0. 0. 0. 0. 0. 1. 0. 0. 0. 0.
      2. 0. 0. 0. 0. 0.</_>
    <_>
      0. 0. 3. 0. 0. 0. 2. 0. 1. 0. 0. 1. 0. 1. 0. 0. 0. 0. 2. 0. 0. 3.
      0. 0. 2. 0. 0. 1. 0. 2. 0. 1. 1. 3. 0. 1. 2. 0. 0. 0. 0. 0. 6. 0.
      0. 3. 0. 1. 1. 0. 0. 2. 0. 21. 11. 0. 1. 0. 1. 0. 1. 3. 0. 0. 0.
      3. 0. 0. 0. 0. 2. 10. 117. 235. 108. 0. 0. 0. 3. 0. 0. 0. 0. 1. 1.
      0. 1. 1. 0. 0. 84. 198. 254. 254. 124. 36. 5. 0. 0. 0. 2. 1. 0. 3.
      0. 0. 1. 0. 33. 155. 241. 196. 126. 251. 255. 198. 21. 3. 0. 1. 0.
      0. 0. 0. 0. 4. 5. 122. 227. 230. 108. 11. 138. 255. 209. 75. 19.
      3. 0. 2. 0. 2. 0. 1. 0. 44. 200. 248. 152. 47. 0. 1. 218. 245. 62.
      0. 1. 0. 0. 1. 0. 0. 1. 0. 50. 206. 216. 95. 0. 0. 1. 114. 252.
      147. 0. 0. 0. 0. 0. 0. 3. 0. 0. 17. 182. 169. 30. 1. 2. 0. 18.
      202. 235. 24. 2. 0. 0. 0. 0. 0. 0. 0. 2. 34. 83. 8. 0. 0. 0. 0.
      108. 255. 102. 0. 0. 1. 0. 0. 0. 0. 0. 1. 2. 0. 2. 1. 1. 0. 0. 2.
      207. 213. 14. 0. 3. 0. 0. 0. 0. 0. 0. 2. 0. 2. 0. 0. 1. 0. 0. 24.
      224. 152. 0. 0. 0. 3. 0. 0. 0. 0. 0. 1. 0. 0. 1. 1. 0. 0. 0. 109.
      255. 100. 0. 9. 0. 0. 0. 0. 0. 0. 1. 2. 0. 3. 2. 2. 0. 0. 1. 152.
      232. 92. 113. 104. 2. 0. 0. 0. 0. 0. 0. 0. 2. 0. 112. 199. 136.
      124. 132. 228. 255. 243. 184. 63. 0. 0. 0. 0. 0. 0. 0. 3. 0. 1.
      65. 181. 253. 255. 255. 208. 153. 89. 25. 0. 1. 0. 0. 0. 0. 0. 2.
      0. 1. 0. 0. 10. 30. 36. 34. 17. 5. 0. 0. 0. 2. 0. 0. 0. 0. 0. 0.
      0. 2. 3. 0. 0. 2. 0. 0. 0. 0. 0. 2. 1. 0. 2. 0. 0. 0. 0. 1. 0. 0.
      0. 0. 1. 0. 0. 0. 2. 0. 0. 1. 0. 0. 1. 0. 0. 0. 0.</_>
    <_>
      0. 0. 0. 0. 0. 0. 0. 0. 1. 0. 3. 0. 0. 2. 0. 1. 0. 0. 0. 0. 0. 0.
      0. 0. 0. 0. 0. 0. 0. 0. 0. 4. 0. 0. 0. 1. 0. 0. 0. 0. 0. 0. 0. 0.
      0. 0. 0. 0. 4. 0. 14. 37. 17. 0. 0. 0. 0. 0. 0. 0. 0. 0. 0. 0. 0.
      0. 0. 0. 0. 39. 192. 255. 126. 2. 0. 1. 0. 0. 0. 0. 0. 0. 0. 0. 0.
      0. 0. 0. 1. 95. 253. 255. 189. 0. 2. 0. 0. 0. 0. 0. 0. 0. 0. 0. 0.
      0. 0. 0. 1. 152. 253. 255. 223. 9. 0. 4. 0. 0. 0. 0. 0. 0. 0. 0.
      0. 0. 0. 0. 14. 196. 255. 255. 200. 4. 0. 0. 0. 0. 0. 0. 0. 0. 0.
      0. 0. 0. 0. 0. 82. 245. 255. 253. 166. 0. 1. 0. 0. 0. 0. 0. 1. 1.
      0. 0. 0. 3. 0. 0. 96. 250. 254. 253. 164. 1. 0. 0. 0. 0. 0. 0. 0.
      2. 1. 0. 5. 0. 0. 1. 136. 255. 254. 255. 119. 0. 0. 2. 0. 0. 0. 0.
      1. 0. 1. 0. 0. 3. 3. 29. 209. 255. 254. 238. 47. 0. 7. 0. 0. 0. 0.
      0. 0. 0. 0. 1. 0. 1. 0. 74. 255. 249. 255. 248. 116. 0. 0. 0. 0.
      0. 0. 0. 0. 0. 0. 1. 4. 0. 0. 69. 254. 252. 253. 255. 146. 2. 0.
      0. 0. 0. 0. 0. 1. 0. 0. 0. 0. 0. 2. 82. 255. 252. 255. 241. 52. 0.
      0. 3. 0. 0. 0. 0. 0. 3. 0. 0. 3. 0. 16. 177. 252. 255. 255. 151.
      2. 4. 0. 0. 0. 0. 0. 0. 0. 0. 1. 0. 0. 0. 76. 249. 255. 252. 207.
      22. 0. 2. 0. 1. 0. 0. 0. 0. 0. 0. 1. 0. 1. 0. 57. 193. 213. 225.
      102. 1. 0. 0. 1. 0. 0. 0. 0. 0. 1. 0. 1. 0. 0. 1. 2. 17. 19. 26.
      2. 0. 3. 0. 2. 0. 0. 0. 0. 0. 1. 1. 0. 1. 0. 0. 3. 1. 1. 1. 1. 2.
      0. 0. 2. 0. 0. 0. 0. 0. 0. 4. 0. 0. 3. 0. 0. 0. 0. 0. 0. 0. 2. 2.
      0. 1. 0. 0. 0. 0.</_>
    <_>
      0. 0. 0. 0. 0. 0. 0. 0. 0. 2. 0. 0. 2. 1. 0. 3. 0. 0. 0. 0. 0. 0.
      0. 0. 0. 0. 0. 0. 0. 0. 0. 1. 0. 0. 2. 0. 0. 0. 0. 0. 0. 0. 0. 0.
      0. 0. 0. 0. 3. 0. 12. 36. 8. 2. 1. 0. 0. 0. 0. 0. 0. 0. 0. 0. 0.
      0. 0. 0. 0. 0. 140. 253. 180. 85. 0. 2. 0. 0. 0. 0. 0. 0. 0. 0. 0.
      0. 0. 0. 2. 21. 230. 254. 255. 226. 41. 0. 0. 0. 0. 0. 0. 0. 0. 0.
      0. 0. 0. 0. 0. 94. 255. 250. 255. 191. 20. 0. 0. 0. 0. 0. 0. 0. 0.
      0. 0. 0. 0. 0. 3. 132. 254. 254. 251. 99. 5. 0. 0. 0. 0. 0. 0. 0.
      0. 0. 0. 0. 0. 0. 40. 205. 255. 254. 241. 85. 0. 1. 0. 0. 0. 0. 0.
      3. 0. 0. 1. 0. 1. 9. 176. 255. 252. 250. 255. 131. 1. 0. 2. 0. 1.
      0. 0. 0. 2. 0. 2. 0. 0. 13. 179. 255. 254. 255. 250. 118. 4. 3. 0.
      0. 7. 0. 0. 2. 0. 0. 1. 0. 6. 6. 179. 255. 248. 254. 247. 180.
      104. 66. 0. 5. 24. 7. 0. 2. 0. 0. 1. 1. 0. 38. 234. 254. 252. 249.
      114. 6. 19. 9. 0. 0. 8. 0. 0. 0. 3. 0. 0. 3. 0. 148. 255. 249.
      251. 232. 24. 0. 1. 0. 1. 1. 0. 0. 2. 0. 0. 0. 0. 1. 28. 228. 255.
      254. 255. 231. 21. 1. 0. 1. 0. 2. 0. 4. 0. 0. 0. 4. 1. 0. 68. 236.
      252. 251. 251. 164. 9. 1. 0. 1. 0. 0. 0. 0. 1. 1. 0. 0. 0. 1. 102.
      255. 254. 254. 218. 28. 0. 1. 0. 0. 1. 0. 2. 0. 0. 1. 0. 0. 0. 0.
      25. 170. 255. 214. 89. 0. 0. 2. 0. 0. 0. 0. 0. 0. 1. 1. 0. 1. 0.
      4. 0. 10. 35. 20. 0. 0. 3. 0. 2. 0. 0. 0. 0. 0. 1. 0. 0. 3. 0. 0.
      5. 1. 2. 0. 0. 3. 0. 0. 2. 0. 0. 0. 0. 0. 0. 0. 2. 1. 3. 0. 0. 0.
      0. 0. 0. 0. 2. 1. 0. 1. 0. 0. 0. 0.</_>
    <_>
      0. 0. 0. 0. 0. 0. 0. 0. 1. 0. 0. 3. 0. 2. 0. 1. 0. 0. 0. 0. 0. 0.
      0. 0. 0. 0. 0. 0. 3. 0. 2. 0. 0. 0. 0. 1. 0. 0. 0. 0. 0. 0. 0. 0.
      0. 0. 0. 0. 0. 3. 1. 0. 0. 0. 4. 0. 0. 0. 0. 0. 0. 0. 0. 0. 0. 0.
      0. 0. 0. 0. 0. 4. 0. 85. 54. 0. 0. 0. 0. 0. 0. 0. 0. 0. 0. 0. 0.
      0. 0. 3. 0. 0. 122. 205. 52. 4. 0. 0. 0. 0. 0. 0. 0. 0. 0. 0. 0.
      0. 0. 1. 3. 95. 231. 77. 0. 0. 0. 0. 0. 0. 0. 0. 0. 0. 0. 0. 0. 0.
      1. 0. 51. 229. 99. 0. 0. 0. 0. 0. 0. 0. 0. 0. 0. 0. 0. 0. 0. 0. 0.
      8. 183. 180. 5. 0. 1. 0. 0. 0. 0. 0. 0. 0. 0. 0. 0. 0. 0. 1. 2.
      75. 245. 68. 0. 3. 0. 0. 0. 0. 0. 0. 0. 1. 0. 0. 1. 1. 0. 0. 0.
      160. 168. 7. 0. 0. 0. 3. 0. 0. 0. 0. 0. 1. 0. 0. 0. 1. 0. 0. 49.
      228. 100. 0. 0. 4. 0. 0. 0. 0. 0. 0. 0. 0. 0. 0. 0. 0. 0. 5. 141.
      197. 14. 1. 2. 0. 1. 1. 0. 0. 0. 0. 0. 0. 1. 0. 0. 0. 2. 17. 225.
      132. 0. 0. 0. 0. 0. 0. 0. 0. 0. 0. 1. 0. 1. 0. 1. 0. 3. 24. 227.
      104. 2. 0. 3. 1. 0. 0. 0. 0. 0. 0. 0. 0. 1. 0. 1. 0. 1. 21. 218.
      82. 0. 3. 0. 3. 0. 0. 0. 0. 0. 0. 1. 0. 1. 0. 1. 0. 0. 15. 185.
      83. 2. 1. 0. 0. 3. 0. 0. 0. 0. 0. 0. 0. 0. 0. 0. 0. 1. 2. 174.
      114. 0. 0. 1. 0. 1. 0. 0. 0. 0. 0. 0. 0. 0. 0. 0. 0. 1. 1. 141.
      92. 5. 0. 0. 2. 1. 0. 0. 0. 0. 0. 0. 0. 0. 0. 0. 0. 0. 1. 3. 2. 0.
      1. 0. 0. 0. 4. 0. 0. 0. 0. 0. 0. 0. 0. 0. 0. 0. 0. 1. 0. 1. 0. 0.
      3. 0. 0. 0. 0. 0. 0.</_>
    <_>
      0. 0. 0. 0. 0. 0. 0. 0. 0. 2. 2. 0. 0. 1. 0. 1. 1. 0. 3. 0. 0. 0.
      0. 0. 0. 0. 0. 0. 3. 0. 0. 1. 0. 0. 0. 0. 0. 1. 0. 3. 0. 0. 0. 0.
      0. 0. 0. 0. 0. 5. 0. 0. 1. 1. 0. 0. 0. 0. 2. 0. 0. 0. 0. 0. 0. 0.
      0. 0. 0. 0. 2. 4. 2. 0. 1. 0. 2. 0. 0. 3. 0. 0. 0. 0. 0. 0. 0. 0.
      1. 0. 0. 0. 0. 84. 166. 148. 37. 0. 2. 0. 0. 0. 0. 0. 0. 0. 0. 0.
      0. 2. 0. 1. 32. 195. 255. 169. 49. 0. 0. 0. 0. 0. 0. 0. 0. 0. 0.
      0. 3. 0. 0. 32. 188. 255. 227. 16. 0. 2. 0. 2. 0. 0. 0. 0. 0. 0.
      0. 0. 0. 1. 87. 199. 255. 185. 59. 0. 0. 19. 64. 0. 0. 2. 0. 3. 0.
      0. 4. 0. 0. 107. 247. 253. 227. 60. 0. 1. 0. 17. 53. 4. 0. 0. 1.
      2. 0. 4. 0. 0. 99. 242. 255. 234. 74. 0. 3. 0. 0. 0. 1. 0. 3. 0.
      0. 0. 1. 0. 1. 96. 255. 255. 226. 60. 4. 1. 0. 4. 1. 2. 0. 2. 0.
      4. 0. 0. 0. 1. 30. 204. 251. 240. 73. 1. 0. 0. 0. 0. 1. 0. 4. 0.
      1. 0. 3. 3. 0. 42. 188. 255. 237. 127. 0. 3. 0. 3. 1. 0. 0. 0. 0.
      0. 0. 1. 0. 0. 102. 226. 255. 254. 143. 5. 2. 0. 0. 0. 2. 0. 1. 2.
      0. 2. 0. 0. 4. 0. 195. 255. 255. 164. 11. 0. 0. 1. 1. 0. 0. 0. 1.
      1. 0. 0. 0. 1. 0. 1. 114. 166. 126. 17. 0. 0. 2. 0. 1. 0. 0. 0. 0.
      0. 2. 1. 0. 0. 0. 0. 0. 0. 0. 0. 0. 0. 0. 0. 0. 0. 0. 0. 0. 0. 0.
      0. 0. 0. 0. 0. 0. 0. 0. 0. 0. 0. 0. 0. 0. 0. 0. 0. 0. 0. 0. 0. 0.
      0. 0. 0. 0. 0. 0. 0. 0. 0. 0. 0. 0. 0. 0. 0. 0. 0. 0. 0. 0. 0. 0.
      0. 0. 0. 0. 0. 0. 0. 0. 0. 0. 0. 0. 0. 0. 0. 0. 0.</_>
    <_>
      0. 0. 0. 0. 0. 0. 0. 0. 3. 0. 0. 0. 2. 0. 1. 0. 0. 0. 0. 0. 0. 0.
      0. 0. 0. 0. 0. 0. 0. 3. 0. 0. 0. 1. 1. 0. 0. 0. 0. 0. 0. 0. 0. 0.
      0. 0. 0. 0. 6. 0. 1. 31. 36. 6. 2. 0. 0. 0. 0. 0. 0. 0. 0. 0. 0.
      0. 0. 0. 0. 0. 102. 247. 255. 109. 1. 0. 0. 0. 0. 0. 0. 0. 0. 0.
      0. 0. 0. 0. 2. 26. 233. 255. 255. 200. 48. 0. 0. 0. 0. 0. 0. 0. 0.
      0. 0. 0. 0. 0. 0. 43. 250. 253. 252. 249. 124. 0. 0. 0. 0. 0. 0.
      0. 0. 0. 0. 0. 0. 0. 1. 127. 253. 252. 255. 212. 29. 0. 0. 0. 0.
      0. 0. 0. 0. 0. 0. 0. 0. 0. 40. 215. 255. 252. 252. 141. 0. 0. 0.
      0. 0. 0. 0. 0. 2. 1. 0. 2. 0. 0. 83. 248. 255. 251. 255. 124. 0.
      1. 0. 0. 0. 0. 3. 0. 0. 1. 0. 0. 1. 0. 137. 255. 249. 255. 240.
      66. 4. 0. 0. 0. 0. 0. 0. 0. 0. 0. 5. 1. 3. 70. 190. 249. 254. 255.
      240. 63. 0. 1. 0. 0. 0. 0. 1. 2. 0. 2. 0. 0. 0. 182. 252. 255.
      251. 252. 251. 86. 0. 2. 0. 0. 0. 0. 0. 2. 0. 0. 1. 1. 3. 53. 159.
      249. 252. 233. 200. 65. 0. 0. 0. 0. 0. 0. 2. 0. 2. 0. 1. 2. 1.
      130. 210. 250. 235. 74. 2. 0. 1. 0. 0. 0. 0. 0. 0. 0. 0. 5. 0. 0.
      120. 253. 255. 252. 250. 130. 0. 0. 0. 0. 0. 0. 0. 0. 0. 0. 2. 0.
      0. 0. 149. 255. 249. 255. 229. 62. 0. 0. 0. 0. 0. 0. 0. 0. 1. 0.
      0. 1. 0. 0. 34. 172. 255. 249. 102. 1. 0. 0. 1. 0. 0. 0. 0. 0. 0.
      0. 0. 0. 0. 3. 0. 8. 34. 33. 0. 0. 3. 0. 1. 1. 0. 0. 0. 0. 0. 2.
      0. 0. 1. 0. 4. 1. 2. 0. 0. 2. 0. 0. 0. 0. 0. 0. 0. 0. 0. 0. 1. 0.
      5. 0. 0. 1. 0. 0. 1. 0. 1. 4. 0. 1. 0. 0. 0. 0.</_>
    <_>
      0. 0. 0. 0. 0. 0. 0. 0. 1. 0. 2. 0. 1. 1. 0. 0. 0. 0. 0. 0. 0. 0.
      0. 0. 0. 0. 0. 0. 0. 0. 1. 0. 0. 0. 3. 0. 0. 0. 0. 0. 0. 0. 0. 0.
      0. 0. 0. 0. 1. 1. 22. 11. 7. 0. 0. 1. 0. 0. 0. 0. 0. 0. 0. 0. 0.
      0. 0. 0. 0. 10. 199. 71. 0. 1. 3. 0. 0. 0. 0. 0. 0. 0. 0. 0. 0. 0.
      0. 0. 1. 14. 223. 60. 4. 0. 3. 0. 0. 0. 0. 0. 0. 0. 0. 0. 0. 0. 0.
      0. 0. 14. 216. 61. 0. 0. 0. 0. 0. 0. 0. 0. 0. 0. 0. 0. 0. 0. 0. 0.
      2. 9. 221. 61. 0. 2. 1. 1. 0. 0. 0. 0. 0. 0. 0. 0. 0. 0. 0. 0. 0.
      25. 216. 53. 0. 1. 0. 0. 0. 0. 0. 0. 0. 0. 0. 0. 0. 0. 0. 0. 0.
      83. 203. 16. 1. 1. 0. 2. 0. 0. 0. 0. 0. 0. 0. 0. 0. 0. 0. 0. 2.
      70. 221. 54. 1. 2. 0. 0. 0. 0. 0. 0. 0. 0. 0. 0. 0. 0. 0. 0. 0.
      14. 221. 62. 0. 0. 0. 3. 0. 0. 0. 0. 0. 0. 0. 0. 0. 0. 0. 0. 0.
      16. 219. 60. 0. 1. 0. 0. 0. 0. 0. 0. 0. 0. 0. 0. 0. 0. 0. 0. 4. 1.
      205. 105. 1. 0. 3. 3. 0. 0. 0. 0. 0. 0. 0. 0. 0. 0. 0. 0. 0. 2.
      183. 154. 3. 0. 0. 0. 0. 0. 0. 0. 0. 0. 0. 0. 0. 0. 0. 0. 0. 6.
      179. 168. 3. 0. 5. 1. 0. 0. 0. 0. 0. 0. 0. 0. 0. 0. 0. 0. 2. 5.
      234. 103. 0. 0. 0. 0. 0. 0. 0. 0. 0. 0. 0. 0. 0. 0. 0. 0. 0. 14.
      232. 69. 0. 2. 0. 0. 0. 0. 0. 0. 0. 0. 0. 0. 0. 0. 0. 0. 0. 2. 26.
      8. 4. 0. 2. 0. 0. 0. 0. 0. 0. 0. 0. 0. 0. 0. 0. 0. 4. 0. 1. 0. 0.
      0. 0. 2. 0. 0. 0. 0. 0. 0. 0. 0. 0. 0. 0. 0. 0. 0. 1. 0. 1. 3. 0.
      0. 0. 0. 0. 0.</_>
    <_>
      0. 0. 4. 0. 1. 0. 1. 0. 0. 0. 0. 1. 3. 0. 2. 0. 0. 0. 0. 0. 4. 0.
      0. 0. 0. 0. 1. 2. 0. 5. 2. 0. 3. 0. 0. 1. 0. 0. 0. 0. 1. 0. 3. 0.
      3. 2. 0. 0. 1. 62. 195. 73. 1. 2. 2. 0. 0. 0. 0. 0. 0. 1. 0. 1. 0.
      0. 1. 2. 5. 185. 255. 253. 60. 0. 2. 0. 0. 0. 0. 0. 0. 2. 2. 0. 0.
      1. 0. 0. 4. 149. 253. 255. 104. 2. 0. 0. 0. 0. 0. 0. 0. 1. 1. 0.
      44. 141. 29. 70. 198. 253. 255. 252. 76. 2. 0. 4. 0. 0. 0. 0. 1.
      0. 0. 2. 104. 252. 211. 240. 255. 252. 250. 255. 76. 0. 2. 0. 0.
      0. 0. 0. 0. 0. 0. 0. 152. 255. 255. 254. 254. 255. 253. 255. 128.
      2. 0. 0. 0. 0. 0. 0. 2. 0. 1. 0. 140. 255. 250. 238. 187. 214.
      255. 255. 119. 0. 0. 1. 0. 0. 0. 0. 0. 2. 0. 0. 42. 203. 160. 71.
      10. 80. 238. 253. 181. 26. 1. 0. 0. 0. 0. 2. 1. 1. 0. 0. 4. 47.
      201. 24. 0. 0. 195. 254. 255. 98. 0. 0. 0. 1. 0. 0. 0. 0. 0. 0. 0.
      29. 118. 21. 0. 1. 95. 234. 255. 173. 15. 1. 0. 0. 3. 0. 3. 0. 0.
      5. 0. 2. 0. 1. 0. 0. 2. 173. 254. 220. 45. 0. 0. 4. 0. 0. 0. 3. 2.
      0. 0. 1. 1. 19. 0. 28. 78. 187. 254. 234. 166. 85. 82. 32. 3. 1.
      2. 1. 0. 0. 0. 0. 35. 195. 180. 213. 255. 252. 255. 254. 253. 254.
      255. 203. 26. 0. 2. 0. 2. 1. 0. 1. 61. 218. 236. 229. 228. 227.
      223. 226. 226. 226. 226. 241. 123. 0. 2. 0. 1. 0. 2. 0. 2. 41. 49.
      49. 49. 49. 49. 49. 49. 49. 50. 52. 30. 3. 0. 0. 2. 0. 0. 2. 0. 3.
      0. 0. 0. 0. 0. 0. 0. 0. 0. 2. 0. 0. 0. 0. 2. 1. 0. 3. 1. 0. 0. 0.
      0. 0. 0. 0. 0. 0. 2. 2. 0. 1. 2. 0. 0. 3. 0. 0. 1. 2. 0. 0. 0. 0.
      0. 0. 0. 0. 0. 0. 0. 0.</_>
    <_>
      1. 0. 0. 0. 0. 0. 0. 1. 0. 0. 3. 0. 0. 1. 1. 0. 0. 0. 0. 0. 0. 0.
      1. 1. 1. 0. 0. 0. 0. 0. 0. 0. 4. 0. 0. 1. 0. 0. 0. 0. 0. 0. 1. 0.
      0. 0. 0. 0. 0. 2. 2. 0. 0. 3. 0. 0. 0. 0. 0. 0. 0. 1. 0. 0. 0. 0.
      1. 1. 1. 15. 83. 33. 0. 0. 0. 1. 0. 0. 0. 0. 1. 1. 0. 0. 0. 1. 1.
      0. 19. 167. 254. 192. 25. 0. 3. 0. 0. 0. 0. 0. 0. 0. 0. 1. 1. 0.
      0. 0. 80. 246. 222. 203. 43. 0. 1. 1. 0. 0. 0. 0. 0. 0. 0. 1. 0.
      0. 0. 3. 130. 253. 96. 1. 2. 1. 0. 0. 0. 0. 0. 0. 1. 0. 0. 1. 0.
      0. 3. 10. 187. 248. 35. 0. 0. 0. 1. 1. 0. 0. 0. 0. 0. 0. 2. 0. 0.
      0. 1. 21. 215. 237. 7. 1. 0. 2. 0. 0. 0. 0. 0. 0. 1. 0. 1. 0. 0.
      0. 0. 21. 211. 238. 9. 0. 0. 0. 2. 1. 0. 0. 0. 0. 1. 0. 0. 0. 1.
      0. 2. 22. 212. 241. 4. 4. 3. 0. 1. 0. 0. 0. 0. 0. 0. 0. 0. 0. 1.
      0. 2. 16. 214. 240. 8. 0. 0. 2. 0. 2. 0. 0. 0. 0. 0. 1. 0. 0. 0.
      0. 0. 4. 146. 244. 50. 1. 1. 0. 0. 0. 0. 0. 0. 0. 0. 1. 0. 0. 0.
      1. 0. 0. 61. 245. 194. 7. 0. 1. 1. 1. 0. 0. 0. 0. 0. 0. 0. 0. 1.
      1. 1. 0. 10. 185. 255. 98. 1. 1. 0. 0. 0. 0. 0. 0. 1. 0. 0. 0. 0.
      0. 0. 0. 0. 41. 239. 247. 92. 1. 0. 1. 0. 0. 0. 0. 0. 0. 0. 0. 0.
      0. 0. 0. 1. 0. 75. 212. 225. 15. 2. 0. 0. 0. 0. 0. 0. 0. 0. 0. 0.
      0. 0. 0. 0. 1. 0. 40. 173. 18. 0. 1. 0. 0. 0. 0. 0. 0. 0. 0. 0. 0.
      0. 0. 1. 2. 1. 0. 0. 0. 1. 0. 0. 0. 0. 0. 0. 0. 0. 0. 0. 0. 0. 0.
      0. 0. 2. 3. 3. 0. 0. 3. 0. 0. 0. 0.</_>
    <_>
      0. 0. 0. 0. 0. 0. 0. 0. 1. 0. 3. 0. 2. 0. 0. 1. 0. 0. 0. 0. 0. 0.
      0. 0. 0. 0. 0. 0. 0. 0. 0. 1. 2. 0. 0. 0. 0. 0. 0. 0. 0. 0. 0. 0.
      0. 0. 0. 0. 4. 0. 0. 0. 0. 0. 0. 2. 0. 0. 0. 0. 0. 0. 0. 0. 0. 0.
      0. 0. 0. 3. 0. 0. 0. 64. 32. 0. 0. 0. 0. 0. 0. 0. 0. 0. 0. 0. 0.
      0. 3. 1. 2. 3. 92. 240. 101. 2. 0. 0. 0. 0. 0. 0. 0. 0. 0. 0. 0.
      0. 0. 0. 0. 47. 227. 241. 50. 0. 0. 0. 0. 0. 0. 0. 0. 0. 0. 0. 0.
      0. 1. 0. 31. 189. 254. 115. 0. 3. 0. 0. 0. 0. 0. 0. 0. 0. 0. 0. 0.
      0. 0. 19. 176. 255. 217. 16. 2. 0. 0. 0. 0. 0. 1. 0. 0. 0. 1. 1.
      0. 2. 0. 155. 255. 255. 153. 0. 0. 0. 0. 0. 0. 0. 0. 0. 3. 0. 1.
      0. 0. 14. 156. 241. 224. 255. 123. 0. 4. 0. 0. 0. 0. 0. 0. 3. 0.
      0. 1. 0. 47. 180. 227. 88. 173. 225. 25. 3. 0. 0. 0. 0. 0. 0. 0.
      1. 0. 0. 63. 171. 234. 206. 57. 16. 225. 158. 4. 3. 0. 5. 0. 0. 0.
      0. 0. 0. 3. 29. 192. 220. 111. 20. 0. 111. 255. 91. 1. 0. 0. 0. 0.
      0. 0. 0. 3. 0. 0. 0. 38. 16. 0. 0. 6. 203. 206. 24. 0. 0. 1. 0. 0.
      0. 0. 0. 0. 5. 0. 0. 0. 0. 0. 1. 37. 228. 193. 0. 1. 0. 2. 0. 0.
      0. 0. 0. 1. 0. 0. 0. 1. 0. 1. 0. 63. 245. 191. 0. 0. 0. 0. 1. 0.
      0. 0. 0. 0. 0. 0. 0. 0. 0. 0. 0. 84. 255. 161. 2. 0. 2. 0. 0. 0.
      0. 0. 0. 0. 0. 0. 0. 0. 0. 0. 0. 24. 180. 117. 2. 1. 0. 0. 0. 0.
      0. 0. 0. 0. 0. 0. 0. 0. 0. 0. 0. 0. 4. 0. 0. 1. 1. 0. 1. 0. 0. 0.
      0. 0. 0. 0. 0. 0. 0. 0. 0. 2. 0. 0. 2. 0. 0. 1. 0. 0. 0. 0. 0.</_>
    <_>
      0. 0. 0. 0. 0. 0. 0. 0. 3. 0. 0. 3. 1. 0. 1. 0. 0. 0. 0. 0. 0. 0.
      0. 0. 0. 0. 0. 0. 0. 0. 2. 0. 0. 3. 1. 0. 0. 0. 0. 0. 0. 0. 0. 0.
      0. 0. 0. 0. 0. 3. 0. 1. 36. 16. 0. 0. 0. 0. 0. 0. 0. 0. 0. 0. 0.
      0. 0. 0. 0. 0. 1. 107. 219. 48. 3. 0. 0. 0. 0. 0. 0. 0. 0. 0. 0.
      0. 0. 0. 0. 2. 14. 202. 110. 0. 1. 1. 0. 0. 0. 0. 0. 0. 0. 0. 0.
      0. 0. 0. 0. 0. 45. 234. 49. 0. 0. 0. 0. 0. 0. 0. 0. 0. 0. 0. 0. 0.
      0. 0. 1. 0. 106. 217. 18. 0. 1. 0. 0. 0. 0. 0. 0. 0. 0. 0. 0. 0.
      0. 0. 0. 14. 221. 141. 0. 0. 0. 1. 0. 0. 0. 0. 0. 0. 0. 2. 0. 0.
      1. 0. 0. 74. 236. 67. 0. 3. 0. 2. 0. 0. 0. 0. 0. 0. 0. 0. 0. 0. 2.
      0. 4. 176. 188. 2. 0. 0. 2. 0. 0. 0. 0. 0. 0. 0. 0. 0. 0. 1. 1. 0.
      40. 221. 109. 2. 0. 1. 0. 1. 0. 0. 0. 0. 0. 0. 1. 0. 1. 0. 0. 0.
      92. 222. 26. 0. 2. 0. 2. 0. 0. 0. 0. 0. 0. 0. 1. 1. 1. 0. 0. 7.
      167. 187. 0. 0. 1. 0. 0. 3. 0. 0. 0. 0. 1. 0. 0. 0. 0. 0. 1. 16.
      205. 137. 0. 1. 0. 2. 1. 0. 0. 0. 0. 0. 0. 0. 1. 0. 0. 0. 1. 17.
      212. 96. 0. 0. 0. 0. 4. 0. 0. 0. 0. 0. 0. 0. 3. 0. 0. 0. 0. 11.
      182. 167. 11. 1. 1. 1. 0. 0. 0. 0. 0. 0. 0. 0. 0. 0. 0. 0. 0. 0.
      59. 215. 153. 13. 3. 0. 0. 1. 0. 0. 0. 0. 0. 0. 0. 0. 0. 0. 0. 0.
      0. 23. 37. 1. 0. 5. 0. 0. 0. 0. 0. 0. 0. 0. 0. 0. 0. 0. 0. 0. 0.
      0. 1. 0. 2. 0. 0. 0. 0. 0. 0. 0. 0. 0. 0. 0. 0. 0. 0. 0. 0. 3. 0.
      0. 2. 0. 1. 1. 0. 0. 0. 0.</_>
    <_>
      0. 0. 0. 0. 0. 0. 0. 0. 0. 0. 0. 2. 0. 0. 1. 0. 0. 0. 0. 0. 0. 0.
      0. 0. 0. 0. 0. 0. 1. 0. 3. 0. 0. 4. 0. 0. 0. 0. 0. 0. 0. 0. 0. 0.
      0. 0. 0. 0. 0. 1. 0. 0. 0. 0. 0. 1. 0. 0. 0. 0. 0. 0. 0. 0. 0. 0.
      0. 0. 1. 0. 0. 68. 108. 14. 0. 1. 0. 0. 0. 0. 0. 0. 0. 0. 0. 0. 0.
      0. 1. 0. 1. 163. 251. 142. 3. 1. 0. 0. 0. 0. 0. 0. 0. 0. 0. 0. 0.
      0. 0. 1. 12. 188. 255. 144. 1. 0. 0. 0. 0. 0. 0. 0. 0. 0. 0. 0. 0.
      0. 0. 2. 62. 242. 245. 73. 2. 0. 0. 0. 0. 0. 0. 0. 0. 0. 0. 0. 0.
      0. 0. 2. 166. 255. 233. 33. 0. 0. 0. 0. 0. 0. 0. 0. 3. 1. 0. 2. 0.
      0. 1. 84. 246. 253. 156. 1. 0. 4. 0. 0. 0. 0. 0. 2. 0. 0. 0. 0. 2.
      1. 67. 226. 255. 255. 67. 1. 0. 0. 0. 0. 0. 0. 1. 1. 0. 3. 5. 0.
      0. 71. 231. 255. 252. 254. 67. 0. 5. 0. 0. 0. 0. 0. 0. 0. 0. 2. 0.
      5. 55. 216. 255. 191. 229. 255. 72. 2. 0. 0. 0. 0. 0. 0. 1. 1. 3.
      0. 1. 8. 175. 255. 207. 35. 151. 255. 66. 1. 1. 0. 0. 0. 0. 0. 1.
      0. 0. 3. 0. 2. 115. 184. 58. 0. 149. 255. 73. 1. 0. 2. 0. 0. 0. 0.
      0. 1. 1. 2. 0. 0. 4. 14. 0. 0. 169. 252. 68. 0. 0. 0. 0. 0. 0. 0.
      0. 0. 0. 0. 0. 1. 0. 0. 1. 0. 133. 255. 72. 1. 0. 0. 0. 0. 0. 0.
      0. 0. 0. 0. 0. 0. 0. 0. 1. 1. 136. 254. 55. 0. 4. 0. 0. 0. 0. 0.
      0. 0. 0. 0. 0. 0. 0. 0. 0. 0. 46. 130. 18. 6. 0. 3. 0. 0. 0. 0. 0.
      0. 0. 0. 0. 0. 0. 0. 0. 0. 0. 1. 0. 0. 0. 0. 0. 0. 0. 0. 0. 0. 0.
      0. 0. 0. 0. 0. 0. 2. 0. 0. 1. 4. 0. 0. 0. 0. 0. 0.</_>
    <_>
      1. 0. 0. 2. 0. 1. 0. 0. 1. 0. 0. 0. 0. 1. 0. 0. 0. 0. 0. 0. 0. 4.
      0. 0. 0. 0. 3. 1. 0. 1. 2. 0. 0. 3. 0. 2. 0. 0. 0. 0. 0. 1. 1. 1.
      0. 1. 0. 0. 0. 0. 8. 29. 3. 1. 0. 0. 0. 0. 0. 0. 1. 2. 0. 1. 2. 0.
      0. 2. 0. 14. 154. 218. 26. 0. 3. 0. 0. 0. 0. 0. 0. 0. 0. 0. 1. 1.
      4. 0. 63. 183. 215. 193. 13. 0. 0. 2. 0. 0. 0. 0. 2. 2. 3. 2. 0.
      0. 0. 69. 237. 110. 116. 164. 0. 0. 3. 0. 0. 0. 0. 0. 0. 2. 0. 0.
      4. 0. 1. 141. 150. 0. 114. 184. 8. 0. 0. 4. 0. 0. 0. 0. 1. 0. 5.
      0. 0. 0. 1. 20. 15. 0. 125. 148. 0. 1. 2. 0. 0. 0. 0. 0. 3. 0. 0.
      0. 0. 0. 0. 0. 0. 0. 159. 122. 0. 0. 0. 0. 0. 0. 0. 0. 0. 0. 0. 0.
      1. 1. 1. 1. 1. 6. 191. 87. 0. 2. 1. 0. 0. 0. 0. 0. 0. 0. 1. 0. 0.
      0. 0. 0. 0. 15. 203. 66. 1. 1. 0. 2. 0. 0. 0. 0. 0. 1. 0. 0. 0. 0.
      0. 0. 0. 35. 217. 50. 1. 0. 1. 0. 0. 0. 0. 0. 0. 0. 0. 0. 0. 1. 1.
      0. 0. 71. 197. 21. 0. 0. 1. 0. 0. 0. 0. 0. 0. 0. 0. 1. 1. 0. 0. 0.
      1. 135. 158. 0. 4. 2. 0. 2. 0. 0. 0. 0. 1. 0. 0. 1. 0. 0. 0. 3. 0.
      163. 149. 1. 0. 0. 4. 0. 0. 0. 0. 0. 1. 0. 0. 1. 0. 0. 5. 12. 71.
      205. 211. 89. 0. 0. 0. 0. 0. 0. 0. 0. 0. 0. 0. 3. 0. 1. 80. 192.
      232. 253. 164. 62. 0. 0. 0. 1. 0. 0. 0. 0. 1. 1. 0. 0. 1. 2. 20.
      48. 31. 34. 5. 0. 0. 1. 0. 1. 0. 0. 0. 0. 0. 0. 1. 0. 0. 0. 1. 0.
      0. 0. 0. 2. 3. 0. 1. 0. 0. 0. 0. 0. 3. 0. 0. 2. 0. 0. 2. 2. 2. 0.
      2. 0. 0. 0. 2. 1. 0. 0. 0. 0.</_>
    <_>
      0. 1. 1. 0. 1. 0. 1. 0. 0. 0. 0. 1. 1. 0. 0. 1. 0. 2. 0. 3. 0. 0.
      1. 0. 1. 0. 4. 0. 0. 1. 1. 1. 0. 3. 0. 0. 0. 0. 0. 1. 4. 1. 0. 0.
      2. 0. 0. 0. 0. 0. 0. 0. 0. 0. 1. 0. 1. 0. 0. 0. 0. 3. 0. 0. 1. 0.
      0. 3. 1. 0. 61. 113. 115. 106. 46. 0. 0. 2. 0. 0. 1. 1. 0. 0. 1.
      68. 171. 106. 51. 167. 208. 150. 140. 216. 221. 43. 0. 1. 0. 1. 0.
      0. 0. 2. 46. 238. 221. 242. 247. 168. 35. 0. 0. 17. 151. 184. 21.
      0. 0. 1. 2. 0. 2. 0. 124. 215. 29. 108. 222. 67. 0. 2. 2. 1. 7.
      191. 86. 0. 0. 0. 0. 3. 0. 12. 203. 130. 2. 0. 41. 20. 0. 0. 0. 0.
      1. 105. 152. 6. 0. 0. 0. 1. 1. 18. 195. 57. 2. 0. 0. 1. 1. 0. 0.
      1. 0. 22. 175. 33. 2. 0. 1. 0. 0. 17. 179. 16. 0. 1. 0. 6. 0. 3.
      0. 1. 0. 9. 170. 67. 0. 0. 0. 1. 2. 23. 174. 14. 4. 0. 0. 0. 0. 0.
      0. 0. 0. 1. 156. 90. 0. 0. 4. 0. 0. 21. 187. 42. 0. 1. 0. 3. 3. 2.
      0. 1. 0. 12. 187. 86. 0. 0. 0. 0. 2. 11. 202. 92. 0. 0. 1. 0. 0.
      0. 0. 2. 0. 33. 197. 41. 1. 3. 0. 0. 0. 3. 128. 170. 1. 0. 0. 4.
      0. 3. 0. 0. 2. 90. 204. 19. 0. 0. 2. 1. 0. 0. 37. 229. 85. 2. 0.
      1. 0. 0. 6. 0. 9. 191. 117. 1. 2. 0. 0. 0. 1. 0. 0. 110. 223. 88.
      6. 0. 4. 0. 0. 20. 180. 203. 32. 0. 1. 0. 1. 1. 0. 1. 0. 5. 97.
      227. 178. 142. 105. 80. 85. 188. 216. 62. 0. 0. 0. 0. 0. 1. 0. 2.
      4. 0. 2. 29. 112. 207. 219. 207. 201. 114. 23. 0. 0. 0. 0. 0. 0.
      0. 0. 0. 0. 1. 0. 0. 3. 0. 0. 3. 0. 0. 2. 0. 0. 0. 0. 0. 1. 0. 1.
      3. 0. 0. 0. 3. 0. 1. 1. 0. 0. 2. 0. 0. 0. 0. 0. 0.</_>
    <_>
      0. 0. 1. 1. 0. 1. 0. 0. 0. 0. 2. 0. 2. 0. 0. 0. 0. 0. 0. 0. 0. 2.
      0. 0. 0. 1. 0. 0. 0. 3. 0. 0. 4. 0. 2. 0. 0. 0. 0. 0. 3. 0. 0. 2.
      0. 0. 6. 0. 3. 0. 0. 29. 22. 0. 0. 0. 0. 0. 0. 0. 1. 0. 4. 0. 0.
      2. 0. 0. 0. 32. 120. 173. 192. 106. 1. 0. 0. 0. 0. 0. 0. 1. 0. 4.
      0. 0. 0. 3. 114. 141. 65. 25. 87. 204. 39. 0. 0. 0. 0. 0. 0. 1. 1.
      0. 3. 1. 1. 100. 215. 188. 0. 3. 0. 170. 103. 0. 0. 0. 0. 0. 1. 0.
      5. 0. 0. 3. 85. 138. 27. 51. 5. 1. 1. 121. 158. 0. 0. 0. 0. 0. 2.
      0. 0. 0. 3. 27. 157. 33. 0. 3. 0. 0. 0. 91. 175. 5. 0. 0. 0. 0. 0.
      2. 0. 2. 0. 93. 97. 0. 1. 0. 1. 0. 1. 65. 158. 6. 0. 0. 0. 0. 0.
      2. 1. 0. 10. 148. 41. 0. 0. 0. 1. 2. 0. 68. 155. 6. 0. 0. 0. 0. 2.
      0. 0. 4. 13. 170. 0. 1. 0. 0. 1. 0. 5. 61. 188. 12. 0. 0. 0. 0. 0.
      3. 1. 0. 20. 159. 1. 0. 0. 3. 1. 2. 0. 90. 212. 7. 0. 0. 0. 0. 0.
      0. 0. 1. 18. 162. 2. 0. 0. 0. 0. 0. 3. 137. 138. 0. 0. 0. 0. 0. 2.
      0. 2. 0. 14. 157. 0. 1. 3. 0. 1. 0. 29. 212. 62. 0. 0. 0. 0. 0. 0.
      0. 0. 1. 15. 194. 37. 0. 0. 0. 1. 37. 181. 137. 6. 0. 0. 0. 0. 0.
      0. 0. 1. 0. 0. 136. 181. 68. 58. 79. 148. 206. 136. 1. 0. 0. 0. 0.
      0. 0. 1. 0. 1. 0. 0. 24. 167. 227. 205. 200. 150. 79. 1. 0. 2. 0.
      0. 0. 0. 0. 0. 1. 0. 0. 0. 0. 5. 27. 26. 12. 0. 4. 0. 2. 1. 0. 0.
      0. 0. 0. 0. 1. 0. 0. 3. 4. 0. 4. 0. 0. 3. 2. 0. 0. 1. 0. 0. 0. 0.
      0. 1. 0. 1. 0. 0. 0. 5. 0. 2. 0. 0. 0. 1. 0. 0. 0. 0. 0. 0. 0.</_>
    <_>
      2. 0. 1. 0. 2. 0. 0. 1. 1. 0. 0. 2. 0. 3. 0. 0. 0. 0. 0. 0. 0. 3.
      0. 0. 0. 0. 0. 0. 0. 2. 1. 1. 0. 0. 0. 1. 0. 0. 0. 0. 1. 0. 0. 2.
      1. 3. 0. 0. 0. 1. 0. 0. 2. 0. 2. 0. 0. 0. 0. 0. 1. 1. 0. 0. 0. 0.
      1. 0. 0. 2. 0. 1. 0. 0. 0. 0. 0. 0. 0. 0. 0. 0. 1. 0. 1. 0. 2. 1.
      15. 36. 18. 0. 2. 0. 2. 1. 0. 0. 0. 0. 0. 0. 2. 1. 1. 0. 3. 72.
      192. 255. 148. 2. 0. 1. 1. 0. 0. 0. 0. 0. 3. 0. 0. 3. 0. 1. 102.
      235. 158. 201. 139. 46. 16. 0. 0. 2. 0. 0. 0. 0. 0. 3. 0. 0. 1.
      97. 255. 178. 20. 159. 241. 241. 231. 223. 115. 11. 0. 0. 0. 0. 0.
      3. 0. 0. 37. 224. 215. 91. 210. 243. 227. 209. 199. 236. 255. 170.
      21. 2. 0. 0. 1. 0. 3. 0. 141. 255. 91. 127. 194. 61. 50. 42. 22.
      45. 100. 239. 133. 0. 3. 4. 2. 1. 0. 51. 230. 193. 17. 63. 42. 2.
      0. 1. 0. 1. 3. 90. 250. 33. 0. 2. 0. 3. 0. 116. 255. 89. 1. 0. 1.
      0. 4. 2. 0. 0. 0. 55. 251. 43. 0. 0. 1. 0. 5. 171. 195. 14. 0. 3.
      0. 5. 0. 0. 0. 2. 2. 171. 252. 31. 3. 0. 1. 0. 32. 247. 118. 0. 2.
      0. 0. 1. 0. 4. 0. 11. 130. 255. 135. 2. 2. 3. 1. 0. 38. 250. 71.
      2. 2. 0. 3. 1. 0. 0. 54. 182. 253. 134. 8. 0. 0. 0. 0. 0. 28. 232.
      85. 0. 1. 0. 10. 33. 99. 163. 238. 225. 95. 6. 0. 2. 0. 0. 0. 0.
      0. 88. 69. 2. 0. 0. 33. 81. 131. 146. 112. 46. 2. 0. 0. 0. 0. 0.
      0. 0. 0. 5. 0. 0. 0. 0. 2. 4. 1. 0. 2. 0. 0. 2. 0. 0. 0. 0. 0. 0.
      5. 0. 0. 5. 0. 0. 0. 2. 0. 0. 0. 2. 0. 0. 0. 0. 0. 0. 3. 0. 0. 0.
      1. 0. 0. 2. 0. 0. 1. 2. 0. 0. 0. 1. 0. 0. 0. 0.</_>
    <_>
      0. 1. 0. 0. 1. 1. 0. 0. 1. 0. 0. 3. 0. 1. 0. 0. 0. 0. 0. 0. 0. 0.
      1. 0. 3. 0. 0. 1. 0. 4. 1. 0. 0. 0. 2. 2. 0. 0. 0. 0. 0. 0. 2. 0.
      1. 0. 0. 2. 1. 0. 1. 0. 2. 0. 0. 0. 0. 0. 0. 0. 0. 0. 1. 0. 0. 0.
      3. 0. 0. 40. 112. 97. 38. 1. 0. 2. 0. 0. 0. 0. 0. 0. 0. 1. 1. 1.
      2. 0. 60. 208. 217. 222. 202. 8. 1. 0. 0. 0. 0. 0. 0. 1. 0. 2. 1.
      0. 0. 27. 209. 209. 11. 13. 161. 158. 2. 0. 0. 0. 0. 0. 1. 0. 0.
      1. 0. 0. 8. 109. 224. 62. 0. 0. 26. 198. 82. 0. 0. 0. 0. 0. 0. 0.
      0. 0. 0. 2. 31. 196. 48. 0. 0. 0. 0. 127. 169. 1. 0. 0. 0. 0. 0.
      1. 1. 0. 0. 2. 124. 134. 1. 0. 1. 1. 0. 59. 205. 13. 0. 0. 0. 0.
      2. 0. 0. 1. 0. 23. 165. 38. 0. 3. 0. 1. 4. 0. 168. 70. 0. 0. 0. 0.
      0. 0. 1. 0. 0. 54. 159. 16. 0. 0. 4. 0. 0. 2. 165. 125. 0. 0. 0.
      0. 0. 2. 0. 0. 0. 59. 165. 9. 3. 0. 3. 0. 0. 0. 147. 116. 0. 0. 0.
      0. 1. 0. 0. 0. 0. 55. 158. 17. 0. 0. 0. 3. 1. 0. 144. 116. 0. 0.
      0. 0. 0. 0. 0. 3. 0. 56. 170. 13. 1. 3. 0. 0. 0. 16. 167. 26. 0.
      0. 0. 0. 0. 2. 0. 2. 0. 33. 195. 39. 0. 0. 0. 1. 0. 89. 124. 1. 0.
      0. 0. 0. 2. 0. 5. 0. 3. 1. 126. 189. 19. 0. 1. 10. 96. 139. 19. 0.
      0. 0. 0. 0. 0. 2. 0. 0. 1. 0. 27. 168. 199. 119. 148. 187. 153.
      17. 0. 0. 0. 0. 0. 0. 0. 2. 0. 0. 0. 4. 0. 8. 115. 211. 203. 104.
      8. 0. 1. 2. 0. 0. 0. 0. 1. 0. 0. 2. 0. 0. 5. 0. 0. 0. 1. 1. 0. 0.
      3. 0. 0. 0. 0. 0. 1. 0. 1. 1. 3. 0. 0. 0. 0. 4. 0. 2. 0. 2. 0. 4.
      0. 0. 0. 0.</_>
    <_>
      0. 5. 0. 0. 0. 0. 0. 1. 0. 1. 0. 3. 0. 0. 0. 0. 0. 2. 0. 0. 2. 0.
      0. 2. 0. 2. 1. 0. 0. 2. 1. 0. 0. 1. 0. 2. 4. 0. 3. 0. 1. 0. 3. 0.
      0. 0. 0. 0. 1. 0. 0. 8. 0. 10. 0. 0. 0. 1. 0. 0. 0. 0. 1. 0. 3. 2.
      0. 2. 1. 1. 46. 160. 141. 162. 127. 10. 0. 1. 1. 5. 1. 2. 0. 0. 0.
      0. 0. 1. 1. 67. 225. 204. 196. 237. 216. 151. 22. 0. 0. 0. 0. 0.
      0. 1. 0. 4. 0. 0. 47. 197. 209. 45. 27. 67. 49. 209. 135. 3. 2. 0.
      2. 1. 0. 0. 0. 0. 1. 59. 213. 217. 43. 4. 0. 0. 0. 89. 208. 24. 0.
      1. 0. 1. 0. 3. 0. 0. 59. 231. 208. 50. 0. 0. 0. 1. 1. 20. 188.
      131. 0. 0. 1. 0. 0. 0. 0. 63. 228. 187. 34. 1. 0. 0. 0. 1. 0. 0.
      118. 189. 1. 0. 0. 4. 0. 0. 61. 224. 239. 45. 0. 2. 0. 2. 0. 0. 0.
      0. 121. 223. 0. 0. 0. 0. 1. 36. 216. 206. 98. 68. 3. 0. 2. 0. 0.
      0. 1. 0. 126. 170. 0. 2. 1. 2. 1. 76. 245. 120. 0. 0. 1. 0. 0. 0.
      4. 0. 0. 8. 173. 103. 5. 0. 0. 2. 0. 108. 235. 18. 1. 2. 0. 3. 3.
      0. 0. 1. 0. 75. 179. 19. 1. 1. 0. 0. 0. 115. 224. 0. 2. 0. 0. 0.
      0. 0. 2. 0. 35. 161. 66. 1. 0. 0. 3. 0. 0. 101. 251. 98. 3. 6. 1.
      8. 31. 74. 125. 167. 170. 89. 2. 0. 4. 2. 0. 0. 0. 27. 156. 217.
      193. 210. 206. 182. 208. 222. 176. 91. 25. 0. 0. 0. 0. 1. 1. 0. 1.
      0. 4. 47. 100. 127. 121. 79. 69. 44. 5. 0. 2. 0. 0. 0. 0. 0. 0. 0.
      2. 3. 0. 0. 3. 0. 0. 0. 2. 0. 1. 1. 0. 3. 0. 0. 0. 0. 3. 0. 0. 0.
      0. 0. 1. 0. 0. 1. 1. 0. 1. 2. 0. 1. 0. 0. 0. 0. 0. 0. 0. 2. 2. 0.
      0. 1. 2. 0. 0. 1. 0. 0. 4. 0. 0. 0. 0. 0.</_>
    <_>
      0. 3. 0. 1. 0. 1. 1. 0. 0. 1. 0. 3. 0. 0. 1. 0. 0. 3. 0. 1. 3. 0.
      0. 2. 0. 0. 0. 0. 1. 1. 0. 0. 3. 0. 3. 0. 1. 0. 0. 1. 0. 1. 1. 0.
      1. 1. 0. 2. 20. 116. 165. 116. 16. 8. 0. 0. 2. 0. 3. 4. 0. 3. 0.
      1. 0. 0. 0. 1. 29. 148. 138. 185. 176. 69. 0. 1. 0. 0. 1. 1. 0. 0.
      0. 2. 0. 4. 3. 0. 0. 0. 2. 25. 106. 176. 106. 6. 0. 1. 0. 0. 0. 0.
      2. 0. 0. 2. 0. 0. 2. 0. 0. 0. 0. 48. 221. 86. 0. 2. 2. 0. 2. 0. 0.
      0. 2. 0. 2. 1. 0. 0. 0. 2. 0. 26. 184. 186. 12. 0. 1. 0. 0. 0. 2.
      0. 1. 24. 59. 3. 0. 2. 0. 0. 2. 0. 49. 210. 57. 2. 0. 1. 2. 0. 2.
      0. 0. 81. 152. 6. 0. 2. 0. 0. 0. 0. 0. 204. 86. 1. 0. 0. 0. 0. 0.
      1. 14. 187. 152. 0. 0. 0. 0. 0. 3. 2. 9. 172. 44. 0. 1. 0. 0. 0.
      3. 0. 79. 231. 62. 3. 1. 0. 0. 2. 0. 0. 89. 173. 8. 0. 2. 0. 1. 0.
      0. 0. 84. 198. 13. 0. 1. 0. 2. 0. 1. 19. 197. 95. 0. 2. 0. 1. 0.
      0. 0. 0. 85. 209. 26. 2. 0. 1. 0. 0. 1. 108. 186. 6. 1. 0. 0. 1.
      0. 0. 0. 3. 52. 206. 135. 0. 1. 0. 1. 1. 34. 197. 67. 2. 1. 0. 1.
      0. 1. 3. 0. 0. 3. 71. 218. 131. 35. 39. 45. 107. 162. 64. 0. 0. 0.
      1. 2. 0. 0. 1. 0. 3. 0. 9. 82. 210. 251. 235. 203. 172. 76. 0. 4.
      0. 0. 1. 0. 0. 2. 0. 1. 0. 3. 0. 1. 40. 97. 69. 31. 4. 0. 0. 1. 0.
      0. 0. 0. 0. 0. 0. 3. 0. 0. 2. 0. 3. 0. 0. 0. 0. 0. 1. 0. 0. 0. 0.
      0. 0. 0. 0. 2. 1. 0. 3. 1. 0. 0. 1. 2. 1. 0. 0. 0. 0. 0. 0. 0. 0.
      2. 0. 0. 2. 0. 0. 2. 3. 0. 0. 0. 0. 1. 2. 0. 0. 0. 0. 0. 0.</_>
    <_>
      0. 1. 0. 1. 0. 0. 2. 0. 0. 0. 1. 1. 0. 0. 0. 1. 0. 1. 0. 0. 1. 0.
      0. 0. 1. 0. 0. 2. 0. 4. 1. 0. 2. 0. 0. 0. 0. 0. 0. 1. 0. 0. 1. 4.
      1. 0. 0. 1. 0. 2. 0. 1. 0. 5. 0. 0. 2. 0. 0. 0. 0. 4. 0. 0. 0. 0.
      3. 0. 1. 0. 0. 3. 1. 0. 0. 0. 1. 0. 3. 0. 1. 0. 3. 1. 4. 0. 0. 0.
      0. 3. 1. 0. 2. 0. 2. 0. 0. 0. 2. 4. 0. 3. 0. 0. 0. 1. 0. 1. 2. 0.
      19. 40. 37. 37. 5. 4. 0. 4. 0. 0. 0. 1. 0. 0. 2. 0. 44. 165. 87.
      58. 150. 133. 150. 168. 182. 80. 12. 0. 4. 0. 1. 0. 1. 1. 0. 74.
      212. 135. 12. 154. 144. 11. 19. 19. 100. 210. 201. 39. 0. 0. 0. 2.
      1. 0. 115. 214. 108. 0. 0. 47. 86. 2. 0. 2. 0. 35. 198. 166. 3. 0.
      0. 0. 1. 55. 226. 79. 0. 1. 0. 2. 0. 0. 3. 0. 2. 2. 87. 204. 2. 1.
      1. 0. 0. 117. 176. 0. 2. 0. 2. 1. 0. 0. 0. 0. 0. 0. 117. 175. 1.
      0. 0. 4. 1. 115. 151. 0. 1. 0. 0. 0. 0. 2. 1. 1. 1. 122. 190. 63.
      0. 0. 1. 0. 0. 103. 199. 7. 0. 1. 1. 3. 0. 1. 11. 64. 151. 168.
      43. 1. 0. 0. 1. 0. 0. 26. 191. 147. 24. 0. 0. 22. 90. 123. 120.
      135. 82. 6. 0. 0. 3. 1. 0. 0. 3. 0. 28. 95. 144. 173. 176. 191.
      155. 91. 35. 0. 0. 1. 0. 0. 0. 2. 1. 0. 0. 2. 3. 0. 11. 41. 47.
      40. 3. 0. 0. 1. 0. 0. 2. 0. 0. 0. 0. 0. 0. 0. 0. 0. 0. 0. 0. 0. 0.
      0. 0. 0. 0. 0. 0. 0. 0. 0. 0. 0. 0. 0. 0. 0. 0. 0. 0. 0. 0. 0. 0.
      0. 0. 0. 0. 0. 0. 0. 0. 0. 0. 0. 0. 0. 0. 0. 0. 0. 0. 0. 0. 0. 0.
      0. 0. 0. 0. 0. 0. 0. 0. 0. 0. 0. 0. 0. 0. 0. 0. 0. 0. 0. 0. 0. 0.
      0. 0. 0.</_>
    <_>
      0. 0. 0. 1. 0. 2. 0. 0. 0. 1. 3. 0. 1. 2. 0. 1. 0. 0. 0. 0. 0. 4.
      0. 0. 2. 0. 0. 2. 1. 0. 0. 4. 0. 0. 1. 0. 0. 0. 0. 0. 1. 0. 4. 0.
      0. 2. 0. 0. 0. 2. 0. 1. 1. 0. 4. 0. 0. 0. 0. 0. 0. 2. 0. 1. 0. 0.
      1. 0. 3. 39. 77. 53. 2. 2. 0. 0. 0. 0. 0. 0. 0. 4. 0. 0. 2. 2. 0.
      93. 187. 220. 243. 228. 113. 1. 1. 2. 0. 0. 0. 0. 0. 0. 1. 0. 2.
      0. 30. 228. 255. 170. 70. 97. 189. 75. 0. 0. 0. 0. 0. 0. 0. 2. 0.
      2. 0. 2. 129. 234. 76. 0. 0. 3. 54. 169. 19. 0. 0. 0. 0. 0. 2. 0.
      2. 0. 0. 42. 234. 154. 0. 3. 0. 0. 3. 137. 77. 0. 0. 0. 0. 0. 3.
      0. 0. 1. 1. 97. 242. 42. 0. 1. 0. 0. 0. 74. 136. 2. 1. 0. 3. 0. 0.
      4. 4. 0. 0. 123. 201. 13. 0. 0. 0. 3. 0. 0. 150. 45. 0. 0. 0. 0.
      0. 0. 0. 0. 0. 170. 105. 1. 1. 0. 3. 0. 0. 3. 101. 95. 0. 3. 0. 0.
      2. 2. 0. 2. 7. 165. 63. 1. 1. 0. 1. 0. 1. 0. 36. 148. 1. 0. 1. 2.
      0. 1. 0. 1. 10. 162. 58. 0. 0. 3. 0. 0. 0. 2. 9. 182. 34. 0. 1. 0.
      2. 0. 0. 3. 17. 187. 24. 2. 1. 0. 0. 1. 3. 0. 10. 187. 52. 3. 0.
      0. 0. 0. 2. 0. 14. 159. 31. 0. 1. 1. 0. 0. 2. 0. 30. 190. 20. 0.
      0. 2. 0. 0. 0. 2. 0. 140. 111. 0. 0. 1. 1. 0. 0. 14. 174. 137. 0.
      2. 1. 0. 0. 0. 2. 0. 2. 23. 125. 128. 33. 28. 26. 31. 89. 188.
      153. 24. 0. 0. 0. 0. 1. 1. 0. 1. 0. 1. 5. 81. 122. 157. 190. 133.
      89. 69. 1. 0. 0. 0. 0. 0. 3. 0. 0. 1. 0. 0. 5. 0. 0. 0. 0. 5. 0.
      0. 1. 1. 0. 0. 0. 0. 0. 0. 4. 2. 1. 0. 0. 0. 0. 3. 0. 0. 0. 1. 0.
      3. 0. 0. 0. 0.</_>
    <_>
      0. 0. 0. 0. 0. 0. 0. 0. 1. 0. 0. 2. 0. 0. 2. 0. 0. 0. 0. 0. 0. 0.
      0. 0. 0. 0. 0. 0. 0. 0. 2. 0. 1. 3. 0. 2. 0. 0. 0. 0. 0. 0. 0. 0.
      0. 0. 0. 0. 1. 10. 39. 25. 0. 0. 1. 0. 0. 0. 0. 0. 0. 0. 0. 0. 0.
      0. 0. 0. 0. 71. 252. 228. 68. 6. 0. 0. 0. 0. 0. 0. 0. 0. 0. 0. 0.
      0. 0. 0. 2. 70. 249. 254. 172. 0. 2. 2. 0. 0. 0. 0. 0. 0. 0. 0. 0.
      0. 0. 0. 0. 69. 249. 254. 181. 0. 0. 0. 0. 0. 0. 0. 0. 0. 0. 0. 0.
      0. 0. 0. 0. 98. 254. 255. 175. 4. 0. 1. 0. 0. 0. 0. 0. 0. 0. 0. 0.
      0. 0. 0. 72. 226. 254. 254. 197. 9. 0. 1. 0. 0. 0. 0. 0. 2. 0. 1.
      0. 0. 0. 5. 170. 255. 255. 252. 224. 47. 0. 0. 0. 0. 0. 0. 0. 2.
      3. 2. 0. 4. 0. 75. 241. 196. 118. 255. 182. 0. 0. 2. 0. 0. 0. 0.
      1. 0. 0. 2. 3. 0. 14. 196. 253. 165. 66. 253. 207. 27. 0. 0. 0. 0.
      0. 0. 3. 0. 3. 0. 0. 0. 74. 244. 255. 93. 58. 255. 175. 1. 3. 0.
      0. 0. 0. 0. 0. 0. 0. 2. 0. 1. 6. 196. 255. 118. 155. 255. 229. 45.
      0. 0. 0. 0. 0. 0. 0. 5. 0. 0. 5. 0. 0. 177. 255. 77. 179. 254.
      151. 16. 0. 0. 0. 0. 0. 0. 0. 0. 0. 0. 0. 1. 1. 181. 253. 208.
      238. 231. 34. 3. 0. 2. 0. 0. 0. 0. 0. 0. 1. 0. 2. 1. 0. 188. 255.
      255. 255. 164. 5. 1. 2. 0. 0. 0. 0. 0. 0. 0. 1. 2. 0. 1. 2. 105.
      188. 251. 183. 68. 0. 2. 1. 0. 0. 0. 0. 0. 1. 5. 0. 1. 0. 0. 0. 1.
      15. 34. 11. 0. 0. 0. 0. 4. 0. 0. 0. 0. 0. 0. 0. 1. 2. 1. 3. 0. 0.
      1. 0. 0. 3. 1. 0. 0. 0. 0. 0. 0. 0. 0. 4. 0. 0. 0. 0. 4. 0. 0. 3.
      0. 0. 0. 2. 0. 0. 0. 0. 0.</_>
    <_>
      0. 0. 0. 0. 0. 0. 0. 0. 1. 0. 0. 2. 0. 1. 1. 0. 1. 1. 0. 0. 0. 0.
      0. 0. 0. 0. 0. 0. 0. 2. 0. 0. 1. 0. 0. 2. 0. 0. 2. 0. 0. 0. 0. 0.
      0. 1. 1. 0. 0. 1. 0. 0. 0. 4. 1. 0. 4. 0. 1. 1. 0. 0. 0. 0. 0. 1.
      0. 0. 0. 2. 0. 2. 49. 72. 104. 39. 0. 0. 0. 2. 0. 0. 0. 0. 0. 0.
      0. 0. 0. 0. 59. 163. 219. 245. 255. 177. 3. 3. 0. 0. 0. 0. 0. 0.
      0. 0. 0. 0. 2. 133. 237. 147. 153. 255. 206. 205. 56. 1. 0. 1. 0.
      0. 0. 0. 0. 0. 1. 2. 96. 220. 65. 122. 255. 133. 18. 200. 90. 0.
      0. 3. 0. 0. 0. 0. 0. 0. 2. 4. 157. 77. 99. 243. 134. 0. 22. 220.
      70. 1. 1. 0. 0. 2. 0. 0. 1. 1. 0. 0. 27. 110. 233. 125. 0. 1. 78.
      166. 2. 1. 1. 0. 2. 0. 0. 1. 0. 0. 0. 1. 31. 219. 163. 0. 3. 7.
      179. 91. 1. 1. 0. 0. 0. 2. 0. 3. 0. 2. 0. 18. 215. 207. 6. 1. 0.
      99. 212. 9. 0. 0. 0. 0. 0. 1. 1. 0. 0. 1. 2. 134. 247. 83. 1. 0.
      3. 174. 174. 0. 0. 0. 0. 0. 1. 0. 2. 4. 0. 0. 87. 246. 108. 2. 0.
      1. 36. 243. 87. 2. 0. 0. 0. 0. 0. 5. 0. 0. 2. 63. 236. 135. 0. 1.
      0. 50. 183. 127. 3. 0. 0. 0. 0. 0. 3. 0. 1. 2. 11. 230. 161. 0. 0.
      0. 51. 229. 183. 8. 1. 0. 0. 0. 0. 0. 0. 0. 2. 2. 142. 206. 21. 0.
      14. 128. 225. 162. 13. 0. 0. 3. 0. 0. 0. 0. 1. 0. 0. 48. 232. 132.
      49. 102. 201. 244. 133. 10. 0. 0. 1. 0. 0. 0. 0. 0. 0. 0. 0. 103.
      227. 200. 198. 217. 186. 51. 0. 0. 0. 1. 0. 2. 0. 0. 0. 0. 2. 1.
      5. 2. 0. 2. 0. 0. 0. 0. 2. 0. 3. 1. 0. 1. 0. 0. 0. 0. 1. 0. 0. 0.
      0. 0. 1. 1. 1. 0. 0. 0. 1. 0. 0. 1. 0. 0. 0. 0.</_>
    <_>
      1. 0. 0. 1. 0. 0. 1. 0. 2. 0. 1. 0. 0. 0. 3. 0. 0. 0. 0. 0. 0. 4.
      2. 0. 0. 1. 0. 0. 0. 1. 0. 3. 0. 2. 0. 3. 0. 0. 0. 0. 1. 0. 0. 0.
      0. 1. 3. 0. 0. 1. 2. 0. 2. 0. 0. 0. 0. 0. 0. 0. 0. 1. 0. 1. 3. 0.
      0. 0. 3. 0. 0. 0. 0. 3. 0. 2. 0. 0. 0. 0. 0. 1. 1. 0. 0. 0. 2. 3.
      0. 0. 5. 0. 0. 2. 0. 0. 0. 0. 0. 0. 1. 0. 0. 1. 3. 0. 0. 5. 58.
      93. 92. 21. 0. 3. 0. 0. 0. 0. 0. 0. 0. 2. 0. 0. 0. 4. 73. 175.
      232. 255. 254. 143. 12. 1. 0. 2. 0. 0. 0. 0. 0. 1. 1. 1. 53. 169.
      242. 232. 255. 235. 232. 229. 213. 175. 57. 0. 0. 0. 0. 0. 0. 1.
      0. 52. 236. 231. 110. 16. 165. 166. 49. 50. 72. 149. 206. 134. 11.
      0. 2. 0. 0. 0. 0. 93. 221. 46. 1. 0. 17. 62. 47. 2. 1. 1. 51. 188.
      148. 3. 0. 2. 3. 0. 0. 91. 230. 51. 0. 0. 2. 0. 6. 0. 1. 3. 0. 50.
      203. 67. 0. 0. 0. 0. 2. 27. 191. 229. 159. 105. 25. 1. 2. 0. 0. 1.
      0. 14. 198. 178. 1. 0. 0. 0. 1. 1. 19. 131. 220. 239. 235. 191.
      96. 62. 36. 21. 43. 160. 251. 154. 1. 1. 1. 2. 0. 3. 0. 0. 11. 64.
      119. 150. 196. 189. 205. 201. 250. 252. 177. 38. 0. 0. 0. 2. 0. 0.
      0. 2. 0. 1. 4. 0. 10. 36. 53. 65. 60. 56. 13. 0. 0. 2. 0. 1. 0. 1.
      2. 0. 1. 1. 0. 2. 0. 0. 0. 0. 2. 0. 1. 0. 2. 0. 0. 0. 0. 0. 0. 0.
      0. 0. 0. 0. 0. 0. 0. 0. 0. 0. 0. 0. 0. 0. 0. 0. 0. 0. 0. 0. 0. 0.
      0. 0. 0. 0. 0. 0. 0. 0. 0. 0. 0. 0. 0. 0. 0. 0. 0. 0. 0. 0. 0. 0.
      0. 0. 0. 0. 0. 0. 0. 0. 0. 0. 0. 0. 0. 0. 0. 0. 0. 0. 0. 0. 0. 0.
      0. 0. 0. 0. 0. 0. 0. 0.</_>
    <_>
      0. 0. 0. 0. 0. 0. 0. 0. 1. 0. 0. 0. 1. 0. 1. 0. 0. 0. 0. 0. 0. 0.
      0. 0. 0. 0. 0. 0. 0. 3. 0. 1. 0. 2. 1. 0. 0. 0. 0. 0. 0. 0. 0. 0.
      0. 0. 0. 0. 3. 0. 3. 0. 63. 199. 49. 1. 0. 0. 0. 0. 0. 0. 0. 0. 0.
      0. 0. 0. 0. 4. 0. 0. 174. 251. 89. 0. 0. 0. 0. 0. 0. 0. 0. 0. 0.
      0. 0. 0. 3. 0. 1. 51. 227. 245. 57. 0. 0. 0. 0. 0. 0. 0. 0. 0. 0.
      0. 0. 0. 1. 0. 77. 236. 248. 255. 77. 1. 0. 0. 0. 0. 0. 0. 0. 0.
      0. 0. 0. 0. 1. 64. 239. 208. 130. 254. 125. 0. 0. 0. 0. 0. 0. 0.
      0. 0. 0. 0. 0. 0. 60. 226. 209. 52. 64. 255. 140. 0. 0. 0. 0. 0.
      3. 0. 2. 0. 1. 0. 1. 32. 228. 228. 26. 1. 75. 255. 107. 0. 0. 0.
      0. 0. 0. 0. 0. 1. 5. 0. 0. 141. 254. 108. 0. 0. 137. 255. 72. 1.
      0. 0. 0. 0. 3. 0. 3. 2. 0. 0. 87. 241. 140. 10. 0. 51. 238. 205.
      38. 1. 0. 0. 0. 0. 0. 0. 0. 0. 0. 39. 222. 183. 8. 0. 13. 184.
      250. 80. 0. 0. 0. 0. 0. 0. 0. 1. 0. 2. 5. 160. 244. 65. 0. 57.
      196. 255. 125. 0. 1. 1. 0. 0. 0. 0. 0. 2. 0. 0. 99. 247. 104. 25.
      145. 248. 236. 107. 1. 0. 1. 0. 0. 0. 0. 0. 0. 0. 3. 2. 179. 239.
      164. 226. 251. 194. 56. 0. 0. 1. 0. 1. 0. 0. 0. 0. 2. 0. 0. 27.
      225. 255. 237. 193. 94. 12. 0. 0. 1. 0. 1. 0. 0. 0. 0. 0. 1. 1. 0.
      10. 88. 108. 65. 0. 0. 0. 0. 0. 0. 0. 0. 0. 0. 0. 0. 0. 0. 0. 3.
      0. 4. 0. 0. 3. 0. 0. 0. 0. 0. 0. 0. 0. 0. 0. 0. 0. 0. 0. 0. 0. 0.
      2. 3. 0. 0. 0. 0. 0. 0. 0. 0. 0. 0. 0. 0. 0. 3. 1. 1. 2. 0. 0. 1.
      0. 0. 0. 0. 0. 0. 0. 0. 0. 0. 0. 0. 0.</_>
    <_>
      0. 0. 0. 2. 0. 1. 0. 1. 2. 0. 1. 0. 0. 0. 1. 0. 1. 0. 1. 0. 5. 0.
      3. 0. 0. 2. 0. 0. 1. 0. 0. 0. 0. 4. 0. 0. 0. 0. 0. 2. 0. 3. 0. 1.
      0. 0. 0. 1. 2. 1. 0. 1. 3. 0. 0. 0. 1. 1. 0. 0. 0. 2. 0. 2. 0. 0.
      0. 0. 0. 4. 0. 0. 0. 0. 2. 0. 0. 0. 2. 0. 0. 1. 0. 0. 2. 0. 1. 0.
      3. 5. 11. 9. 2. 0. 0. 1. 4. 0. 0. 2. 0. 1. 3. 1. 0. 3. 0. 27. 103.
      220. 241. 242. 190. 131. 71. 20. 0. 1. 0. 0. 0. 0. 1. 0. 0. 1. 55.
      201. 255. 254. 255. 255. 254. 255. 252. 186. 46. 0. 2. 0. 2. 0. 0.
      0. 2. 53. 214. 255. 253. 246. 233. 255. 179. 161. 234. 254. 172.
      12. 0. 2. 1. 0. 2. 0. 69. 241. 236. 163. 118. 75. 149. 160. 7. 0.
      62. 245. 242. 28. 1. 0. 0. 2. 0. 70. 246. 239. 84. 1. 0. 31. 131.
      13. 0. 3. 0. 131. 232. 27. 0. 0. 0. 0. 0. 150. 255. 81. 0. 0. 0.
      30. 23. 3. 1. 0. 3. 79. 225. 24. 0. 2. 0. 4. 12. 187. 207. 8. 1.
      0. 2. 3. 0. 0. 2. 0. 1. 72. 245. 27. 0. 0. 1. 0. 12. 188. 188. 5.
      0. 1. 0. 3. 1. 0. 0. 3. 0. 101. 254. 38. 1. 0. 0. 2. 9. 184. 195.
      5. 2. 0. 0. 0. 0. 1. 0. 0. 48. 243. 237. 32. 0. 4. 0. 2. 18. 217.
      248. 36. 0. 3. 2. 0. 1. 0. 26. 126. 224. 187. 54. 2. 1. 0. 3. 0.
      5. 153. 252. 205. 138. 96. 71. 51. 91. 148. 226. 246. 182. 8. 1.
      0. 0. 0. 2. 0. 1. 24. 86. 143. 255. 254. 244. 143. 116. 190. 105.
      67. 18. 0. 0. 0. 0. 0. 0. 0. 0. 1. 2. 0. 51. 107. 87. 29. 0. 12.
      1. 0. 0. 0. 0. 0. 0. 0. 0. 2. 1. 0. 0. 3. 0. 3. 1. 0. 1. 0. 2. 0.
      1. 3. 0. 0. 0. 0. 2. 0. 0. 0. 0. 1. 2. 0. 0. 0. 1. 3. 0. 0. 0. 0.
      0. 0. 0. 0.</_>
    <_>
      1. 0. 0. 2. 0. 0. 0. 1. 1. 0. 0. 3. 0. 0. 2. 0. 0. 1. 1. 0. 0. 0.
      0. 3. 3. 0. 1. 0. 0. 0. 5. 0. 0. 1. 0. 0. 3. 0. 1. 4. 0. 3. 1. 0.
      0. 0. 0. 2. 0. 1. 0. 0. 4. 0. 0. 2. 0. 3. 1. 0. 0. 0. 1. 0. 1. 1.
      0. 0. 0. 1. 2. 0. 0. 0. 0. 0. 1. 1. 0. 1. 0. 1. 0. 4. 0. 0. 6. 0.
      1. 0. 0. 0. 0. 7. 2. 3. 0. 0. 1. 2. 1. 0. 2. 0. 1. 1. 0. 53. 102.
      56. 1. 67. 122. 156. 180. 83. 9. 0. 0. 0. 0. 0. 2. 1. 2. 75. 171.
      240. 207. 61. 27. 178. 103. 62. 122. 222. 109. 5. 0. 4. 0. 1. 0.
      1. 96. 248. 203. 76. 15. 0. 12. 63. 3. 0. 3. 76. 223. 48. 1. 0. 0.
      0. 0. 78. 250. 135. 11. 0. 2. 0. 0. 2. 0. 0. 0. 19. 201. 133. 1.
      1. 2. 0. 2. 113. 253. 9. 0. 2. 0. 2. 0. 0. 1. 0. 0. 1. 163. 212.
      2. 0. 0. 0. 0. 107. 255. 5. 0. 0. 2. 0. 4. 1. 1. 0. 2. 0. 163.
      217. 0. 0. 0. 4. 0. 69. 231. 44. 2. 0. 0. 0. 0. 0. 0. 1. 0. 27.
      212. 150. 3. 0. 0. 0. 0. 9. 181. 174. 0. 3. 0. 3. 1. 0. 2. 0. 0.
      130. 216. 30. 0. 4. 0. 1. 0. 3. 39. 189. 113. 24. 0. 1. 0. 0. 0.
      7. 111. 229. 78. 0. 2. 0. 1. 1. 2. 0. 0. 48. 202. 202. 117. 30.
      12. 32. 98. 184. 202. 60. 2. 0. 1. 0. 0. 1. 0. 2. 0. 0. 29. 111.
      161. 183. 191. 191. 187. 120. 18. 0. 0. 3. 0. 3. 0. 0. 0. 0. 0. 0.
      0. 0. 2. 9. 15. 13. 6. 0. 0. 1. 0. 0. 0. 0. 0. 0. 0. 0. 0. 0. 0.
      0. 0. 0. 1. 2. 0. 0. 0. 0. 0. 0. 0. 0. 0. 0. 0. 0. 0. 0. 0. 0. 0.
      0. 0. 0. 0. 1. 1. 1. 0. 0. 0. 0. 0. 0. 0. 0. 0. 0. 0. 0. 0. 1. 1.
      1. 0. 0. 0. 0. 0. 0. 0. 0.</_></uncompressed_support_vectors>
  <decision_functions>
    <_>
      <sv_count>1</sv_count>
      <rho>5.0741323242438952e-01</rho>
      <alpha>
        1.</alpha>
      <index>
        0</index></_></decision_functions></opencv_ml_svm>
</opencv_storage>
